const float fc1_weights[20][100] = {
{-0.015270, 0.020463, 0.003646, 0.085424, 0.060520, -0.034683, -0.041409, 0.040725, -0.004484, 0.020054, 0.044439, -0.079012, 0.034054, -0.095221, 0.278636, 0.253357, -0.099869, 0.020408, -0.112641, 0.064663, 0.017149, -0.021748, -0.230246, -0.431177, -0.085885, 0.004475, -0.076310, 0.075722, -0.120119, 0.006471, -0.022922, 0.119806, 0.208210, 0.179653, 0.053942, -0.078813, -0.235218, 0.256590, -0.031472, 0.020080, -0.091928, -0.076073, 0.292704, -0.082505, -0.305846, 0.338005, -0.141150, 0.533377, -0.211254, 0.065454, 0.000856, -0.122836, -0.593387, -0.724190, 0.341260, 0.309831, -0.246336, -0.709156, -0.508600, -0.044650, -0.096260, -0.385090, -0.518375, 0.679856, 0.526222, -0.285618, -0.567832, -0.260655, -0.118815, 0.017295, -0.038170, -0.153868, 0.208466, 0.020302, -0.045090, 0.203002, 0.291526, 0.272722, 0.137589, -0.023042, 0.065482, -0.057499, -0.223695, 0.024387, 0.450971, 0.459056, 0.531421, 0.266525, 0.135847, -0.010686, -0.050872, -0.148342, -0.317132, -0.326745, -0.362796, -0.361164, -0.094245, -0.042795, 0.038130, -0.035719},
{-0.014277, 0.093062, -0.099365, -0.186017, -0.157293, -0.100416, -0.126612, -0.119837, 0.007036, -0.004888, -0.063243, 0.006792, 0.050372, -0.233447, -0.665525, -0.983098, -0.394115, 0.054837, 0.098211, -0.040238, -0.075711, -0.044829, 0.084826, -0.104969, 0.190051, 0.534415, 0.092167, 0.002126, 0.079486, 0.013179, -0.118706, -0.221849, -0.232812, -0.091838, 0.080410, -0.223287, 0.107997, -0.209026, -0.436096, -0.092137, -0.019952, -0.039127, 0.116665, 0.270998, -0.191656, 0.157295, 0.433742, 0.227491, -0.310754, -0.175748, 0.039043, 0.084028, 0.416799, 0.229526, -0.140053, 0.242937, 0.577187, -0.113792, -0.418242, -0.064350, 0.006999, -0.353781, -0.317683, -0.061964, -0.066573, 0.207558, -0.175321, -0.427866, -0.682032, -0.168980, -0.082221, -0.325051, -0.680491, -0.699510, -0.436371, -0.311739, -0.418535, -0.288121, -0.213911, -0.092288, 0.008788, -0.073384, -0.127947, 0.159557, -0.225156, -0.360216, -0.032231, 0.195992, 0.015634, -0.093919, 0.061946, -0.004090, 0.139387, 0.047610, -0.071222, 0.030483, 0.001646, 0.113871, -0.026410, -0.036242},
{0.024814, -0.015333, 0.083365, 0.058438, 0.143569, 0.024609, -0.001118, 0.040174, 0.020727, 0.071313, 0.085980, -0.020970, 0.042637, 0.228978, 0.074404, -0.135319, -0.131075, -0.002589, -0.141889, -0.108309, -0.065418, -0.183117, -0.126641, -0.253837, -0.093596, -0.003901, -0.159924, -0.301034, -0.521912, -0.212199, 0.079023, -0.054180, -0.220366, -0.112225, -0.081811, -0.057831, -0.450222, -0.297695, -0.749223, -0.176102, 0.068464, -0.305844, -0.663993, -0.624426, -0.655233, -0.270172, -0.213956, 0.082294, 0.168579, 0.041658, -0.085861, -0.119502, 0.020674, 0.176385, 0.499947, 0.286484, -0.223183, 0.040517, 0.074273, 0.237195, -0.088536, 0.083179, 0.156547, 0.050791, 0.290089, 0.285313, 0.159427, 0.062333, 0.409141, 0.295752, 0.045289, 0.227825, 0.231719, 0.252350, 0.399611, 0.283012, 0.300721, 0.390888, 0.385454, 0.029738, 0.006758, -0.032070, 0.021695, -0.268259, -0.696509, -0.648696, -0.349415, -0.134070, -0.059542, -0.099931, 0.062279, -0.073791, -0.216840, -0.265170, -0.147102, -0.346168, -0.166564, -0.043072, -0.096964, 0.044837},
{0.047979, 0.004722, -0.018763, 0.035120, 0.232716, 0.243106, 0.149782, 0.161023, 0.090603, -0.019615, 0.033657, 0.039747, -0.078776, 0.145807, 0.137549, -0.035774, 0.147591, -0.006203, -0.218217, 0.001152, 0.021558, -0.191442, -0.038031, -0.107571, -0.252283, 0.220335, -0.153868, -0.380639, -0.495162, -0.236156, -0.054034, -0.072843, -0.234531, 0.039965, -0.001341, -0.254924, -0.161338, -0.113151, -0.125876, -0.309012, -0.070882, -0.208194, -0.260940, -0.301984, -0.112744, -0.833636, -0.008667, 0.161939, 0.642587, -0.099459, 0.025772, 0.048998, 0.097079, 0.428794, 0.236895, -0.157165, -0.378853, 0.044858, 0.505840, 0.036437, -0.025948, -0.004635, -0.095574, 0.681388, 0.190148, -0.392586, 0.374985, -0.111912, 0.076755, 0.025480, -0.082054, 0.219910, 0.165989, 0.406733, 0.401878, 0.468623, 0.111287, 0.064546, 0.272297, 0.123185, 0.014251, -0.032499, 0.091504, 0.119113, 0.053577, -0.084563, -0.268252, -0.092382, 0.027294, 0.039276, 0.072763, 0.026818, -0.094555, -0.195888, -0.153909, -0.168500, -0.168205, -0.100503, 0.008828, 0.017028},
{0.073030, -0.037928, -0.051971, -0.102252, -0.135091, -0.020315, -0.118788, -0.073866, 0.021468, 0.018150, -0.062488, -0.007199, -0.062236, -0.149347, -0.255544, -0.228344, -0.068704, 0.061464, 0.136396, -0.036127, 0.022740, 0.034072, -0.042625, -0.118217, -0.125388, -0.305218, 0.047009, 0.133059, 0.121865, -0.092014, 0.078939, -0.038613, -0.112129, -0.164964, -0.085244, -0.432247, 0.377697, 0.013168, -0.238942, -0.045460, 0.044658, 0.029281, 0.068860, 0.254121, -0.046044, -0.273993, 0.183479, -0.100538, -0.161097, -0.057054, 0.018896, 0.244063, 0.408273, 0.376478, 0.076554, 0.133240, 0.518766, 0.122509, -0.043755, 0.067981, 0.018840, 0.017407, 0.129959, -0.051437, -0.153970, 0.271367, 0.034503, -0.180232, -0.211663, -0.030646, 0.024985, -0.087248, -0.284356, -0.507053, -0.557922, -0.157356, -0.162854, -0.017734, -0.058913, -0.034344, 0.094449, -0.069554, -0.154505, -0.033386, 0.006093, 0.027186, 0.030536, 0.092700, 0.108871, -0.020859, -0.088747, -0.042993, 0.049365, -0.038161, -0.154762, -0.137333, -0.104672, 0.041396, -0.018529, 0.054632},
{0.042631, -0.001237, -0.012632, 0.080298, -0.094315, -0.043565, -0.034858, -0.022211, -0.091778, -0.061781, -0.054173, -0.004995, -0.034751, -0.043377, -0.012011, -0.026785, 0.032628, 0.046768, -0.009254, -0.053805, -0.064277, -0.054536, 0.052132, -0.028684, -0.080863, 0.080621, -0.062185, -0.067904, -0.074104, -0.084600, -0.075718, -0.064129, -0.055046, -0.051719, 0.008734, 0.001523, -0.086056, -0.010063, -0.098854, 0.021385, 0.059543, -0.029232, -0.005359, 0.036746, 0.078627, -0.064655, -0.008128, -0.082613, -0.022735, 0.090762, 0.024112, -0.051761, -0.075608, -0.068349, -0.081827, -0.101239, 0.028920, 0.032753, -0.091401, 0.096718, 0.047573, -0.080471, 0.011855, -0.013746, -0.100237, 0.010972, 0.059697, -0.016150, -0.006261, 0.008572, -0.032260, 0.027369, 0.006030, -0.087619, 0.070822, -0.055422, 0.056269, 0.087870, -0.013713, 0.034777, -0.075076, -0.076455, -0.087580, -0.057979, 0.005555, -0.062716, -0.071072, -0.051845, 0.038632, 0.003395, 0.030425, -0.038400, -0.093268, 0.037306, -0.095888, 0.041051, 0.006954, -0.091407, 0.040895, -0.060107},
{-0.005514, 0.065359, -0.010406, 0.049987, -0.113779, 0.058511, 0.140832, 0.034315, -0.058547, -0.044521, 0.005200, -0.127406, -0.097482, -0.069200, -0.197963, -0.398124, -0.032856, -0.014492, 0.145779, 0.069552, -0.007997, -0.236706, -0.128473, -0.003185, -0.241644, 0.176391, -0.018349, 0.038275, 0.678091, 0.258757, 0.017370, -0.343519, 0.002024, 0.398968, -0.324285, -0.754256, -0.290361, -0.370431, 0.531584, 0.210461, -0.086388, -0.185575, 0.428059, 0.819771, 0.402104, -0.352619, 0.077106, -0.185105, -0.095375, -0.060105, -0.096141, -0.293418, 0.030351, 0.303901, 0.665773, 0.362295, 0.077257, -0.186036, -0.234912, -0.226143, -0.008070, -0.510546, -0.280833, 0.035511, 0.123432, -0.168601, -0.283251, -0.306223, -0.228801, -0.225090, 0.001478, -0.459079, -0.167302, 0.082606, 0.048719, 0.093505, -0.060785, -0.154750, -0.107213, -0.127844, -0.089524, -0.271604, -0.332221, -0.037270, 0.202977, 0.062526, 0.118843, 0.116155, -0.029790, -0.095804, 0.095318, -0.031608, -0.099107, -0.089673, -0.029925, 0.180519, 0.189652, 0.067277, -0.015025, -0.064786},
{0.043186, -0.084058, -0.050615, 0.116575, 0.108896, 0.199713, 0.206796, 0.115945, 0.018848, 0.025729, 0.081383, 0.022536, -0.044769, -0.156520, -0.433303, -0.066009, 0.302343, 0.349781, 0.292061, -0.014410, -0.071862, 0.071351, -0.039109, -0.077149, -0.514433, -0.444983, -0.572336, -0.272910, 0.319772, 0.028564, -0.100078, -0.237542, -0.142775, -0.211448, -0.499722, -0.487043, -0.107250, -0.434100, -0.350539, -0.250467, -0.057477, -0.298028, 0.098734, 0.402752, 0.476210, -0.269396, 0.104078, -0.345605, 0.222299, -0.157813, -0.034414, -0.004796, 0.273037, 0.382150, 0.034455, 0.365719, 0.102605, 0.327088, 0.174666, -0.179810, -0.049620, -0.346822, 0.016376, 0.231294, -0.031888, 0.208076, 0.091080, 0.129058, -0.400600, -0.192707, 0.082090, -0.279649, -0.665360, -0.065414, 0.625497, 0.344019, 0.179211, -0.346778, -0.242222, 0.009509, -0.087057, -0.005097, -0.249020, -0.246369, -0.519782, -0.233097, -0.162691, 0.038069, -0.060929, 0.065923, -0.083071, -0.007360, 0.050185, -0.165642, -0.294727, -0.312095, -0.384461, -0.143609, 0.057315, -0.005230},
{-0.078317, -0.038504, -0.048903, 0.072543, 0.040227, -0.070582, -0.087686, -0.072906, -0.073951, -0.032336, 0.015437, -0.026266, 0.109089, 0.068231, 0.067814, 0.041801, 0.094326, 0.105678, 0.024724, -0.054744, 0.077628, -0.050846, 0.063599, 0.144618, 0.169646, 0.309961, 0.419800, 0.377509, 0.388933, 0.163742, 0.003811, -0.046591, 0.079325, 0.012632, 0.066759, -0.343380, -0.263423, -0.065110, 0.077632, 0.061183, 0.063734, 0.061835, 0.002722, -0.125245, 0.205935, 0.055194, -0.028400, -0.365133, -0.190136, 0.022607, -0.051067, -0.107588, -0.328267, 0.011266, 0.286092, -0.216756, -0.069792, -0.058202, -0.004439, 0.040107, 0.065429, 0.061529, -0.096654, -0.160572, -0.214742, -0.494435, 0.190487, 0.263287, 0.275835, -0.038516, -0.077779, 0.029955, 0.164066, 0.004327, -0.072060, 0.160647, 0.182736, 0.302557, 0.184744, -0.009274, -0.072961, 0.151486, 0.172673, 0.424542, 0.506975, 0.350249, 0.170103, -0.044779, 0.096874, -0.077607, 0.098564, 0.006231, 0.124131, -0.005581, 0.113752, -0.059748, -0.076123, 0.020485, 0.079041, -0.006314},
{0.059709, 0.026515, -0.044656, -0.032496, 0.053049, -0.004904, 0.085375, -0.047671, -0.056508, 0.057054, 0.022847, 0.142781, 0.194368, 0.447398, 0.143081, -0.153002, -0.120926, -0.214679, -0.187302, -0.064939, 0.057302, 0.392023, 0.447669, 0.308452, 0.176930, 0.099944, 0.101706, -0.071720, -0.286865, -0.131527, 0.122248, 0.400868, 0.199886, 0.008520, 0.160875, 0.602104, 0.187770, 0.342250, -0.129676, -0.077406, 0.007311, 0.093474, -0.342123, -0.261320, -0.328173, -0.183447, 0.182253, -0.360896, -0.163160, -0.018282, 0.073826, -0.184899, -0.427902, 0.072877, -0.103680, 0.008570, 0.323062, 0.287662, 0.177651, 0.010597, 0.079595, 0.159290, -0.419367, -0.370464, -0.444930, -0.081071, 0.018324, 0.184963, 0.152942, -0.034675, 0.078538, 0.129223, -0.206239, -0.210463, -0.093106, -0.180592, -0.175996, -0.220822, -0.343000, -0.052928, 0.061529, 0.283816, 0.244351, 0.076935, -0.007239, -0.160263, -0.405914, -0.616983, -0.173946, -0.020662, 0.066257, 0.011083, 0.428756, 0.647403, 0.597762, 0.633381, 0.380670, 0.037422, -0.015624, -0.050057},
{0.061814, -0.044891, 0.053894, -0.061792, 0.055444, -0.061941, -0.052815, -0.078169, 0.035430, 0.029028, 0.056370, -0.100957, -0.032331, -0.195461, -0.177255, -0.033935, -0.221287, -0.034103, -0.042069, -0.082143, -0.007609, -0.091473, -0.271609, -0.609153, -0.212627, -0.398722, -0.341917, 0.121224, 0.316151, 0.237804, 0.021308, -0.124343, -0.241108, -0.365860, 0.019263, 0.588654, 0.040674, 0.233734, 0.422213, 0.264812, 0.094082, -0.053477, 0.105340, -0.033137, 0.012478, 0.289031, -0.915623, -0.524140, -0.251967, 0.035285, -0.047323, 0.076763, 0.107224, -0.107419, -0.082785, -0.087144, -0.716796, -0.660441, -0.206602, -0.089001, 0.040764, -0.113248, 0.014509, -0.288973, 0.237125, 0.093126, -0.413008, -0.292685, -0.257900, 0.035033, -0.034068, -0.046967, 0.092384, 0.247709, 0.023472, 0.150512, 0.201275, -0.337706, -0.124948, -0.090120, -0.018802, -0.002484, -0.130259, 0.027347, -0.408207, -0.140764, 0.048821, -0.192131, 0.000005, 0.091863, 0.086446, -0.065598, -0.053053, -0.093222, -0.147662, -0.240366, -0.044586, -0.056559, 0.091696, 0.024952},
{-0.096900, 0.045223, 0.045031, 0.037556, -0.131764, -0.084709, -0.044946, -0.094479, -0.096048, -0.039423, -0.035092, 0.019672, -0.179755, -0.261761, -0.347400, -0.132909, -0.024408, -0.015528, 0.149781, 0.065884, 0.025307, -0.083156, -0.337295, 0.178395, 0.140473, -0.048112, 0.232775, 0.163996, 0.542241, 0.178062, 0.018247, -0.196268, 0.009273, 0.329768, 0.461296, -0.295042, 0.057535, -0.131043, 0.450579, 0.327194, 0.088609, 0.022309, 0.257084, 0.305731, 0.355365, -1.059639, -0.451084, -1.017798, -0.340670, 0.062563, 0.085332, 0.021335, -0.026386, 0.215306, -0.386625, -0.713814, -0.223334, 0.024702, 0.229537, -0.013667, 0.005456, 0.137288, 0.055710, -0.587161, -0.734732, -0.476647, 0.136853, 0.174040, 0.056717, -0.030140, -0.091324, 0.064816, 0.303239, 0.276752, 0.570110, 0.042021, -0.216255, 0.023607, 0.043206, -0.000565, 0.095654, -0.098488, -0.196418, 0.075187, 0.137343, 0.151047, 0.064620, -0.027323, -0.052586, -0.008347, -0.008136, 0.028740, -0.011518, 0.046918, 0.126721, 0.070567, 0.016816, 0.015864, -0.022464, 0.084798},
{0.046857, -0.091270, -0.036592, 0.003526, -0.126830, -0.149268, -0.098032, 0.053704, 0.030170, 0.046435, 0.041713, -0.021460, 0.002412, -0.013315, -0.374275, -0.429026, -0.201045, -0.087482, -0.060973, 0.015048, -0.013428, -0.014325, 0.117924, 0.107522, 0.388658, 0.256009, -0.263126, -0.263451, -0.067834, -0.079964, -0.081813, 0.113934, 0.171823, 0.531034, 0.353774, 0.341449, 0.192755, -0.146998, -0.150248, -0.072814, -0.057618, -0.007721, -0.197124, -0.474817, -0.370816, -0.158433, 0.082298, -0.128881, -0.095471, 0.039044, 0.078118, -0.132656, -0.227962, -0.111428, 0.055027, 0.048025, 0.089754, -0.163352, -0.014016, 0.111683, 0.099364, 0.040395, 0.052474, 0.154765, 0.097753, -0.054805, 0.061662, 0.210088, 0.216955, 0.110881, 0.075581, 0.002545, 0.199590, -0.021856, -0.153013, -0.271888, -0.190812, -0.032564, 0.185529, -0.023026, -0.005535, -0.084892, 0.001642, -0.153210, -0.183903, -0.077321, -0.087107, -0.142884, -0.055885, 0.092530, -0.008607, 0.097750, -0.056167, 0.055298, -0.007926, 0.163457, 0.153922, 0.114099, -0.052575, 0.046734},
{-0.008342, -0.055666, -0.037544, 0.090001, -0.002947, 0.034487, -0.018998, -0.069872, 0.003524, -0.088189, -0.070281, 0.024547, 0.214233, 0.675670, 0.584537, 0.254102, 0.276603, -0.375828, -0.359745, -0.099143, 0.040311, 0.227566, 0.200535, -0.002971, 0.296405, 0.561473, 0.082575, -0.265854, -0.222655, 0.086852, -0.057004, 0.014268, -0.217280, -0.318438, -0.772329, -0.467369, 0.239937, 0.532416, 0.322180, 0.129722, -0.067749, -0.323917, -0.847956, -0.324084, -0.005264, -0.162939, 0.046357, 0.110253, -0.295388, -0.036830, -0.024792, -0.075953, -0.130406, 0.119357, 0.350670, 0.092343, -0.142416, -0.434284, -0.386889, 0.060478, 0.095995, 0.642777, 0.250348, -0.107294, -0.200610, 0.087630, 0.269515, -0.000887, 0.311348, 0.236687, 0.059804, 0.549489, 0.253536, 0.179362, -0.218810, -0.094388, -0.009309, 0.159806, 0.474159, 0.169891, 0.118240, 0.019555, -0.158152, 0.043635, 0.362158, 0.287692, 0.240219, 0.105052, 0.211156, -0.082659, -0.035262, -0.078978, -0.070697, 0.032898, -0.022823, 0.117630, 0.140211, -0.075280, -0.029245, 0.022578},
{-0.051022, -0.009173, 0.074735, -0.046349, 0.001561, -0.117796, -0.090210, -0.003085, 0.040560, 0.081248, -0.083284, 0.016867, -0.077958, -0.126220, -0.019946, -0.031039, -0.001140, -0.123404, 0.013290, 0.099668, 0.040440, -0.075918, -0.056070, -0.023916, 0.011297, 0.321235, 0.221686, -0.128968, 0.412807, 0.249087, -0.033400, -0.348377, -0.024923, 0.186136, -0.125914, -0.364339, -0.200430, 0.016357, 0.518433, 0.334573, 0.009238, -0.490470, -0.148014, 0.289797, 0.529333, 0.503603, 0.163009, -0.044553, -0.412772, 0.017548, 0.017866, -0.376354, -0.864416, -0.628641, 0.720830, 0.296701, -0.187911, -0.253973, -0.372526, -0.061056, 0.013378, 0.003021, -0.042742, -0.825893, -0.874686, -0.148195, 0.159162, 0.119630, 0.029902, -0.170032, 0.025217, 0.138073, 0.445891, 0.470629, -0.208739, -0.214149, -0.061301, -0.032151, -0.082884, -0.150762, -0.042603, -0.157251, -0.271799, 0.064620, 0.282487, 0.024770, -0.020937, -0.233999, -0.081474, -0.105160, 0.053196, -0.037647, -0.191035, -0.077287, -0.275089, -0.237638, 0.045020, 0.071597, 0.093573, -0.065512},
{0.077545, 0.093165, -0.097245, 0.101622, -0.011658, 0.074769, -0.074938, 0.064443, 0.072168, -0.058934, -0.036785, 0.052180, 0.108575, 0.030503, 0.073779, 0.217924, 0.095119, -0.058123, -0.076811, 0.006049, -0.089132, -0.028524, 0.039996, 0.188324, 0.236228, 0.259174, 0.305359, -0.034682, -0.042071, -0.083301, -0.034389, 0.027524, -0.191234, -0.120510, -0.663221, -0.108254, 0.498556, -0.022483, -0.134700, 0.056655, 0.027887, -0.098617, -0.657687, -0.446186, -0.771823, -0.121834, 0.133651, -0.170704, -0.155463, -0.094141, 0.012319, -0.057909, -0.221627, -0.013136, 0.099191, -0.002323, 0.052190, -0.130387, -0.147118, 0.055924, -0.056307, 0.234851, 0.050884, -0.246256, 0.167227, 0.127747, 0.085046, -0.062384, 0.121433, 0.086277, 0.015709, 0.178736, 0.255725, 0.045248, 0.112036, -0.028338, 0.137488, 0.212589, 0.247076, -0.055142, -0.045889, 0.110204, 0.191529, -0.019763, -0.024438, -0.203961, -0.180632, 0.012122, -0.011136, 0.000084, -0.095184, -0.054809, -0.035285, 0.057363, 0.117066, 0.009328, -0.005612, -0.061007, 0.070007, -0.070912},
{-0.037455, 0.034852, 0.029153, -0.108116, -0.088419, -0.053358, 0.022578, -0.061399, 0.075038, -0.059602, -0.094385, -0.047349, -0.126953, -0.283489, -0.183131, 0.040376, 0.013356, -0.025003, -0.015567, -0.026650, 0.015441, 0.110401, 0.040721, 0.182734, -0.080169, -0.113262, 0.267310, 0.186695, -0.226977, -0.218598, 0.060748, 0.280649, 0.308134, 0.117654, 0.218945, 0.409176, 0.695792, 0.311957, 0.015544, -0.219400, 0.009644, 0.087703, -0.175852, 0.191790, -0.288541, -0.705631, 0.044394, 0.204731, 0.403848, -0.028240, -0.088101, -0.085300, 0.211234, 0.203668, -1.498691, -0.248694, -0.205104, 0.137807, 0.172695, -0.035010, -0.085666, -0.156296, 0.090829, -0.053578, -0.780131, -0.175581, -0.078355, -0.115590, -0.066740, 0.063551, -0.126103, -0.083120, -0.344202, 0.005011, 0.493152, -0.236190, -0.385297, -0.487988, -0.278200, 0.029871, -0.083014, -0.190673, -0.047655, 0.049197, 0.077305, 0.134034, -0.293550, -0.404255, -0.152843, -0.089161, 0.050979, 0.089750, 0.187693, -0.010057, 0.062182, 0.462316, 0.248415, -0.081398, -0.068325, 0.030272},
{0.010402, -0.061830, 0.036741, -0.025756, 0.058093, -0.032205, 0.093603, 0.019126, 0.076363, -0.016897, 0.064045, 0.053073, 0.176971, 0.173263, 0.401542, 0.254941, 0.021015, 0.007300, -0.112205, -0.036580, -0.017218, 0.135593, 0.137912, -0.114780, 0.018633, 0.059631, 0.139817, -0.081507, -0.358099, 0.033961, 0.082837, 0.298517, 0.043744, -0.163107, -0.171400, 0.678382, 0.119468, 0.263888, -0.298614, -0.061787, 0.013472, 0.322672, 0.161204, 0.161537, -0.209240, 0.631656, 0.143550, 0.315229, -0.216867, -0.024149, 0.082928, -0.101004, -0.353202, -0.281691, -0.050090, 0.197625, 0.123534, 0.192353, -0.099222, 0.008948, 0.045709, -0.056086, -0.557353, -0.806384, -0.643222, -0.219178, -0.246148, 0.108344, -0.450523, -0.126628, 0.110701, 0.082294, -0.045103, -0.000086, -0.261623, -0.073375, -0.164670, -0.418492, -0.378756, -0.003125, 0.094083, 0.089478, 0.085860, -0.106423, -0.277536, -0.157641, -0.163638, -0.603125, -0.261502, 0.030095, -0.094604, 0.158657, 0.228157, 0.590641, 0.651074, 0.484569, 0.423814, -0.005775, -0.054354, -0.096453},
{-0.024489, -0.003180, -0.082966, -0.076220, -0.079416, -0.136139, -0.047864, -0.115885, 0.045057, 0.045306, 0.075976, 0.024672, 0.137071, 0.254216, 0.165142, -0.134080, -0.111131, -0.301374, -0.150835, 0.016943, -0.074803, 0.185764, 0.064263, 0.060133, 0.253337, 0.078405, 0.223008, 0.089051, 0.367452, 0.263970, 0.087070, 0.006706, -0.510396, -0.832015, -0.438529, 0.200448, 0.428164, 0.149291, 0.466533, 0.382252, 0.083748, -0.178602, -0.231291, 0.189496, 0.369818, -0.461960, -0.397981, -0.572243, -0.242391, 0.027150, -0.063819, 0.105042, -0.091110, 0.033034, -0.124129, -0.584103, -0.052186, 0.322400, 0.291511, -0.000842, 0.088444, 0.473476, 0.180191, -0.857732, -0.614770, -0.143290, 0.447177, 0.284456, 0.167848, 0.005299, -0.023775, 0.275013, 0.223675, 0.542269, 0.411245, 0.089114, 0.029132, -0.041661, -0.104950, 0.063735, 0.113503, 0.186640, 0.034926, 0.038320, 0.077455, 0.236192, 0.106364, -0.125981, -0.113135, -0.006397, 0.021877, 0.062959, 0.017697, -0.007016, -0.024134, -0.026535, -0.071373, -0.130062, 0.055478, -0.024589},
{0.082385, 0.084463, 0.086629, -0.125353, -0.110371, -0.172969, -0.023068, -0.006377, 0.025273, 0.001872, 0.035966, 0.050970, -0.060470, -0.186117, -0.019590, -0.178595, -0.248850, -0.180843, -0.145604, -0.078111, -0.071888, -0.023906, -0.204422, -0.156336, 0.110726, 0.695528, 0.438612, -0.068922, -0.223674, -0.029577, -0.036805, 0.017480, 0.200171, 0.378735, 0.417545, 0.030833, 0.433017, 0.340988, 0.495805, 0.061824, 0.017758, 0.125985, 0.421378, -0.032590, 0.101156, -0.306607, 0.048403, 0.427600, 0.549826, 0.053118, -0.094489, -0.037504, -0.218441, -0.023703, -0.335325, -0.070750, -0.331515, -0.250488, 0.110956, -0.125980, -0.035446, -0.266834, 0.015915, 0.487258, -0.365664, -0.298443, -0.156195, -0.301998, -0.264125, -0.017394, -0.101847, -0.300723, 0.053032, 0.061899, -0.156086, -0.298906, -0.384749, -0.442895, -0.232633, -0.072039, -0.113105, -0.333251, -0.247314, -0.220247, 0.142223, -0.013965, -0.039182, -0.159667, -0.048576, -0.038269, 0.044771, -0.052434, 0.080067, -0.027525, 0.060899, 0.471018, 0.617234, 0.249553, 0.006963, -0.036369}
};

const float fc1_bias[20][1] = {
{-0.338493},
{0.077860},
{0.337337},
{-0.076087},
{0.215197},
{-0.009563},
{-0.075448},
{0.100396},
{-0.237095},
{0.093758},
{0.512263},
{0.506803},
{0.026921},
{-0.184573},
{-0.099396},
{0.127537},
{0.175397},
{0.297050},
{0.256662},
{0.027453}
};

const float fc2_weights[20][20] = {
{-0.236399, 0.470290, -0.230108, 0.133211, -0.037038, -0.209733, 1.448874, 0.236798, 0.302888, -0.331662, -0.186394, -0.112048, -0.449535, -0.140399, 0.700011, -0.651838, -0.662280, -0.344165, -0.410963, 0.224036},
{-0.617185, 0.818416, 0.295261, 0.166595, 0.220585, -0.163861, 0.103722, 0.483170, -0.810890, 0.423585, -0.424990, -0.186673, -0.156322, -1.119885, -0.235386, -0.328327, 0.589237, 0.476667, -0.920140, -0.196048},
{0.712079, 0.472792, 0.472372, 0.451469, 0.334128, 0.003578, 0.382254, 0.505922, -0.146799, -0.620878, -0.721905, -0.870187, 0.078770, 0.114139, 0.190469, -0.191610, -0.631219, -0.565767, -0.732881, 0.121086},
{1.314527, -0.757723, 0.351063, -0.286351, -0.186632, -0.067063, -0.786905, -0.812298, 0.029622, 0.180947, 0.043015, -0.604294, 0.077544, 0.816394, -0.013963, 0.890765, -0.342382, 0.689824, -0.068741, -0.197543},
{-0.105025, -0.080035, 1.535233, -0.226763, 0.200037, 0.177982, 0.124052, 1.010328, 0.022064, -0.327348, 1.204271, 0.643951, -0.351231, -0.233315, 0.043623, -0.033811, -0.643697, -0.065357, -0.048072, -0.440865},
{-0.523821, -0.161488, -0.012992, 0.127809, 0.238941, -0.042814, 0.119019, 1.053749, 0.040440, -0.053574, 0.178781, 0.988706, -0.589766, -0.496771, 0.049938, -0.359138, -0.376981, -0.146822, 0.859265, -0.495719},
{-0.760897, 1.091987, -0.046955, -0.087937, 0.757951, -0.146589, -0.007011, 0.045964, -0.231997, 1.173076, -0.704983, -0.313589, 0.623869, 0.421872, 0.114551, 0.628151, 0.098766, 0.692624, 0.062860, -0.135815},
{0.017334, -0.231796, 0.068420, 0.633303, -0.388199, 0.092183, -0.006398, 0.188795, 0.665803, 0.531576, -0.040837, 1.281750, 0.202285, 0.828093, -0.063631, -0.002150, 0.708828, -0.184787, 1.004138, 0.110829},
{-0.126582, -0.104928, -0.095835, -0.156342, -0.048073, 0.204228, -0.017974, -0.217179, -0.035694, -0.060985, 0.130302, -0.203525, 0.124175, -0.078755, -0.016410, 0.181494, -0.092142, 0.009575, -0.114146, -0.012891},
{1.282851, -0.497596, 0.921189, 0.201433, -0.366911, 0.210016, 0.028925, -0.309659, -0.025897, -0.559551, -0.107590, -0.955365, -0.022429, 0.238965, 0.068620, 0.374914, -0.411538, -0.195799, -0.769008, -0.033802},
{0.057783, 0.620622, -0.843454, -0.229494, 0.485087, -0.013327, 0.652811, -0.311300, -0.109144, -0.219876, -0.069850, 0.312328, -0.002108, 0.051199, 0.052898, -0.256762, 0.841968, -0.241743, -0.088818, 1.296402},
{-0.048913, 0.042367, -0.150649, -0.498618, -0.184310, 0.052143, 0.840984, -0.337895, 0.330031, -0.029687, 1.219248, -0.137828, -0.173911, 0.068697, 1.689535, -0.242575, -0.529526, 0.146657, -0.004484, -0.230203},
{-0.302931, 0.148834, 0.509301, 1.057691, 0.270265, 0.042344, -0.172514, 0.807353, -0.127673, -0.614050, -0.614339, 0.121518, -0.105980, 0.118947, -0.952436, 0.132569, 0.358873, -1.029334, 0.087277, -0.160549},
{-0.186559, -0.123265, 0.021033, -0.100004, 0.142621, -0.020102, 0.023812, 0.038662, 0.014049, -0.086175, 0.005242, -0.135503, 0.099572, 0.050006, -0.202636, -0.010927, 0.175996, -0.021126, -0.210415, -0.051553},
{-0.079647, -0.240500, 0.418975, 0.013848, -0.117337, -0.053279, -0.879997, -0.034978, 0.086411, 0.740596, -0.493431, -0.398800, 0.687469, 0.511924, 0.021056, 0.776646, -0.488618, 0.160701, 0.514902, -0.663295},
{-0.072314, -0.664396, 0.241928, 1.136088, -0.504043, -0.139375, 0.051154, 0.288032, 0.913499, -0.058817, -0.177251, 0.647953, 0.091341, 0.515035, 0.384588, -0.176583, -0.181291, -0.136460, 1.004768, 0.081113},
{-0.152931, 0.991072, -0.549054, -0.699411, 0.281857, 0.188890, 0.301348, -0.290345, -0.014620, 0.459379, 0.618001, 0.095208, -0.056937, -0.128031, 1.080794, -0.015878, -0.160944, 1.627080, -0.106599, -0.098561},
{0.015123, 0.119314, -0.266437, -0.128322, -0.084895, -0.211697, -0.047956, -0.749048, 0.557434, 0.986837, -0.167788, 0.196663, 0.774423, 1.350350, 0.018355, 0.004590, 0.960961, -0.124897, 0.579695, 0.982754},
{-0.534190, 0.867845, -0.385359, -0.261281, 0.900317, 0.169839, 0.279463, -0.050943, -0.266904, -0.201677, -0.143409, -0.540027, 0.262192, -0.382398, 0.245415, -0.352405, -0.704402, 0.040651, 0.015408, -0.080072},
{-0.282593, 0.422674, -0.142803, 0.236017, -0.101576, 0.029880, -0.156364, -0.386863, -0.341831, 0.344769, -0.096857, 0.607368, 0.345702, -0.178084, -0.550279, 0.305564, 1.059751, 0.302651, -0.000425, 0.628630}
};

const float fc2_bias[20][1] = {
{0.368618},
{0.333599},
{0.281379},
{0.108797},
{0.124595},
{0.248042},
{0.062181},
{0.001482},
{-0.173087},
{0.315264},
{0.280308},
{0.197073},
{0.232774},
{-0.144898},
{-0.235007},
{0.016730},
{0.199044},
{-0.015293},
{0.134945},
{-0.048031}
};

const float fc3_weights[10][20] = {
{-0.225392, -0.482234, -0.578488, -1.249254, -0.380485, 0.496807, -0.908042, 0.697628, 0.172308, -0.466287, 0.565959, -1.588988, 0.803541, -0.026094, -0.522872, 0.675083, -1.567824, 0.673061, -0.221657, 0.653229},
{-1.152498, -0.334039, -0.128431, 1.053851, 0.828714, -0.747396, -0.345465, -1.392688, -0.158875, 0.917357, -1.520827, 0.629028, -1.239832, -0.055519, -0.260945, -1.058019, 0.657426, -1.296975, -0.650942, -0.285979},
{-0.929082, -0.191802, 0.655156, 0.792457, 0.665763, -0.328782, 0.582113, 0.510534, -0.172113, 0.917293, -0.153765, -0.741175, 0.774593, -0.160494, 1.105337, 0.468490, -0.826898, 0.492683, 0.457359, -0.047537},
{-0.051890, -0.487913, -0.886450, 0.717362, -0.595127, 0.386527, 0.617911, 0.533896, -0.225543, -0.012591, -0.661744, 0.601291, -0.478351, 0.211295, 0.991637, 0.587555, 0.638797, 0.574234, -0.119796, -0.455997},
{0.675894, 0.880272, 0.558628, -0.743885, 0.391915, 0.539997, 0.652454, -1.201022, -0.183350, -0.664691, 0.356950, 0.363139, 0.785823, 0.209924, -0.412763, -0.675809, 0.576569, -1.601075, 0.961086, -0.979107},
{0.603602, -0.739922, -0.620948, -0.603569, 0.847036, 0.624830, -0.553512, 0.563948, 0.013154, -0.897193, 0.337676, 0.677710, -0.328512, 0.067242, -0.296843, 0.571575, 0.460022, 0.420954, -0.014239, -0.075930},
{0.608190, 0.795662, 0.689333, -0.844021, 0.789063, 0.630869, -1.287866, 0.401109, 0.063993, 0.646180, -0.723807, -0.020479, 0.893842, -0.038179, -0.846128, 0.631760, -1.094960, -0.705862, -0.727893, -0.400704},
{-0.642206, 0.947560, -1.014513, 0.469384, -0.214693, -0.682391, 0.845250, 0.245742, -0.195409, -0.262285, 0.496542, -1.066610, -0.660951, 0.158977, 0.431370, -1.136676, 0.589917, 0.608537, -0.174439, 0.844619},
{0.725534, -1.114088, 0.804465, 0.614340, -0.607935, -0.641624, -0.664429, 0.288112, 0.197913, 0.840786, 0.500298, 0.577845, -0.336775, -0.077609, -0.396441, 0.445102, 0.216583, 0.516091, -0.479685, -0.652203},
{0.565358, 0.758062, 0.270053, -0.372143, -1.599925, -1.068718, 0.778315, -0.586801, 0.150659, -0.843440, 0.504804, 0.455326, -0.223135, 0.023985, -0.446447, -0.305598, 0.679926, 0.436821, 0.966048, 0.429344}
};

const float fc3_bias[10][1] = {
{-0.036975},
{1.930812},
{-0.585862},
{-0.422265},
{-0.286624},
{-0.194313},
{-0.201026},
{0.160266},
{0.149938},
{-0.002766}
};

