#define NUM_LAYERS 3
#define SIZE_L0 100
#define SIZE_L1 20
#define SIZE_L2 20
#define SIZE_L3 10



const __uint16_t size_layers [NUM_LAYERS + 1] =  {SIZE_L0, SIZE_L1, SIZE_L2, SIZE_L3 };

struct layer {
   __uint16_t size_input;
   __uint16_t size_output;
   float* weights;
   float* bias;
};

struct layer fc0;
struct layer fc1;
struct layer fc2;
struct layer fc3;


const float fc1_weights[SIZE_L1 * SIZE_L0] =  {
 -0.013486, -0.058160, -0.087229, 0.072517, 0.137905, 0.154412, 0.171131, 0.045000, -0.040839, -0.039901, -0.062444, 0.094541, 0.320617, 0.542950, 0.268826, 0.217136, 0.238745, -0.213525, -0.249251, -0.018429, -0.066295, 0.409044, 0.673110, 0.682239, 0.869619, 0.265851, -0.114217, -0.036365, -0.374889, -0.061996, -0.041656, -0.077524, -1.009494, -1.536011, -1.525948, 0.018565, 0.384876, 0.128449, -0.307559, -0.131799, -0.094853, -0.736173, -1.430408, -0.128678, 0.157729, -0.019006, 0.074279, 0.000340, -0.408234, 0.074526, 0.032486, 0.124782, 0.549901, 0.107209, -0.019007, 0.011730, 0.021018, -0.235808, -0.026015, 0.191298, 0.144878, 0.518634, 0.020000, -0.350535, -0.167364, 0.139811, 0.338987, 0.078968, 0.394120, 0.317826, 0.120626, 0.450051, 0.002343, 0.057083, -0.157403, -0.071329, 0.200325, 0.177435, 0.240080, 0.121731, 0.034201, 0.320530, 0.246062, 0.022178, -0.058187, -0.257311, -0.301805, -0.127108, 0.094501, -0.060485, 0.025091, 0.083368, 0.187527, 0.246080, 0.492334, 0.387199, 0.059473, 0.029630, 0.000458, -0.047218 ,
 -0.051307, -0.043848, -0.007885, 0.153607, 0.121256, 0.165281, 0.184936, 0.205048, 0.014155, 0.058358, -0.013961, -0.094798, -0.058669, 0.261390, 0.487179, 0.398546, 0.315687, -0.196319, -0.208509, 0.056919, 0.079060, 0.014083, -0.052000, 0.046665, 0.010351, 0.134478, 0.087304, -0.043552, -0.266076, 0.085977, -0.094893, -0.015402, 0.109581, 0.194843, -0.005307, -0.077570, -0.000639, 0.185759, 0.617535, 0.187635, 0.088876, -0.311942, -0.162132, -0.227516, 0.337667, -0.430245, -0.228244, -0.219341, 0.543330, 0.231351, 0.088748, -0.213597, -0.440486, 0.223982, 0.276044, -0.197163, -0.457836, -0.281543, 0.175632, 0.016106, 0.089962, 0.252655, 0.223835, 0.236119, -0.245079, -0.343651, 0.119412, -0.075790, 0.429941, 0.096639, 0.123875, 0.388054, 0.616243, 0.385791, 0.421677, 0.121566, 0.042706, 0.156786, 0.223477, 0.089215, 0.012661, -0.057865, -0.312764, 0.031453, 0.283410, 0.281991, 0.235127, 0.064884, 0.106662, -0.066068, -0.058306, -0.078966, -0.184245, -0.221580, -0.173577, 0.119893, 0.178762, -0.043570, -0.108538, -0.092257 ,
 -0.084835, -0.007970, 0.089520, 0.058336, -0.032547, 0.031510, -0.131413, 0.053444, -0.019476, -0.041242, -0.059067, 0.026629, -0.029855, -0.220783, -0.113104, -0.145288, -0.081310, -0.342923, -0.030849, -0.012108, 0.094535, -0.022965, -0.119390, -0.006719, 0.018824, 0.028029, 0.153136, 0.048864, 0.479804, 0.553883, -0.060159, -0.028527, -0.127371, -0.170663, -0.186487, -0.101960, 0.092037, 0.435780, 0.990022, 0.670420, 0.076243, -0.153986, -0.138168, -0.066260, 0.337395, -0.043053, -0.447009, -1.525084, -0.765016, -0.012605, -0.007000, -0.021216, -0.632532, -0.243256, 0.121557, -0.359104, 0.220975, -0.036617, -0.338803, -0.114301, 0.012002, 0.382567, 0.354511, -0.775383, -0.580004, 0.062276, 0.538837, 0.294367, -0.365357, -0.200189, -0.019773, 0.271679, 0.294172, 0.542519, 0.238984, -0.102342, -0.027996, -0.264134, -0.305669, -0.075827, 0.066873, 0.009764, -0.176296, 0.025160, 0.066689, 0.099264, -0.119184, -0.084861, -0.120448, 0.040898, -0.049187, -0.022887, -0.087809, -0.152728, -0.065301, -0.119301, -0.028628, -0.101295, -0.041349, 0.009885 ,
 -0.075297, -0.068718, 0.078474, 0.250302, 0.261913, 0.156037, 0.097415, 0.097751, 0.053676, -0.002262, 0.087846, -0.080663, -0.050851, 0.184712, 0.231159, -0.066750, -0.052583, -0.168595, -0.271657, -0.014806, -0.017200, -0.238113, -0.113678, -0.197796, -0.093116, 0.204961, -0.090382, -0.249141, -0.559167, -0.494053, 0.001260, -0.120844, -0.144230, 0.021136, -0.115548, 0.048264, -0.101189, -0.116561, -0.440011, -0.577159, 0.083948, -0.456445, -0.594967, -0.503977, -0.311594, -0.869210, -0.184147, 0.105865, 0.606229, -0.104815, 0.000972, -0.003327, 0.304508, 0.573051, 0.082732, -0.277596, -0.285859, 0.004844, 0.295032, 0.227181, -0.089583, 0.278750, -0.130850, 0.371074, 0.227381, -0.282613, 0.473505, 0.043086, 0.180722, 0.331635, -0.062127, 0.375685, 0.196291, 0.396204, 0.502799, 0.373683, 0.163179, 0.319417, 0.495034, 0.047409, -0.041077, 0.101861, 0.201610, 0.100322, -0.049855, -0.140628, -0.365422, -0.241135, -0.096560, 0.035917, 0.086857, -0.086837, -0.332927, -0.374790, -0.327246, -0.300725, -0.262837, -0.210430, 0.042090, 0.004714 ,
 0.068987, 0.051484, -0.076330, -0.000262, 0.075024, 0.060253, -0.031254, 0.005102, -0.043606, -0.061711, 0.048959, 0.083878, 0.069563, 0.198200, 0.166811, -0.000796, 0.043226, -0.084000, 0.004582, 0.108452, -0.062320, -0.042061, -0.001355, 0.113870, 0.139025, 0.333938, 0.383755, 0.289498, 0.430223, 0.322590, 0.066664, -0.062715, 0.039033, 0.044855, 0.026628, -0.304027, -0.332369, -0.031585, 0.215148, 0.214368, 0.034077, -0.111828, -0.057175, -0.093313, 0.310436, -0.144317, 0.015885, -0.453140, -0.427923, 0.032935, -0.081730, -0.135824, -0.442832, -0.091007, 0.503372, -0.190346, -0.370420, 0.030119, -0.038641, -0.015271, 0.021441, 0.130824, -0.291889, -0.316120, -0.242625, -0.445725, 0.206058, 0.462137, 0.285849, -0.089364, 0.056164, 0.242229, 0.371677, 0.218045, -0.104761, 0.221006, 0.127537, 0.353497, 0.029732, -0.093166, -0.009599, 0.169528, 0.190967, 0.390726, 0.574728, 0.339573, 0.206885, 0.054954, 0.014225, 0.025102, 0.065373, 0.046902, -0.046117, 0.140888, 0.088486, 0.039664, 0.047887, 0.090248, 0.083499, 0.023471 ,
 -0.058998, -0.019713, -0.028344, -0.000670, -0.098340, 0.017775, -0.009565, 0.043305, 0.067095, 0.006736, 0.092170, 0.063551, 0.050723, 0.062575, -0.084874, -0.067884, -0.015564, -0.034802, -0.066590, 0.020167, -0.011105, -0.013199, -0.035448, -0.085020, -0.071521, -0.020621, -0.064142, -0.019159, 0.016101, -0.090439, -0.049693, -0.064364, 0.056141, 0.045685, 0.012975, 0.006587, -0.061556, 0.035173, 0.022472, 0.094932, 0.077294, -0.022902, 0.025737, -0.110919, 0.024223, -0.054418, -0.111172, -0.071530, 0.035099, 0.060272, -0.074811, 0.070077, 0.014142, -0.051165, -0.029953, -0.105210, 0.007659, 0.082111, 0.011264, -0.033779, 0.082687, -0.069344, -0.006408, -0.043828, -0.037896, 0.013484, 0.022132, 0.023162, 0.052240, 0.001759, -0.071900, 0.024892, 0.054015, -0.087592, 0.018551, 0.040614, -0.021723, -0.019801, -0.045887, -0.054920, 0.050477, -0.041788, -0.001076, -0.086071, 0.077272, -0.022520, -0.019447, -0.029273, -0.027464, 0.037971, -0.055939, -0.016902, 0.063228, 0.011718, 0.028588, 0.040778, 0.053123, -0.069304, -0.067766, 0.028024 ,
 0.036860, -0.018507, -0.006495, -0.119706, -0.050674, -0.086677, 0.073721, -0.007709, 0.034277, 0.037170, 0.090783, -0.032217, 0.012991, -0.237348, -0.677667, -0.904766, -0.462598, -0.279000, -0.081719, -0.076072, -0.053894, 0.259748, 0.252981, 0.143045, 0.063809, 0.529885, 0.359224, -0.172487, -0.500188, -0.091870, 0.163108, 0.357294, 0.536228, 0.536317, 0.959843, 0.427136, -0.047497, 0.222264, -0.186632, -0.067330, 0.026489, 0.186989, -0.154681, -0.296075, -0.674175, 0.068696, 0.359045, -0.045138, -0.326095, -0.022040, -0.072137, -0.267347, -0.417540, -0.043485, -0.287137, 0.001483, 0.214816, 0.131716, 0.081691, 0.166487, 0.031476, -0.190957, -0.178598, 0.135944, -0.200611, -0.071049, 0.187468, -0.020740, 0.084304, 0.057616, 0.081102, -0.035485, -0.672868, -0.658729, -0.122825, -0.250790, -0.724930, -0.691525, -0.240260, -0.069412, -0.083843, 0.112432, 0.300095, -0.137942, -0.498913, -0.620158, -0.314724, -0.515337, -0.199929, -0.028438, -0.030407, 0.083985, 0.366080, 0.424536, 0.532663, 0.571091, 0.455143, 0.079547, -0.085188, 0.069324 ,
 -0.072068, 0.021987, 0.039023, 0.096295, -0.069113, -0.062018, -0.122888, -0.146614, -0.011404, 0.039837, -0.058569, 0.026285, 0.238171, 0.287579, 0.378193, 0.420434, 0.060319, -0.233810, -0.241022, 0.034527, 0.028378, 0.378902, 0.321352, -0.055401, 0.228801, -0.062930, 0.002249, 0.067713, -0.304337, -0.115238, 0.007291, 0.669843, 0.842944, 0.389495, 0.120839, 0.287796, 0.143802, 0.484573, -0.003046, -0.086701, 0.004355, -0.422709, -1.086824, -0.849199, -0.791758, 0.187365, 0.086119, 0.132802, -0.405816, 0.009258, -0.074964, -0.521767, -0.902905, -0.289055, 0.096286, 0.167210, -0.178619, -0.276942, -0.659238, 0.181464, 0.070248, 0.416952, 0.134579, 0.139442, 0.223562, 0.062275, 0.047227, -0.096732, 0.096478, 0.095116, 0.001095, 0.497344, 0.208321, 0.070559, -0.146747, -0.081811, 0.090836, 0.147546, 0.364468, 0.003948, 0.017745, 0.256328, 0.355828, -0.019969, 0.315953, 0.272818, 0.100042, -0.055815, 0.110182, 0.033159, 0.007215, -0.070240, -0.095185, 0.086126, 0.132644, 0.069591, -0.014602, -0.151865, 0.010725, 0.069763 ,
 -0.094833, 0.051402, 0.001148, 0.022441, 0.056316, -0.088763, -0.059146, -0.011332, 0.084720, 0.051752, -0.034852, -0.034881, -0.046776, -0.055987, 0.082307, 0.050665, 0.048980, -0.007129, 0.029099, 0.016671, 0.005796, 0.025745, 0.054375, -0.061068, 0.018654, 0.048223, -0.003195, -0.030697, -0.024434, -0.043382, -0.053154, 0.059497, -0.084543, 0.071004, -0.083054, 0.048389, -0.001624, 0.056545, -0.045020, 0.066619, -0.012868, 0.035808, -0.051203, 0.049013, -0.071011, -0.069819, 0.014588, 0.031466, -0.059845, 0.034948, 0.005570, -0.019589, -0.096641, -0.097344, 0.018385, -0.035936, -0.050631, -0.003651, -0.066759, -0.072338, -0.059010, -0.088145, -0.021753, 0.085046, 0.030612, 0.032766, -0.103518, -0.048966, -0.089704, 0.031509, 0.033437, -0.037548, -0.061787, 0.006392, -0.097463, 0.013179, 0.015515, 0.039021, -0.043871, 0.050799, -0.043800, -0.045666, 0.085424, 0.057742, -0.091540, -0.079476, 0.050373, -0.095758, 0.033423, -0.089383, 0.037387, -0.083543, 0.089069, -0.065292, -0.061740, 0.011810, -0.036341, 0.037391, -0.021383, -0.049877 ,
 0.094562, 0.080884, -0.069617, 0.037137, 0.022155, -0.103129, -0.084238, -0.146700, 0.074637, 0.078316, 0.069108, -0.090965, -0.168029, -0.267501, -0.226609, 0.059593, 0.180495, 0.115879, -0.016281, 0.059861, 0.004036, -0.013605, -0.039925, 0.270793, 0.023678, -0.294571, 0.140251, 0.153609, 0.280619, 0.009042, 0.137207, 0.329381, 0.374736, 0.462055, 0.767975, 0.146838, 0.421844, 0.195220, 0.333762, 0.059306, 0.103706, 0.078759, -0.059110, 0.226324, 0.121480, -1.175891, -0.387854, -0.513523, 0.178491, -0.001469, -0.100072, -0.079309, -0.013663, 0.099880, -0.900790, -0.419640, -0.573976, -0.187749, 0.158105, -0.097823, 0.070105, 0.078708, 0.038777, -0.614211, -0.999566, -0.365913, 0.141707, 0.156096, -0.069768, -0.145311, 0.026541, -0.057301, 0.109720, 0.190278, 0.526852, -0.203326, -0.341472, -0.286275, -0.032241, -0.019286, 0.032446, -0.167474, -0.098603, 0.170283, 0.047329, 0.342055, 0.078023, -0.178416, -0.100092, -0.067161, -0.071416, 0.050452, 0.175731, 0.095767, 0.031300, 0.200662, 0.203663, 0.054429, -0.027746, 0.082060 ,
 -0.066254, -0.074206, 0.016929, 0.009365, 0.073809, 0.153299, -0.035871, 0.001061, 0.030893, 0.017965, -0.040888, 0.168335, 0.179717, 0.190421, 0.320783, 0.366348, 0.119185, -0.059218, -0.185936, -0.039506, -0.047276, 0.299092, 0.201966, 0.032228, 0.180839, -0.124657, -0.083528, -0.190767, -0.727464, -0.124880, 0.005809, 0.341596, -0.040466, -0.492936, -0.074346, 0.897819, 0.266628, 0.344206, -0.487377, -0.104807, 0.102880, 0.137689, -0.036400, -0.013362, -0.127383, 0.415087, 0.032974, 0.054618, -0.395038, 0.036695, 0.020666, -0.241883, -0.463528, -0.175030, 0.131313, 0.258537, -0.083807, 0.192902, -0.001388, -0.079298, 0.037831, -0.075869, -0.579032, -1.167379, -0.802486, -0.280302, -0.136555, 0.380133, -0.096816, -0.093916, 0.146470, 0.203110, 0.047077, 0.240817, -0.004562, -0.115648, -0.075610, -0.146672, -0.433320, -0.040992, -0.008226, 0.264472, 0.255054, 0.031867, -0.276191, -0.156597, -0.190801, -0.664435, -0.275531, -0.097428, -0.003438, -0.007225, 0.446832, 0.524778, 0.583336, 0.372521, 0.238725, 0.006633, -0.053748, 0.064853 ,
 0.004219, 0.054743, 0.037623, -0.081888, -0.030096, -0.018296, -0.078456, 0.046039, 0.044832, -0.020032, 0.036079, 0.005308, -0.038122, 0.146189, -0.022589, -0.154310, -0.096804, -0.013723, 0.088343, 0.101942, -0.019309, 0.106047, 0.152419, 0.122535, 0.422888, 0.579489, 0.181726, -0.005177, -0.022411, 0.018912, 0.070506, -0.045515, 0.009179, 0.180328, 0.237256, -0.033657, -0.208332, -0.314876, -0.217539, -0.064772, 0.022812, 0.061479, -0.000595, -0.104081, -0.366364, -0.290012, 0.095174, -0.136151, 0.032445, 0.077759, -0.059752, -0.021013, -0.029340, 0.100171, -0.094877, -0.352474, -0.113257, 0.114470, 0.076839, -0.048556, -0.051767, 0.044246, -0.250577, -0.293259, -0.584138, -0.277384, 0.193180, 0.181624, -0.065079, -0.100990, -0.023012, 0.024458, 0.073854, -0.328933, -0.260185, 0.362453, 0.088904, -0.041353, 0.001967, -0.091480, -0.058132, 0.125295, 0.062655, 0.133499, 0.362317, -0.040498, -0.122112, 0.031915, 0.065958, 0.069845, 0.008229, -0.090056, 0.052606, 0.152551, 0.079361, 0.167989, 0.237776, 0.019390, 0.049420, 0.014811 ,
 -0.014136, 0.082576, 0.003635, 0.073049, -0.014579, -0.099648, 0.020246, -0.000968, -0.049913, -0.068035, 0.099803, 0.000565, -0.050244, -0.008484, 0.017657, 0.042840, -0.064589, 0.067922, 0.015214, 0.062998, -0.046753, -0.057430, -0.042646, -0.073280, 0.051721, -0.034568, -0.020030, -0.102843, -0.069830, 0.086867, 0.061818, -0.033544, 0.047749, -0.021743, -0.068601, -0.050706, -0.034378, -0.102667, 0.007826, -0.072224, 0.062427, -0.049244, 0.040315, 0.015791, 0.067205, -0.027362, -0.080549, 0.024308, 0.060197, -0.049547, -0.075054, -0.055805, 0.064921, 0.026825, -0.034370, -0.083351, 0.046631, -0.102463, 0.050864, -0.057847, 0.015348, 0.085207, -0.047696, 0.063163, -0.096839, 0.072224, -0.005512, 0.027054, -0.043416, 0.021337, 0.091505, -0.061666, 0.063878, -0.055834, 0.024523, 0.060980, -0.019261, -0.031789, -0.094232, 0.076384, 0.093231, -0.096763, 0.047800, 0.074128, 0.041220, 0.015753, -0.069014, -0.060363, 0.036345, -0.049614, -0.000240, 0.023473, -0.024833, 0.013165, -0.038648, 0.091700, -0.029688, 0.012853, 0.051474, -0.003966 ,
 0.091553, 0.068679, 0.120426, 0.169757, 0.369149, 0.511349, 0.448444, 0.303728, -0.018574, -0.060657, -0.079673, 0.056373, -0.056146, -0.107581, -0.018825, 0.027917, 0.251351, 0.310401, -0.093034, -0.088086, -0.006623, -0.282604, -0.313642, -0.384872, -0.308965, -0.046875, -0.351934, -0.237929, -0.218927, -0.137897, 0.005391, -0.256602, 0.128083, 0.194742, 0.023498, -0.406313, -0.756549, -0.312564, -0.204854, -0.199175, -0.029756, -0.167517, 0.173120, -0.116227, -0.076714, 0.123332, -0.074122, 0.402845, 0.406720, 0.015727, -0.057701, -0.165096, -0.363779, -0.612274, 0.338079, 0.528605, -0.719589, -0.155066, 0.081927, 0.114007, 0.065082, -0.531119, -0.458735, 0.810881, 0.591701, -0.153709, 0.094563, 0.033182, -0.111425, 0.040601, 0.068497, -0.226165, 0.017138, 0.401250, 0.227652, 0.392883, 0.324340, 0.069504, 0.195377, 0.000601, 0.012251, -0.022592, -0.038550, -0.027647, 0.288000, 0.113655, 0.075928, 0.041782, 0.081665, -0.086248, -0.003017, -0.112972, -0.247857, -0.106509, -0.235732, -0.327098, -0.297587, -0.022145, -0.040694, 0.062629 ,
 -0.089082, -0.100208, 0.077659, 0.030386, -0.245522, -0.268694, -0.241367, -0.137433, 0.011938, 0.004301, -0.100350, 0.018000, 0.017737, -0.186816, -0.133425, -0.402239, -0.215691, -0.240096, 0.011298, -0.075960, -0.015634, -0.168173, -0.048409, 0.005162, -0.131382, 0.258052, 0.067022, 0.095291, 0.475290, 0.140175, -0.150986, -0.386406, 0.042551, 0.322880, -0.172469, -0.767682, 0.108436, -0.114993, 0.412151, 0.279309, -0.153514, -0.383163, 0.303505, 0.580269, 0.370127, -0.198911, 0.001170, 0.149843, 0.028832, 0.020597, -0.043568, -0.165234, 0.189453, 0.087754, 0.718391, 0.453269, -0.031740, -0.352065, -0.252085, -0.153064, -0.069019, -0.451198, -0.385446, 0.017622, -0.145259, -0.104716, -0.299946, -0.414433, -0.159062, -0.103188, -0.031655, -0.407166, 0.216404, -0.173584, -0.290400, -0.129255, -0.173609, -0.080821, -0.113602, 0.033167, 0.077087, -0.182930, -0.477505, 0.041786, 0.484219, 0.058915, 0.186527, 0.014002, -0.005662, 0.050558, 0.064786, -0.105238, -0.184167, -0.483198, -0.580603, -0.058871, 0.285438, 0.194679, -0.074619, 0.048448 ,
 -0.056361, -0.086453, 0.031439, -0.014240, -0.118581, -0.064951, -0.029896, -0.044161, 0.017947, -0.055955, 0.011053, -0.052787, 0.094959, 0.013189, 0.072556, 0.159149, -0.345389, -0.243967, -0.184102, -0.115471, -0.005606, 0.002814, 0.153493, 0.182266, 0.175934, 0.105149, 0.032031, 0.109133, -0.194798, -0.123815, -0.088628, -0.042072, 0.058605, 0.512149, -0.117494, 0.245789, 0.212241, -0.120183, -0.417525, -0.033874, -0.011256, -0.469811, -1.341778, -1.237283, -1.268606, -0.458184, -0.326528, -0.303875, -0.064283, 0.027195, -0.000407, -0.262889, -0.171338, 0.207343, 0.382517, 0.006838, -0.016227, -0.171736, -0.020262, 0.271890, 0.044328, 0.075382, 0.418651, -0.162159, 0.337108, 0.296307, -0.259626, -0.002219, 0.415235, 0.243007, -0.014593, 0.150938, 0.277932, 0.199275, 0.204927, -0.231717, -0.063361, 0.175271, 0.356423, 0.115632, -0.069132, 0.005024, 0.043452, -0.316218, -0.256536, -0.047918, -0.255007, 0.022440, -0.039004, 0.048399, -0.063920, -0.009699, -0.023318, 0.029098, 0.021457, -0.094888, -0.248735, -0.104042, -0.061172, 0.044424 ,
 -0.023321, 0.002466, 0.017990, -0.054271, -0.055129, -0.094442, -0.162649, -0.053714, 0.051396, 0.038984, 0.045373, -0.003304, 0.007030, -0.349765, 0.101115, 0.121293, -0.230476, 0.077684, 0.061953, -0.128294, -0.083556, 0.059448, -0.462832, -0.772286, 0.007977, -0.456623, -0.169642, 0.252495, -0.079950, -0.152208, -0.084062, -0.085214, -0.282574, -0.601633, -0.076158, 0.364479, -0.357815, -0.258957, -0.328197, -0.056000, -0.086057, -0.039477, -0.014860, -0.795225, 0.030305, 1.027633, -0.523077, -0.211577, -0.164293, 0.025276, -0.018911, -0.067463, -0.076026, -0.515072, 0.382889, 0.489163, -1.078300, -0.058853, -0.073622, 0.081193, -0.018065, -0.180726, -0.307261, -0.186489, 0.483404, -0.203328, -0.946457, -0.086540, -0.079825, -0.014283, -0.076882, 0.061182, 0.279118, -0.101314, -0.312665, 0.057884, 0.144498, -0.319226, -0.150031, 0.080735, -0.101723, 0.097344, 0.264257, -0.014349, -0.384358, 0.000919, 0.485298, -0.170485, -0.067287, -0.051480, 0.014688, -0.100122, -0.042358, -0.339265, -0.520431, -0.574601, -0.149839, -0.054270, 0.085598, -0.000482 ,
 0.044549, 0.045444, -0.038034, -0.087921, -0.076295, -0.272171, -0.166948, -0.120798, 0.053140, 0.099523, -0.029949, -0.013714, -0.226346, -0.325085, -0.107219, 0.000239, -0.170619, 0.054759, -0.085375, 0.014328, -0.030549, 0.064204, -0.047502, -0.055941, 0.073993, 0.335478, 0.403859, 0.129055, -0.314797, -0.430680, 0.098449, 0.183764, -0.014776, -0.075346, -0.005104, 0.518461, 0.893073, 0.402709, -0.030902, -0.428926, 0.094029, 0.365772, 0.109428, 0.119016, -0.197415, -0.621616, 0.240988, 0.526481, 0.607882, -0.139993, -0.041631, 0.014516, 0.020683, 0.054156, -1.027350, -0.297141, -0.055854, 0.021344, 0.260174, -0.174792, -0.151026, -0.121394, -0.006385, 0.233357, -0.844240, -0.207118, -0.041819, -0.032329, -0.272438, -0.163456, -0.141287, -0.159220, -0.330921, -0.117330, 0.464740, -0.355063, -0.406617, -0.464578, -0.279598, -0.107374, -0.069179, -0.065297, -0.117973, -0.058353, 0.029050, -0.015726, -0.408804, -0.425697, 0.040599, -0.037283, 0.045593, 0.029979, 0.107670, 0.091599, 0.187721, 0.420632, 0.391141, 0.030367, -0.034408, -0.057640 ,
 -0.063305, 0.088091, -0.007979, -0.125435, -0.251257, -0.359699, -0.188522, -0.092710, -0.031337, -0.040348, 0.078254, -0.036046, -0.042520, 0.206578, 0.175256, -0.220418, -0.094387, -0.045868, -0.008919, -0.018278, -0.061388, -0.094979, -0.192156, -0.038956, 0.262729, 1.028359, 0.070798, -0.302269, -0.108256, -0.041966, 0.055981, 0.066085, 0.084345, 0.330047, 0.198659, -0.387654, 0.399597, 0.274312, -0.139465, -0.169578, 0.036901, -0.014759, -0.096963, -0.310196, -0.442032, 0.088894, 0.447553, 0.553304, -0.168071, 0.115944, -0.011419, 0.036687, -0.024586, -0.176440, 0.223935, 0.196305, 0.135070, -0.687775, -0.335297, -0.063798, 0.049713, 0.063825, 0.040129, 0.458598, -0.086995, -0.015246, -0.186987, -0.308823, 0.103998, 0.164471, 0.099720, 0.160621, 0.166780, -0.192428, -0.422155, -0.151957, -0.052374, 0.100624, 0.124217, -0.010682, 0.087044, -0.057372, -0.210975, -0.105214, 0.179019, -0.264107, -0.180859, 0.162003, 0.200676, 0.031124, -0.037638, 0.010777, -0.001384, 0.087357, 0.139153, 0.437570, 0.615624, 0.383549, -0.038037, -0.061463 ,
 -0.014187, -0.075130, 0.108169, 0.145290, 0.076582, 0.132561, 0.163538, 0.239592, -0.031972, -0.034660, -0.077487, -0.029126, 0.062888, 0.128213, -0.060704, 0.072181, 0.260331, 0.177419, 0.087079, -0.064009, 0.038094, -0.101578, 0.055955, -0.142422, -0.484179, -0.548526, -0.569479, -0.250375, 0.051676, -0.067601, -0.056611, -0.335728, -0.349776, -0.325971, -0.485612, -0.556593, -0.160494, -0.411440, -0.813581, -0.408579, 0.019687, -0.245979, -0.200426, 0.144144, -0.005074, -0.320931, 0.063673, -0.078439, -0.019615, -0.227307, -0.079475, 0.045274, 0.306885, 0.519910, 0.469097, 0.545559, 0.318726, 0.207239, 0.325619, 0.002388, 0.055212, -0.102555, 0.155011, 0.135206, -0.010366, 0.463073, 0.444825, 0.436567, 0.206433, 0.182785, -0.073173, -0.067234, -0.370623, -0.081017, 0.452957, 0.140500, -0.137521, -0.331867, -0.142844, -0.083998, -0.045774, 0.006336, -0.196043, -0.467810, -0.651999, -0.412088, -0.266260, -0.180615, -0.146919, -0.084369, -0.026590, -0.079745, -0.051581, -0.210830, -0.264641, -0.187611, -0.324838, -0.216844, -0.040337, 0.070141 
};

const float fc1_bias[SIZE_L1 * 1] =  {
 -0.032144 ,
 -0.041494 ,
 0.226050 ,
 0.089125 ,
 -0.248824 ,
 -0.061015 ,
 0.158937 ,
 -0.159322 ,
 -0.091013 ,
 0.623905 ,
 0.125668 ,
 0.217324 ,
 -0.110599 ,
 -0.062018 ,
 -0.109951 ,
 0.380246 ,
 -0.111207 ,
 0.058157 ,
 -0.253697 ,
 0.117533 
};

const float fc2_weights[SIZE_L2 * SIZE_L1] =  {
 -0.096446, 1.254287, 1.318368, 0.244736, 1.146873, 0.099392, 0.015192, -0.032476, 0.037849, -0.086789, -0.051862, 0.172973, -0.055187, 0.959892, -0.012150, 0.039705, 0.651285, -0.047079, 0.013592, -0.021337 ,
 0.747501, -0.224777, 0.274579, -0.559557, -0.027193, -0.018397, 1.417853, -0.028235, 0.028472, -0.016801, 1.784493, 0.109089, 0.035493, -0.337086, 0.778023, 0.159610, 0.793281, -0.299090, 0.277873, -0.043848 ,
 -0.723787, 0.640919, 0.812374, -0.242951, 0.405771, -0.068236, -0.177427, -0.134872, 0.063330, 1.396083, -0.300322, -0.057287, 0.118532, 0.702610, -0.010166, -0.852419, -0.340427, 0.484535, -0.025768, -0.007757 ,
 0.582393, 0.851027, 1.004984, 0.965960, 0.693767, -0.107321, -0.020339, 0.025049, -0.179138, 0.066249, -0.190429, -0.093376, 0.135340, 0.085174, 0.014317, -0.377542, -0.534996, -0.058481, 0.010603, 0.207788 ,
 0.262871, -0.059219, 0.764929, 0.054693, 0.231560, -0.117074, -0.457791, -0.290257, 0.097699, -0.263388, 1.003888, 0.335221, 0.002625, 0.181616, -0.326451, -0.310207, 0.142893, -0.707421, -0.766556, 0.364773 ,
 -1.197149, -0.068809, 0.252075, -0.515154, 0.409453, 0.214559, 0.074863, -0.394573, -0.167944, -0.344863, -0.287860, -0.151796, -0.108123, -0.005483, 1.042726, -1.132660, -0.696811, -0.357434, 0.339397, -0.007856 ,
 -1.113815, -0.068530, 0.146741, -0.376979, 0.002211, 0.103143, -1.052901, -0.048848, 0.083980, -0.060521, -0.322931, -0.195333, 0.179906, 0.784753, 0.651788, -0.241058, 1.409073, -0.719610, -0.430976, 0.328392 ,
 -0.175751, 0.211141, -0.311230, 1.140210, -0.070080, 0.147513, -0.159445, -0.456488, 0.035110, -0.176208, -0.980505, -0.066414, 0.056525, -0.205909, -0.242319, 0.062193, -0.520283, 0.135887, 0.509255, 1.357140 ,
 -0.334229, -0.058902, -0.172799, 0.155723, -0.304435, -0.055093, -0.357951, -0.309618, 0.085136, -0.045074, 0.078607, -0.088381, -0.202579, 0.435801, -0.359687, -0.319356, -0.123330, -0.171277, -0.412918, 0.261542 ,
 -0.270515, 0.105392, -0.575197, -0.000149, -0.109212, -0.017764, -0.740123, 0.302750, -0.198654, -0.407706, -0.226362, -0.766262, -0.213331, 1.314245, 0.021375, 0.603347, 0.900009, -0.452003, -0.132247, 0.723258 ,
 0.264453, -0.361112, -0.635049, 0.767465, -0.419181, -0.185216, 0.390466, -0.223151, 0.045570, 0.923468, -0.312167, -0.222415, 0.103966, -0.389865, -0.059596, 0.144289, -0.531225, 1.077955, 0.172346, 1.222772 ,
 0.526592, 0.102272, -0.527794, 0.417044, 0.026593, -0.102386, 1.221612, 0.291208, -0.091258, 0.266568, -0.494095, -0.285950, -0.189141, 0.325889, -0.654646, 0.886990, -0.394338, -0.327059, -0.075932, 0.622872 ,
 1.625598, -0.046196, 0.196894, -0.117062, 0.349990, 0.151590, 0.425083, 1.820520, 0.168735, -0.112536, 0.032728, 0.080287, 0.206568, 0.103905, 0.024322, 1.136399, 0.176917, -0.533785, 0.197023, -0.004071 ,
 -1.013220, -0.109160, -0.463949, -0.028299, -0.026868, -0.065444, 0.062581, -0.268697, 0.174268, -1.373849, -0.174102, -0.550372, -0.146122, 0.274827, 0.535689, -1.092328, -0.446581, -0.332697, 0.525508, 0.145243 ,
 -0.540411, -0.139864, 0.505421, -0.639738, -0.091662, -0.096526, -0.330294, -0.561792, 0.188262, 0.556407, -0.371245, 0.060849, -0.009432, -0.457079, 0.439847, 0.111159, 0.116694, -0.735341, -0.493790, 0.211773 ,
 0.402592, -0.236152, 0.502673, 0.134516, 0.246132, -0.078255, 1.282238, -0.162279, -0.073491, 0.814670, 0.343331, 0.968651, -0.217952, -0.544816, 0.074455, 0.175136, -0.433328, 1.032385, 0.077692, -0.810217 ,
 -1.083829, 0.047928, 0.435754, 0.448384, 0.085819, -0.082106, -0.878789, -1.068521, 0.094760, 0.544254, -0.832194, 0.554087, -0.217294, 0.265157, -0.123596, -0.656695, -0.398151, 0.136613, -0.955564, -0.022108 ,
 1.500798, 0.315223, 0.069048, 0.111653, 0.104883, 0.191563, 0.140936, 1.092941, 0.078102, -0.728819, -0.023069, -0.161516, -0.106775, 0.116348, -0.022601, -0.113662, -0.580564, 0.599520, 1.098186, -0.334462 ,
 0.286131, -0.123893, -0.873908, 0.415791, -0.300438, 0.135292, 0.077989, -0.095940, 0.021105, -0.363695, 0.010410, -0.402418, -0.110380, 0.529023, -1.049987, 0.997015, 0.899332, -0.898649, -0.363752, 0.174598 ,
 -0.341076, -0.838467, -0.972768, -0.901174, -1.047825, 0.046699, 0.306224, -0.073894, -0.116129, 0.178533, 0.403813, 0.110754, 0.195695, 0.005872, -0.074717, 0.319369, 1.157918, 0.373189, 0.212731, -0.610075 
};

const float fc2_bias[SIZE_L2 * 1] =  {
 0.006892 ,
 0.246301 ,
 0.017712 ,
 -0.005152 ,
 0.160861 ,
 0.363106 ,
 0.436591 ,
 0.220361 ,
 0.324836 ,
 0.338689 ,
 0.374917 ,
 -0.559561 ,
 -0.136293 ,
 0.449839 ,
 0.345087 ,
 -0.124858 ,
 0.212575 ,
 -0.485806 ,
 0.310243 ,
 0.229419 
};

const float fc3_weights[SIZE_L3 * SIZE_L2] =  {
 0.528922, -1.607370, 0.664357, 0.591393, -0.811987, -0.594178, -1.482301, 0.731281, -0.148626, -0.494780, 0.658746, -0.129538, -0.511615, -0.730362, 0.369132, 0.821035, 1.277182, 0.383291, -0.480731, -0.484968 ,
 0.317590, 0.411018, -0.416070, -0.633035, 0.606878, -1.140306, 0.952147, -1.364833, 0.153067, 0.738442, -1.626588, -0.557906, 0.650264, -0.703247, -0.572392, -0.834782, -0.752379, -0.065117, 1.063315, 1.242501 ,
 0.405392, 0.190668, 0.040032, 0.502121, -0.362593, -0.423662, -0.218866, 0.632721, -0.390262, 0.641400, 0.541230, 1.298193, 0.824141, -0.158698, -0.372213, 0.251477, -0.449437, 0.784943, 0.961109, -0.294173 ,
 0.473785, 0.597389, 0.188423, 0.524739, 0.965749, -0.137168, -0.944783, -0.453217, 0.003292, -0.639330, -0.483601, 0.213575, 0.818893, -0.737222, -0.354700, 0.635386, -0.194107, 0.731050, -0.573716, -0.339380 ,
 -1.814892, 0.381846, -1.826339, -0.454657, -0.127149, 0.863806, 0.780599, 0.687301, 0.113291, 0.340909, 0.576578, -0.471811, -1.650499, 1.012515, 0.633931, -1.134007, -0.660201, -1.476449, -0.096053, -0.479485 ,
 0.488010, 0.151808, 0.575285, 0.497597, 0.562798, 0.558132, 0.634636, -0.296986, 0.060061, -0.118006, -0.027015, -0.329394, 0.399804, -0.432651, 1.200674, 0.653675, 0.973824, -0.381339, -0.585814, -0.709826 ,
 0.373157, -1.977829, 0.337015, 0.439289, 0.480498, 0.159909, 0.696634, 0.676904, 0.793080, 0.611194, 0.467015, 0.781642, -1.486729, 0.656617, -0.344431, -0.711421, 1.127472, -1.381822, 0.856057, -0.490683 ,
 -1.283944, 0.498387, 0.453010, -1.165325, -0.578383, -0.927391, -0.674729, -0.979486, 0.057591, -0.106857, 0.736140, 0.982735, 0.716762, -0.799189, -0.178402, 0.931732, -0.014378, 0.597701, 0.113710, 1.269724 ,
 0.456514, 0.095384, 0.486845, 0.399263, -0.729765, 0.809458, 0.772705, -0.273631, -0.355646, 0.473384, -0.980729, -0.629023, 0.665198, 0.918072, -0.446646, -0.798926, -0.706064, 0.700196, -0.419491, -0.696800 ,
 -0.304378, 0.615859, -0.695942, -0.845079, -0.219246, 0.902296, -0.080692, 0.116550, -0.360770, -1.771492, 0.340467, -0.536828, -0.082964, 0.979959, -0.297692, 0.731227, -0.624800, 0.222472, -1.173920, 0.939064 
};

const float fc3_bias[SIZE_L3 * 1] =  {
 -0.541465 ,
 0.672021 ,
 -1.432651 ,
 0.034130 ,
 1.193088 ,
 -0.343246 ,
 -1.013923 ,
 0.430931 ,
 0.221577 ,
 1.271707 
};




