const float fc1_weights[50][784] = {
{-0.018495, 0.002815, -0.002421, 0.027986, 0.021356, 0.034756, 0.011806, -0.003436, 0.012970, -0.024008, -0.010596, 0.023237, 0.007831, 0.021385, 0.030418, 0.018686, -0.005536, -0.016380, -0.009796, -0.010640, 0.018827, 0.017362, -0.023939, 0.000453, 0.004839, -0.017180, -0.034669, 0.032344, -0.031139, -0.016359, -0.005072, 0.018668, 0.021561, -0.020068, -0.023652, 0.005132, -0.026034, -0.012314, 0.006684, -0.016284, 0.027864, 0.000187, 0.032272, -0.004863, -0.020393, 0.033396, -0.002640, 0.024740, 0.012289, 0.032900, 0.010931, 0.029698, 0.008467, -0.019208, -0.016555, 0.009631, 0.034265, 0.028565, 0.011628, 0.022425, 0.007185, -0.005006, 0.008721, -0.006678, -0.017100, 0.022353, 0.024106, -0.024403, -0.023154, 0.003297, 0.003106, 0.021935, -0.030408, -0.002076, 0.012684, 0.036542, 0.001966, -0.006487, -0.012827, 0.006182, 0.003715, 0.012666, 0.030740, -0.031456, -0.009601, 0.011158, -0.034508, -0.012189, -0.023493, 0.028977, 0.031340, 0.013529, 0.002244, 0.009303, 0.035693, -0.023311, 0.000918, 0.006297, -0.003268, 0.003886, 0.002136, -0.024339, 0.021026, -0.021968, -0.016995, 0.005021, -0.009693, 0.007520, 0.031417, -0.011589, 0.015348, -0.023335, 0.007491, 0.033925, 0.023696, -0.022093, -0.025479, -0.031797, 0.028551, -0.001217, -0.009004, -0.018878, 0.015053, 0.006462, -0.059715, -0.036166, -0.044974, -0.019121, -0.014109, -0.008826, -0.047993, 0.033691, 0.030347, -0.024809, 0.006991, -0.011520, 0.030290, -0.008696, 0.016726, -0.001875, -0.027575, 0.001155, 0.009581, -0.026084, 0.021859, 0.008286, 0.013599, 0.039372, -0.004383, -0.018130, -0.019183, 0.007293, -0.063463, -0.037849, -0.059707, -0.016440, 0.004828, -0.044397, -0.005060, -0.022234, -0.059240, 0.013279, -0.002238, -0.000963, -0.019813, -0.012779, 0.010353, 0.035506, 0.021344, -0.019209, -0.035275, -0.033245, -0.033625, 0.008551, -0.008986, -0.017446, 0.035248, 0.019087, 0.041976, 0.005946, 0.003096, -0.052030, 0.001181, -0.046494, 0.017202, 0.061493, 0.018448, 0.023328, -0.005392, -0.006648, 0.000175, 0.024849, -0.025384, -0.008893, -0.008815, -0.029673, 0.030832, -0.032742, 0.003985, -0.031883, -0.017262, -0.031303, 0.003167, -0.006879, 0.025743, 0.072709, 0.037864, 0.068796, 0.001667, -0.011137, -0.029454, -0.015694, 0.086719, 0.066677, 0.030201, 0.016949, 0.012018, 0.020609, -0.013798, -0.026388, 0.017652, -0.013323, -0.015201, 0.000985, 0.006239, 0.020376, -0.025655, 0.020891, 0.005974, -0.043734, -0.015632, -0.020905, 0.011645, 0.003509, 0.021317, 0.060166, -0.010432, -0.096341, -0.046889, -0.027125, 0.069980, 0.138492, 0.017414, 0.051918, 0.004088, 0.023035, 0.012144, -0.018948, -0.022699, -0.016045, -0.018550, 0.024443, -0.013789, -0.018455, -0.001751, -0.009403, -0.031923, 0.002602, -0.008416, 0.014467, -0.001352, 0.041202, 0.006223, -0.065038, -0.068636, -0.157595, -0.150980, 0.052068, 0.125501, 0.091690, 0.035111, -0.002211, 0.005181, -0.041779, -0.018383, -0.035438, -0.009510, -0.010494, -0.000083, -0.033597, -0.017771, 0.011850, 0.001456, -0.033021, -0.020251, 0.007529, -0.007606, 0.028392, 0.019775, -0.016760, -0.046215, -0.073028, -0.122841, -0.171465, -0.096894, 0.054117, 0.139854, 0.020315, 0.004655, -0.015853, -0.019048, -0.006365, -0.053535, -0.040683, -0.015321, -0.003752, 0.031751, 0.028042, -0.033423, 0.011547, 0.010566, -0.032427, 0.007142, -0.022833, -0.018074, -0.021694, -0.028585, 0.008488, -0.017489, -0.075077, -0.152771, -0.133710, -0.033147, 0.106153, 0.103234, -0.024820, 0.004243, -0.035872, -0.044750, -0.015795, -0.039611, -0.029981, 0.021826, -0.037152, -0.026865, 0.000090, -0.029397, 0.035675, 0.010351, 0.011653, 0.025784, 0.000875, -0.026434, 0.010492, -0.051197, -0.050066, -0.088192, -0.094786, -0.100540, -0.060985, -0.030839, 0.063460, 0.059683, -0.030768, -0.006482, -0.037254, -0.048775, -0.021020, 0.006330, -0.023973, 0.011075, -0.017989, -0.035162, 0.018972, -0.024621, -0.031090, 0.005828, 0.009623, -0.018525, -0.012279, 0.027812, -0.011035, -0.058255, -0.065964, -0.053056, -0.077334, -0.050604, -0.028911, 0.036192, 0.015830, 0.014265, -0.045283, -0.051724, -0.053515, -0.044761, -0.010434, 0.032820, 0.031589, 0.027560, 0.017814, 0.018783, 0.022615, 0.033753, -0.009880, 0.014902, -0.020817, 0.002601, 0.019771, -0.002451, 0.021421, -0.039011, -0.029481, -0.037344, -0.014339, -0.024084, -0.016706, 0.019371, 0.003837, 0.024631, -0.039817, -0.053829, -0.022975, -0.034664, 0.033694, 0.030358, 0.011992, -0.001195, 0.023678, 0.026539, -0.023970, 0.014918, 0.015703, 0.015499, -0.011212, -0.030733, -0.003047, -0.017086, -0.017353, 0.026450, -0.022198, -0.027257, 0.059354, 0.036335, 0.035488, 0.027592, -0.008084, 0.000389, -0.072133, -0.058595, -0.016392, -0.045744, 0.032064, 0.032873, -0.008469, 0.016702, -0.035264, -0.024196, -0.032705, -0.029231, 0.019038, 0.033857, -0.011111, -0.034971, -0.028968, 0.012300, -0.030921, -0.015377, -0.007128, 0.041074, 0.030571, 0.032571, 0.053986, 0.014237, 0.013146, -0.063648, -0.109509, -0.076886, -0.034510, 0.006652, -0.016062, 0.029220, -0.033598, -0.038906, -0.024176, -0.030236, 0.032914, -0.033958, 0.028280, 0.027283, -0.011743, -0.006649, -0.030036, -0.021509, -0.037592, -0.040700, -0.013413, -0.004286, 0.058549, 0.074808, 0.079024, -0.020462, -0.106439, -0.093123, -0.100439, -0.061381, -0.054929, 0.003817, -0.027767, -0.024667, 0.034628, 0.023072, -0.005019, -0.024058, 0.034547, -0.011291, 0.013628, 0.033860, -0.028049, -0.008208, -0.055006, -0.032091, -0.050761, -0.003904, 0.018987, 0.036912, 0.052024, 0.106178, 0.091500, -0.061049, -0.138273, -0.147830, -0.071545, -0.074861, -0.037594, -0.015585, 0.002296, -0.017096, 0.029540, -0.018930, 0.015035, 0.015079, -0.010886, 0.032237, -0.032754, 0.020442, 0.005850, -0.005797, 0.003509, -0.016631, 0.009716, -0.017980, 0.024823, 0.018080, 0.068385, 0.108311, -0.001214, -0.121166, -0.146943, -0.087625, -0.060549, -0.044050, 0.005327, -0.019757, 0.010635, -0.028474, 0.007962, 0.010080, -0.000695, -0.017923, -0.005390, 0.003468, 0.008812, -0.003124, 0.007573, -0.009907, -0.034587, -0.019534, -0.020355, 0.020199, 0.048384, 0.068755, 0.112292, 0.068899, 0.017066, -0.108674, -0.110896, -0.043173, -0.036633, -0.002551, -0.027057, 0.015833, -0.002463, -0.030020, 0.036899, -0.009049, -0.007485, 0.006993, 0.017336, -0.023711, 0.020194, -0.013681, 0.019937, -0.007489, 0.009664, 0.012550, 0.010272, 0.023093, 0.061791, 0.023755, 0.057451, 0.059142, -0.006592, -0.027919, -0.085238, -0.036437, -0.059978, -0.007461, 0.007672, 0.009289, 0.002941, 0.029536, -0.006050, 0.032810, 0.028323, 0.015519, 0.029864, -0.019806, 0.034432, 0.021837, -0.008264, -0.005903, 0.010733, 0.000465, 0.051876, 0.000550, 0.059233, -0.011500, 0.026954, 0.017221, 0.034398, 0.006875, -0.083600, -0.072484, -0.025863, -0.041526, -0.026348, 0.052256, 0.024117, -0.019101, 0.012132, 0.026639, -0.008360, 0.011370, -0.018396, -0.024622, -0.031826, -0.019055, -0.008866, 0.002789, 0.057319, 0.047156, 0.050950, -0.022175, -0.006517, -0.015815, 0.050233, 0.055846, 0.034853, -0.029920, -0.065217, -0.047421, -0.021492, 0.000693, -0.015639, -0.021661, 0.003746, -0.018279, -0.000250, 0.009561, -0.017894, 0.007801, -0.020765, 0.035468, 0.020759, 0.033402, 0.026189, -0.018398, 0.054785, 0.019672, 0.038079, 0.016646, 0.026602, -0.029662, -0.017724, 0.024879, -0.005279, -0.009680, -0.042248, -0.087913, -0.032563, -0.044787, 0.014480, 0.010815, -0.028225, 0.022101, -0.027982, 0.017449, -0.002954, -0.000350, 0.002602, -0.005457, 0.028741, -0.012294, 0.005071, -0.006750, 0.003913, 0.029169, 0.036155, 0.031477, 0.031966, 0.026918, 0.037560, -0.006664, 0.028427, -0.007282, -0.056609, -0.015285, 0.002963, -0.025892, 0.007413, -0.024685, -0.030322, -0.025913, -0.011979, 0.024426, 0.020656, 0.029135, -0.012331, -0.012567, 0.033855, -0.027108, 0.000401, 0.004990, 0.036783, 0.029554, 0.028334, 0.010605, -0.030362, 0.027237, 0.010466, 0.012007, 0.011620, 0.019071, -0.027494, 0.004792, -0.012677, -0.024613, 0.011693, 0.007082, -0.016013, -0.034814, 0.026116, 0.005913, -0.014397, -0.005830, -0.008179, 0.030650, -0.034422, 0.033195, -0.034559, -0.015350, 0.012140, -0.004887, -0.016059, -0.016575, 0.001273, -0.014301, 0.006959, -0.011394, -0.030074, -0.034299, -0.000173, -0.013566, 0.034007, 0.010325, -0.008595, -0.019125, -0.029481, -0.026664, 0.011893, -0.001585, 0.008635, -0.010586, -0.012478},
{0.017691, 0.016082, 0.024261, -0.026295, -0.017882, -0.031488, 0.024286, -0.034780, 0.023408, 0.012751, 0.028589, -0.000588, 0.019821, 0.005876, -0.024909, 0.001342, 0.005151, 0.013385, -0.016111, -0.020084, -0.015796, -0.026128, 0.019903, 0.035171, 0.025098, 0.002046, 0.008566, -0.009001, 0.030490, 0.021378, -0.003202, -0.025266, 0.018473, 0.010884, 0.002671, 0.011860, 0.019060, 0.030284, -0.024650, -0.001074, -0.006168, -0.032902, -0.024772, 0.037808, -0.015319, 0.011079, -0.018838, 0.016017, -0.010351, 0.029743, 0.011998, 0.027531, -0.031968, -0.004936, -0.003271, -0.031459, -0.030235, -0.023071, -0.007960, 0.005977, -0.021653, 0.013554, -0.000436, -0.001183, 0.018764, 0.015876, -0.007170, -0.006907, -0.027121, -0.011040, -0.015000, 0.012326, -0.031548, -0.036203, -0.021322, -0.005503, -0.034699, 0.011455, -0.002449, 0.023077, 0.036453, 0.017803, 0.012351, 0.035213, -0.019703, 0.001734, -0.003650, -0.010404, 0.032854, -0.036741, 0.003396, -0.030671, -0.037703, 0.016232, 0.034576, -0.037522, -0.017249, -0.029252, -0.025982, -0.026190, -0.009277, -0.066628, -0.057335, 0.001871, -0.049414, -0.039255, -0.006695, -0.022156, -0.035751, 0.025791, -0.012624, -0.006634, -0.009051, 0.011102, 0.019496, 0.017835, 0.007710, -0.011546, -0.019650, -0.017045, -0.028146, 0.003071, -0.023119, -0.042577, 0.009424, 0.038767, 0.060190, 0.051251, 0.028626, 0.007865, -0.047136, -0.008224, -0.024650, -0.016938, -0.006264, -0.016889, -0.018181, 0.023984, -0.017676, -0.015831, 0.002833, 0.029429, 0.002426, 0.024371, 0.003585, -0.017265, -0.057194, -0.051017, -0.037128, -0.028598, -0.042161, -0.007280, 0.002317, 0.033457, 0.004637, 0.020135, 0.039957, 0.034314, 0.053489, 0.039820, 0.069260, 0.064353, 0.024109, -0.006969, -0.012047, 0.005417, 0.012048, -0.001580, -0.019091, -0.012878, 0.018159, 0.003903, 0.017700, -0.034533, -0.047220, -0.005109, -0.055250, -0.065406, -0.041338, -0.019188, -0.000437, -0.049496, -0.006396, 0.002213, 0.007658, -0.016580, -0.001215, 0.041317, -0.015761, 0.013445, 0.010576, 0.025811, -0.021622, -0.002505, -0.008607, -0.003369, -0.009470, 0.028486, -0.019437, -0.009118, -0.000035, -0.049326, -0.019344, -0.024184, -0.018007, -0.045451, 0.006198, -0.018946, -0.014532, -0.002428, -0.041279, -0.006911, -0.024063, -0.052239, -0.060366, -0.032391, -0.021398, 0.022678, 0.047611, 0.021783, -0.008075, 0.003302, 0.019195, 0.021526, 0.033559, -0.014570, 0.019669, -0.037325, -0.053962, -0.008495, -0.033130, -0.018338, 0.006990, -0.009988, 0.039979, -0.020709, -0.004566, 0.044238, -0.012479, -0.008807, -0.014832, -0.043562, -0.002210, -0.017068, -0.008640, -0.032169, 0.005779, 0.059456, 0.032063, -0.013873, 0.005383, 0.011911, 0.019332, -0.007330, -0.035489, -0.032897, 0.006777, 0.005525, 0.029889, 0.042243, 0.056032, 0.009356, 0.023827, -0.007286, -0.015101, -0.025029, -0.039125, -0.076161, -0.018653, -0.013404, 0.014382, 0.001245, -0.022427, 0.030485, -0.000323, 0.044316, -0.013425, 0.006257, -0.024323, -0.004665, -0.030070, -0.035793, -0.023931, 0.018460, 0.024095, 0.004546, 0.053841, 0.068485, 0.029968, 0.019975, 0.037064, 0.048574, 0.020885, -0.005383, 0.009636, -0.002560, -0.010128, -0.019910, 0.003796, -0.001994, -0.017524, -0.009382, -0.005124, 0.006455, 0.013864, -0.018697, -0.031497, 0.015383, -0.024930, -0.025854, -0.025922, 0.010023, 0.025963, 0.044085, 0.062630, 0.050613, 0.097908, 0.108929, 0.013893, 0.012119, 0.052101, 0.070897, 0.094181, 0.009425, -0.052898, -0.050739, 0.038277, -0.005037, -0.004186, 0.017573, -0.006804, -0.001589, 0.015756, 0.026747, 0.004769, -0.001889, 0.004225, 0.010695, 0.005357, -0.021408, -0.002208, 0.021662, 0.023290, 0.022769, 0.053673, 0.095511, 0.032915, 0.010707, -0.010799, 0.018690, 0.064740, 0.050058, 0.007222, -0.049863, -0.029622, 0.055438, 0.015478, 0.038188, -0.006098, -0.007213, 0.023558, 0.017341, -0.031481, -0.010672, 0.014269, 0.019400, 0.001491, -0.034487, -0.005411, -0.010075, -0.076268, -0.001988, 0.004489, -0.002650, -0.033744, 0.015968, 0.026968, 0.017534, 0.050455, 0.018453, 0.022394, -0.021521, -0.026450, 0.046945, -0.001053, 0.003573, -0.037256, -0.036042, -0.005085, 0.013686, -0.022658, -0.018531, 0.011214, 0.013014, 0.029474, -0.021355, -0.041966, -0.039526, -0.085296, -0.057663, -0.082346, -0.070258, -0.043256, 0.002623, 0.029108, 0.073673, 0.084173, 0.050560, 0.018626, -0.019170, -0.073294, -0.067130, -0.090530, -0.128255, -0.105138, -0.066789, -0.067369, -0.001835, 0.036187, -0.020488, 0.013328, 0.025438, -0.024527, 0.015662, -0.013577, -0.040755, -0.088640, -0.070168, -0.065932, -0.068013, -0.073921, -0.008169, 0.061328, 0.082520, 0.111446, -0.003352, 0.012038, -0.046045, -0.105921, -0.144022, -0.129029, -0.144725, -0.133378, -0.074404, 0.000018, 0.044851, 0.013375, 0.018484, 0.000443, -0.033686, -0.016550, -0.016353, -0.007953, -0.039649, -0.071118, -0.042324, 0.013117, 0.010054, 0.007128, 0.017930, 0.046664, 0.081434, 0.081305, -0.019406, -0.024883, -0.093346, -0.118957, -0.121672, -0.181267, -0.103578, -0.117534, -0.047615, -0.041549, 0.043932, -0.010525, -0.006713, -0.020344, -0.014914, 0.024472, -0.005789, -0.009749, -0.065990, -0.039326, -0.036891, 0.067844, 0.022830, 0.080258, 0.046822, 0.067582, 0.087240, 0.033748, -0.059639, -0.050159, -0.109195, -0.144828, -0.106124, -0.050936, -0.064668, -0.090861, -0.041277, 0.009470, 0.001243, 0.044129, -0.008303, 0.016323, 0.034748, -0.035463, 0.002399, 0.008729, -0.044964, -0.016165, 0.023124, 0.025943, 0.095105, 0.109086, 0.096337, 0.076346, 0.061077, 0.011859, -0.077196, -0.100823, -0.080414, -0.090666, -0.067810, -0.026568, -0.019846, 0.006031, -0.001991, 0.054075, 0.041299, 0.013857, 0.011440, -0.032174, 0.020439, 0.026040, -0.011370, -0.051530, -0.019571, 0.010244, 0.044362, 0.026931, 0.121323, 0.038783, 0.045268, 0.028128, 0.056188, -0.058274, -0.073450, -0.072704, -0.032166, -0.008348, -0.027778, 0.007855, -0.018151, 0.040547, 0.051382, 0.047582, 0.013192, 0.023913, 0.032786, -0.032699, -0.006022, -0.014328, 0.013984, -0.041046, -0.016178, 0.068353, 0.086566, 0.051096, 0.002380, -0.003076, 0.033462, -0.019492, -0.002199, -0.037145, -0.013992, 0.029293, 0.018032, 0.049560, 0.056271, 0.047948, 0.060854, 0.049608, 0.016972, 0.045094, -0.002622, -0.017978, -0.018787, -0.015269, -0.019499, -0.003513, 0.011356, 0.005923, 0.032034, 0.024542, 0.003386, -0.031563, 0.025167, -0.004786, -0.034368, -0.006697, 0.024895, 0.014898, 0.049747, 0.005463, 0.062434, 0.073832, 0.047250, 0.030906, 0.062038, 0.067432, 0.038624, -0.014679, 0.026206, 0.006640, -0.018256, -0.012163, -0.027243, -0.006745, 0.011127, 0.030239, -0.015222, 0.053995, 0.002525, -0.030960, -0.067420, -0.005517, -0.013591, 0.004456, 0.018538, 0.047069, 0.031214, 0.035141, 0.020312, 0.066373, 0.084153, 0.040304, 0.056671, 0.061105, 0.038711, 0.019136, 0.005883, 0.020921, 0.004428, -0.025242, -0.028725, -0.035192, -0.036868, -0.004254, -0.007413, -0.014936, -0.069930, -0.008753, 0.010513, 0.019782, 0.014530, 0.072955, 0.070723, 0.076351, 0.040067, 0.059794, 0.023262, 0.021569, 0.030967, 0.077873, 0.012937, 0.038886, -0.025787, -0.016895, 0.006845, -0.009286, 0.024841, -0.017877, -0.019024, 0.032538, -0.005551, 0.001579, -0.063844, -0.106627, -0.088829, -0.053563, -0.030048, -0.047830, -0.027165, 0.002359, -0.005725, -0.003718, -0.018386, 0.034121, 0.004366, 0.022367, 0.027902, 0.046930, 0.033463, 0.031925, -0.025427, -0.000981, -0.006659, -0.000181, -0.016949, -0.008288, -0.005617, 0.013147, -0.022281, -0.004966, -0.060619, -0.024738, -0.032690, -0.076246, -0.083180, -0.032314, -0.075011, -0.033910, -0.024336, -0.033371, 0.014292, 0.024406, -0.004483, -0.038299, 0.007274, -0.017664, -0.007714, -0.015286, -0.035145, -0.030241, 0.024426, -0.024128, -0.000804, 0.022493, -0.016282, 0.028851, 0.022159, 0.002968, -0.016855, 0.009306, -0.021919, -0.037340, 0.019011, -0.052819, -0.018653, -0.043530, -0.024072, -0.004684, -0.054069, -0.006604, -0.016312, 0.007786, -0.002951, -0.027514, 0.001260, -0.009245, 0.016737, -0.034861, -0.002062, 0.005790, 0.002850, -0.009044, -0.005924, 0.020235, -0.027243, -0.016745, -0.027851, 0.025798, 0.004469, 0.031685, -0.006056, -0.009806, -0.015980, 0.029856, -0.030304, 0.002587, -0.031287, 0.005040, -0.029084, 0.033355, -0.030715, -0.000434, -0.035878, -0.021768, 0.034589, -0.007573, 0.034337, -0.020906, 0.005464},
{0.012679, 0.028017, -0.010385, 0.003781, 0.011951, -0.024516, -0.002114, 0.024516, -0.023934, -0.015884, 0.000436, 0.006037, -0.017085, 0.020468, -0.011280, -0.025246, 0.008481, 0.027067, 0.011191, -0.007538, -0.008746, -0.004948, -0.035616, 0.019194, 0.032922, -0.031681, -0.002105, -0.010995, 0.023941, -0.021305, 0.011492, 0.016384, -0.001104, 0.006553, 0.002182, -0.032088, -0.017740, 0.003238, -0.001968, 0.029317, 0.010527, -0.010050, 0.032627, -0.002513, -0.009869, -0.033076, -0.024385, 0.008727, 0.015303, -0.031012, 0.015109, 0.004552, -0.017891, -0.032332, -0.002452, -0.013703, 0.013832, 0.013285, 0.008571, 0.022667, 0.027712, 0.034680, 0.022395, -0.020584, 0.006584, -0.027344, -0.020082, 0.014053, -0.007017, 0.037023, 0.030791, 0.044248, 0.043652, 0.025687, 0.034411, 0.032688, 0.011842, -0.011421, 0.004531, 0.033559, 0.025674, 0.011879, -0.023101, 0.026947, -0.005054, -0.016540, -0.005814, -0.010731, -0.024876, -0.022043, 0.015711, 0.002193, -0.022679, 0.031283, 0.023205, -0.046854, 0.001860, -0.040050, 0.001632, 0.022667, -0.012817, 0.002719, 0.029831, 0.052011, 0.021356, 0.046988, 0.030276, 0.050797, -0.025035, 0.029406, -0.002693, 0.005854, -0.006769, -0.008564, -0.022515, 0.031002, 0.009239, 0.012279, -0.033237, 0.015396, -0.018016, -0.025180, -0.064195, -0.068437, -0.072902, -0.036395, -0.077767, -0.037367, -0.025125, 0.043756, 0.009687, 0.024750, 0.042958, 0.063168, 0.060609, 0.037808, -0.034748, 0.003885, -0.001643, 0.000633, -0.028451, -0.023886, -0.027220, -0.023530, -0.005042, -0.028470, -0.012411, -0.027022, -0.050546, -0.030039, -0.084293, -0.090198, -0.037432, -0.040906, -0.023061, -0.057560, -0.068218, -0.003488, 0.003192, 0.061671, 0.045139, 0.026161, 0.034809, 0.059055, 0.003025, -0.043814, -0.016799, 0.002639, -0.017463, 0.003160, -0.035138, -0.027337, -0.013804, -0.043196, -0.048917, -0.034531, -0.055051, -0.091448, -0.055250, -0.054168, -0.065519, -0.060968, -0.054808, -0.020030, -0.065200, 0.010754, 0.026472, 0.012938, -0.007329, 0.000131, 0.012322, -0.038647, -0.003248, -0.005656, -0.013315, 0.010001, 0.015280, -0.002243, 0.022938, 0.013988, -0.006852, -0.019064, -0.083110, -0.095675, -0.035544, -0.023447, -0.098783, -0.072270, -0.016799, 0.030307, 0.057952, -0.001413, -0.016702, -0.000491, 0.033710, 0.043582, 0.019030, -0.023336, 0.002300, -0.010675, -0.062638, -0.057180, -0.005932, 0.022600, -0.022492, 0.031421, -0.008884, 0.007257, -0.008908, -0.040955, -0.052905, -0.020992, -0.009756, -0.064287, -0.076623, -0.015859, 0.008609, 0.018122, 0.033626, -0.008435, -0.086561, -0.026029, -0.030679, -0.013716, -0.014050, -0.044461, -0.064985, -0.065960, -0.046670, -0.061604, 0.023250, 0.011209, 0.023905, 0.020983, 0.018241, 0.009404, -0.056941, -0.060441, -0.048751, -0.053955, -0.069224, -0.065563, -0.019933, -0.056018, -0.039427, 0.000535, -0.021926, 0.002150, -0.058193, -0.043444, -0.032214, -0.013667, -0.062725, -0.045745, -0.111760, -0.095212, -0.086762, -0.088352, -0.004240, -0.017233, -0.034853, -0.019694, -0.031725, -0.045759, -0.054839, -0.069562, -0.073092, -0.030646, -0.009672, -0.002972, -0.020096, -0.025268, -0.051518, -0.053312, -0.030489, -0.051911, -0.052124, -0.028860, -0.049850, -0.071368, -0.095566, -0.072964, -0.103274, -0.113445, -0.087211, -0.036719, -0.026609, 0.004091, 0.000429, -0.015167, 0.004783, -0.020772, -0.068382, -0.006583, -0.042228, 0.040099, 0.032116, 0.005100, 0.062190, -0.000300, 0.049722, 0.022078, -0.006411, -0.017169, -0.074493, -0.096851, -0.031134, -0.008886, -0.040994, -0.041307, -0.053644, -0.045176, -0.066257, -0.063873, -0.019620, -0.033168, 0.023699, -0.030489, 0.001505, -0.017244, -0.074464, -0.001871, -0.016111, 0.030411, 0.033297, 0.024754, 0.027933, 0.078577, 0.043030, 0.011954, 0.012842, 0.066837, 0.036482, 0.023816, 0.012723, 0.011102, 0.028965, 0.004863, 0.002066, 0.007164, -0.003891, -0.066029, 0.008645, 0.020210, -0.010990, -0.017523, -0.012053, -0.032150, -0.006636, 0.002175, 0.031507, 0.021003, 0.063368, 0.029126, 0.068622, -0.003127, -0.009860, -0.000491, 0.067209, 0.122639, 0.046756, 0.058654, 0.086434, 0.051614, 0.047579, 0.035045, 0.007302, 0.007470, 0.002225, -0.054152, -0.028291, 0.000517, -0.011811, -0.015700, -0.032860, -0.006792, -0.017271, -0.018599, 0.031743, 0.048017, 0.088899, 0.064322, 0.044179, 0.048778, 0.021041, 0.049426, 0.131929, 0.066289, 0.011368, 0.050733, 0.030326, 0.053760, -0.043176, -0.065371, -0.063388, -0.078119, -0.062691, -0.039089, -0.031868, -0.003041, -0.008332, 0.013389, -0.001194, -0.011167, 0.028953, -0.016887, 0.021089, 0.053868, 0.085914, 0.064355, 0.047580, 0.006185, -0.026815, 0.059108, 0.137772, 0.089120, 0.005104, 0.022417, 0.041127, -0.018872, -0.063377, -0.046092, -0.060944, -0.043173, -0.030459, -0.035235, 0.001109, -0.001341, 0.012475, 0.006051, -0.014456, 0.024946, -0.031469, -0.026408, 0.016694, 0.068485, 0.059263, 0.023221, -0.015169, 0.030566, 0.000666, 0.075453, 0.140840, 0.030063, 0.086153, -0.021354, 0.001255, -0.040783, -0.064219, -0.050991, -0.091466, -0.054672, -0.029017, -0.033790, 0.014349, -0.001184, 0.032607, 0.017752, 0.016432, -0.035957, -0.007161, -0.029621, -0.062365, -0.044294, 0.013805, -0.000205, 0.017068, 0.008162, 0.074417, 0.061310, 0.098172, 0.040634, -0.024751, -0.022346, -0.015813, -0.061436, 0.007693, -0.038082, -0.040810, -0.033940, -0.066967, -0.047556, 0.021237, -0.027501, -0.016006, 0.025652, 0.013976, -0.007319, -0.030623, -0.077308, -0.073622, -0.053911, -0.059703, -0.019778, 0.047172, 0.023531, 0.104107, 0.048438, 0.027485, -0.033555, -0.036475, -0.060310, -0.010935, -0.018216, -0.017650, -0.055358, -0.069967, -0.036020, -0.066927, -0.009864, 0.007554, 0.002354, 0.022902, -0.002944, 0.011369, -0.035566, -0.041595, -0.084832, -0.120275, -0.147801, -0.084033, -0.040665, 0.014248, 0.065758, 0.047047, 0.017285, -0.003524, -0.043285, 0.007490, -0.019345, -0.029138, -0.019617, -0.059036, -0.034984, -0.089948, -0.049781, -0.020469, -0.026133, 0.009147, -0.031113, -0.012223, -0.008565, -0.025532, -0.015843, -0.078437, -0.096642, -0.073307, -0.122802, -0.087825, -0.072011, 0.032154, 0.019803, 0.045222, -0.027420, 0.010977, 0.027873, 0.015300, 0.025990, -0.007887, 0.004665, -0.064511, -0.032123, -0.084417, -0.006870, 0.014840, -0.013140, -0.005074, 0.017238, -0.027419, 0.021616, -0.010264, -0.020820, -0.025508, -0.074234, -0.090347, -0.073019, -0.057168, 0.024148, 0.047332, 0.043546, 0.019399, 0.011818, 0.040411, -0.018288, 0.035154, 0.061460, 0.017270, -0.001110, -0.029545, -0.035239, -0.032652, -0.009795, 0.009851, -0.026975, 0.006799, 0.001464, -0.027754, -0.032500, -0.006685, -0.010370, 0.003147, -0.054991, -0.060250, -0.045083, -0.066643, -0.022610, -0.016560, -0.059263, -0.004795, -0.013503, 0.049151, 0.015723, 0.017873, 0.049451, 0.037036, 0.041060, 0.019481, 0.014063, 0.003585, -0.035828, 0.018760, 0.000170, 0.011526, -0.031095, 0.007441, -0.006152, 0.026391, 0.015894, -0.022890, -0.014016, -0.020047, -0.088853, -0.066170, -0.019528, -0.064202, -0.044194, -0.039410, 0.011476, 0.029502, 0.032193, 0.074306, 0.070937, 0.068444, 0.073715, 0.066344, 0.004191, 0.017240, 0.003257, 0.013589, 0.016040, 0.024601, 0.021172, -0.016532, 0.035062, -0.025452, 0.028216, -0.021813, 0.004596, -0.033334, -0.041959, -0.027816, -0.035314, -0.039628, -0.011331, -0.078080, -0.034959, -0.037757, -0.015950, 0.028429, 0.005482, 0.057299, 0.066849, 0.010002, 0.052664, -0.006629, 0.002951, 0.011847, 0.012851, -0.008247, -0.035092, -0.005206, -0.019452, -0.000374, 0.023803, -0.003521, -0.000467, 0.011217, -0.046208, 0.005712, -0.015349, -0.002689, -0.053151, -0.012681, -0.051672, -0.031076, -0.021301, 0.001414, -0.024070, -0.030206, -0.007921, 0.011734, 0.032879, 0.015135, -0.007602, -0.006829, 0.028773, -0.001197, 0.032018, -0.020096, -0.030600, -0.003306, 0.028307, 0.023230, 0.018998, 0.035763, 0.003779, -0.017366, 0.004456, 0.026158, -0.009128, -0.006998, 0.030809, 0.033326, -0.028956, 0.007058, 0.015147, 0.002869, -0.031211, 0.018023, -0.025146, 0.014054, -0.011778, 0.031374, -0.034281, -0.017322, 0.016629, 0.003866, 0.035007, 0.019478, 0.021649, 0.016130, 0.021054, 0.008329, -0.027808, 0.023794, 0.024949, 0.012068, 0.010423, 0.017450, 0.025744, -0.002882, 0.030057, 0.007677, -0.006793, 0.027090, -0.015718, -0.006225, 0.001774, -0.022552, -0.009465, -0.031970, -0.000167, 0.007000, 0.021553},
{-0.001533, 0.016409, 0.021736, 0.015354, 0.029179, 0.012908, -0.015579, 0.016723, 0.029239, 0.023249, -0.030301, -0.006907, 0.027656, -0.028607, -0.021879, -0.007992, -0.020706, -0.013715, 0.016316, 0.024623, -0.008194, 0.009542, 0.015118, 0.000029, 0.006552, 0.035704, 0.025177, 0.011828, -0.008658, -0.029704, 0.005774, -0.008670, -0.026692, -0.021209, 0.023561, -0.024225, 0.018454, 0.028895, 0.032690, 0.030808, -0.002586, -0.004731, -0.028176, -0.023727, 0.020166, 0.002519, 0.031976, 0.014543, 0.019736, -0.004966, 0.010997, -0.014325, -0.008915, 0.035543, -0.016832, 0.032416, 0.029498, -0.015482, -0.014999, -0.024013, 0.029305, -0.008568, 0.031818, -0.030734, 0.006407, 0.022998, -0.014050, 0.043098, 0.019514, -0.004366, 0.048267, -0.017521, -0.012670, -0.002104, 0.003581, 0.016741, 0.036745, 0.021141, -0.017446, -0.027417, -0.034666, -0.003538, -0.011675, -0.014491, 0.008074, 0.024167, -0.028712, 0.000724, 0.020815, -0.023782, -0.031015, 0.027940, 0.009267, 0.006770, 0.009575, -0.023180, -0.022807, -0.024450, -0.015730, 0.001671, 0.008537, 0.017773, 0.043014, 0.067741, 0.033140, 0.058548, 0.000947, -0.004455, -0.026190, 0.009757, 0.033715, -0.009712, 0.013396, 0.012116, 0.006045, -0.014856, -0.014616, -0.012357, -0.042850, -0.030892, -0.034131, -0.047824, -0.047497, -0.046651, -0.063250, -0.009538, -0.047410, 0.002173, -0.026071, 0.031887, 0.022041, -0.002553, 0.029015, -0.007016, 0.015311, 0.015987, 0.023381, 0.024863, 0.033219, -0.019099, 0.006106, 0.005300, -0.011289, -0.012369, -0.025561, -0.047241, -0.018492, -0.026352, -0.053559, -0.030479, -0.016976, 0.031118, 0.033333, 0.043155, 0.034167, 0.002064, -0.066070, -0.035304, -0.065883, -0.002333, -0.021725, -0.020392, 0.007205, 0.009978, -0.029418, -0.039597, 0.012694, 0.034244, 0.014171, 0.032809, -0.019894, -0.001304, -0.021037, 0.006515, -0.050860, -0.015443, -0.054257, -0.008769, 0.002284, 0.062099, 0.076596, 0.008019, 0.039897, 0.007108, -0.000976, 0.025450, -0.045871, -0.073338, -0.031966, -0.020707, -0.018821, -0.005057, -0.031719, -0.025882, -0.009177, -0.020222, -0.012201, -0.020203, 0.033203, -0.029918, -0.026527, -0.043686, -0.063492, -0.069717, -0.060666, 0.018186, 0.056806, 0.008748, 0.052423, 0.063259, -0.006431, 0.049225, 0.011792, 0.044606, 0.002542, -0.011967, -0.063310, -0.034291, -0.009288, -0.066623, -0.066421, -0.049159, 0.006450, 0.027317, -0.034829, -0.008992, 0.012814, -0.025639, -0.023047, 0.000045, 0.008451, -0.005123, 0.007153, 0.059078, 0.024963, -0.011573, 0.060204, -0.018457, -0.039236, 0.000409, 0.012400, -0.031401, -0.035570, -0.010141, -0.014564, 0.017904, -0.029989, -0.047208, -0.052093, -0.037704, -0.014826, -0.006552, 0.026060, -0.008405, -0.017331, 0.021976, -0.057447, -0.036980, 0.004663, -0.003328, -0.006171, -0.036438, 0.012742, 0.012132, 0.037172, -0.026793, -0.070083, -0.054299, -0.023589, 0.004187, 0.001805, 0.011189, -0.013880, -0.030133, -0.073944, -0.079188, -0.108929, -0.058336, -0.025838, -0.035991, -0.022232, -0.025511, -0.026361, -0.021158, -0.036181, 0.002907, 0.033796, -0.006070, 0.020109, 0.036663, 0.020351, 0.048255, 0.033959, -0.014266, -0.098710, -0.113517, -0.018386, 0.033041, 0.046957, 0.040039, -0.021658, 0.011709, -0.016107, 0.000108, -0.112348, -0.082732, -0.059369, -0.004082, -0.011480, 0.022107, 0.024979, 0.013386, -0.024254, -0.008526, 0.032455, 0.044067, 0.071364, -0.003919, 0.083631, 0.045087, 0.098326, -0.005610, -0.039581, -0.010019, 0.039602, 0.048194, 0.042073, 0.024538, 0.023673, 0.104720, 0.080616, 0.070202, -0.005585, -0.065786, 0.014077, 0.034521, 0.013962, -0.007808, -0.013033, 0.012626, 0.021655, 0.024792, 0.078270, 0.087827, 0.014966, 0.029190, -0.002763, 0.031535, -0.000208, 0.001991, -0.076036, 0.027520, 0.019234, 0.021593, -0.005727, 0.022410, 0.103285, 0.181187, 0.181575, 0.148167, 0.035257, -0.000544, -0.049338, -0.034865, -0.010699, 0.024607, 0.034323, -0.016935, 0.021350, 0.085424, 0.085778, 0.088168, 0.006105, 0.012226, 0.028948, 0.007653, -0.046926, -0.066900, -0.024740, 0.044637, 0.036495, -0.014093, 0.008578, -0.010254, 0.079211, 0.120167, 0.192697, 0.118762, 0.021407, -0.056296, -0.029828, -0.036675, 0.020519, 0.016645, -0.005071, 0.034430, 0.046036, 0.103177, 0.111983, 0.032693, 0.004895, -0.003383, 0.027853, 0.070510, -0.027986, -0.022495, 0.014079, 0.006996, -0.015834, 0.013102, -0.014464, 0.020230, 0.052693, 0.092327, 0.115612, 0.019918, -0.015900, -0.058166, -0.012707, -0.016609, 0.011779, 0.034668, 0.013846, 0.023484, -0.010821, 0.034727, 0.022006, 0.021618, 0.025843, -0.015786, 0.054665, -0.006662, 0.000518, -0.090464, -0.033526, -0.001909, -0.005209, 0.044269, -0.009669, -0.006227, -0.014220, 0.005114, 0.057519, -0.017992, -0.036833, -0.010355, 0.014816, -0.031750, 0.000629, -0.021570, 0.021879, -0.000516, -0.000927, 0.043547, 0.019593, 0.033659, 0.041532, 0.006842, -0.043356, 0.020357, 0.003335, -0.093919, -0.069490, 0.008374, 0.016745, 0.034238, -0.037195, -0.033087, 0.017267, -0.013406, -0.020287, -0.045426, -0.090808, -0.038782, 0.005391, 0.000179, 0.019813, -0.024774, -0.005031, -0.015930, -0.055548, -0.044158, -0.033491, -0.050641, -0.000017, 0.011919, 0.075793, 0.102340, 0.033146, -0.053963, -0.025159, 0.002070, 0.008401, 0.038925, 0.015838, -0.002820, -0.007051, -0.013860, -0.054085, -0.069643, -0.076262, -0.071566, -0.007842, 0.004294, -0.034085, 0.017587, 0.011363, -0.077191, -0.064645, -0.091512, -0.106659, -0.053423, -0.033498, 0.035363, 0.091836, 0.090596, 0.076262, -0.020931, -0.052606, -0.011403, -0.004218, -0.030426, -0.048517, -0.022546, -0.020104, -0.013911, -0.105197, -0.117334, -0.119519, -0.060133, -0.017600, -0.026560, 0.009672, -0.008477, -0.026844, -0.014301, -0.075405, -0.083587, -0.054798, -0.051326, -0.061222, 0.048595, 0.085495, 0.084686, 0.077363, -0.063199, -0.048059, -0.047357, -0.047526, -0.000191, 0.004341, 0.005702, -0.005314, -0.074067, -0.094525, -0.103770, -0.082105, -0.031868, -0.022065, 0.022147, 0.014993, 0.034079, -0.038357, -0.013155, -0.052230, -0.089763, -0.087640, -0.090944, -0.095453, -0.027241, 0.031827, 0.059262, 0.069208, 0.015739, -0.024606, 0.005239, -0.067572, -0.025170, -0.029917, -0.027029, -0.022399, -0.045817, -0.100203, -0.125496, -0.045125, -0.005047, 0.005999, 0.031225, -0.027360, 0.030490, 0.021156, -0.009436, -0.088282, -0.047727, -0.015905, -0.070844, -0.013322, 0.007042, -0.030466, 0.013707, 0.028353, 0.052764, -0.000393, 0.003074, -0.046267, -0.039421, -0.054120, -0.044990, -0.077504, -0.056070, -0.050636, -0.054408, -0.035645, 0.002332, 0.000040, 0.035373, -0.012606, 0.030887, 0.021767, -0.048598, -0.062098, -0.042263, -0.061497, -0.053144, -0.051719, -0.067330, -0.042405, 0.012431, 0.042512, 0.060445, 0.040768, -0.005529, -0.008748, -0.036848, -0.048725, -0.072940, -0.033601, -0.073302, -0.013875, -0.010969, -0.010397, -0.017473, 0.013997, -0.026044, -0.028603, -0.007433, -0.030178, -0.025619, -0.023786, -0.009800, -0.053333, -0.093376, -0.013292, -0.068348, -0.075774, -0.024882, -0.007521, 0.064918, 0.064906, 0.046004, -0.002043, 0.000914, -0.055737, -0.030535, -0.009126, 0.006926, 0.019789, 0.034716, -0.003363, 0.017633, 0.015437, -0.011597, -0.016898, 0.022260, 0.001044, 0.022782, 0.006644, -0.000671, -0.044318, -0.084803, -0.049345, -0.042914, -0.017046, -0.018667, -0.006102, -0.021120, 0.004892, 0.001966, 0.026240, -0.029487, 0.030396, 0.074967, 0.033080, 0.021979, 0.027335, 0.035975, 0.027564, -0.022980, 0.033490, 0.031706, -0.004747, -0.030583, -0.009927, 0.010004, -0.018854, 0.016828, -0.013637, -0.013521, -0.062378, -0.053006, -0.049629, -0.036181, -0.028520, -0.017806, 0.040275, 0.031089, 0.001560, 0.008604, 0.078652, 0.034784, 0.060037, 0.042025, 0.051721, -0.026257, -0.001944, 0.031487, 0.022580, -0.027829, -0.016653, 0.025490, -0.023399, -0.012433, 0.036196, 0.001509, 0.022843, 0.009239, 0.011108, -0.017627, -0.004321, 0.027539, -0.008333, 0.015342, 0.027179, 0.033327, 0.009984, 0.022860, 0.013802, 0.026560, 0.030271, 0.044682, 0.016941, 0.018310, -0.024848, 0.017056, -0.028532, 0.016441, 0.027295, -0.035028, 0.023599, 0.029869, 0.002729, 0.010852, -0.022905, -0.021347, -0.030120, -0.034523, 0.036115, -0.025410, -0.021264, -0.031809, -0.029677, -0.000481, 0.000491, -0.033188, -0.025536, -0.016408, 0.029685, 0.003648, -0.034374, 0.007280, 0.017277, 0.020867, -0.027667, 0.025351},
{-0.000167, 0.013938, 0.029613, -0.029064, -0.035395, -0.011776, -0.010850, -0.010459, -0.006820, 0.022365, -0.008359, 0.000093, 0.029690, -0.027371, 0.000204, 0.030909, -0.007548, -0.021300, 0.033461, -0.000743, 0.003524, 0.014300, -0.023731, -0.005283, 0.030655, -0.013473, 0.016050, 0.028745, 0.022840, 0.032035, -0.010590, -0.019879, 0.000695, 0.020754, 0.002122, 0.008063, 0.034720, -0.027568, -0.011702, 0.018065, -0.018574, 0.029182, 0.008532, -0.029079, 0.020796, -0.012607, -0.027453, 0.021814, 0.013609, 0.030930, 0.036301, -0.007319, -0.015805, 0.011860, -0.033870, -0.020332, 0.003073, -0.004876, -0.034748, -0.022280, -0.020020, 0.021205, 0.029869, -0.018144, 0.037163, 0.016983, 0.016911, -0.004064, 0.012004, 0.039029, 0.035451, 0.058628, 0.069992, 0.042025, 0.064575, 0.029785, 0.051235, 0.041893, -0.010920, -0.016037, 0.019777, 0.031338, 0.020824, 0.007953, 0.004020, 0.032242, 0.031972, 0.026430, -0.027853, 0.016631, -0.017272, 0.028277, -0.001142, -0.037806, -0.029721, 0.038449, -0.016140, 0.010974, 0.059310, 0.061608, 0.088709, 0.081855, 0.113204, 0.122863, 0.127303, 0.084303, 0.062288, -0.015202, -0.007213, 0.026182, -0.018688, 0.013168, -0.001549, 0.029733, -0.005586, 0.003288, -0.012303, -0.040933, -0.033984, -0.010788, -0.064239, -0.021897, -0.021463, 0.016616, -0.020202, 0.019364, 0.023886, 0.076459, 0.085031, 0.071999, 0.096881, 0.110507, 0.092636, 0.060431, 0.093418, 0.070611, 0.017618, 0.022125, -0.032530, -0.022296, 0.027722, 0.004335, 0.028762, 0.032789, 0.000042, -0.013443, -0.020424, -0.069170, -0.066306, 0.005630, 0.011108, 0.027696, -0.003708, 0.011762, -0.058464, -0.014943, -0.022191, 0.025923, 0.097662, 0.057854, 0.110928, 0.077741, 0.085773, 0.051770, 0.027110, -0.024940, 0.001267, 0.005284, 0.004013, -0.011925, 0.019071, 0.003742, -0.004425, 0.001805, -0.078465, -0.038770, 0.003799, -0.026646, 0.000557, 0.011103, 0.034221, 0.037500, 0.058404, 0.074164, 0.062506, 0.107561, 0.123431, 0.081417, 0.118190, 0.058053, 0.063429, 0.047877, 0.005735, 0.016472, 0.008116, 0.034217, -0.005954, -0.012479, 0.014758, 0.006398, -0.049040, -0.035337, -0.043698, -0.008206, 0.005196, 0.022165, 0.046534, 0.039687, 0.057788, 0.056405, 0.105313, 0.118349, 0.148712, 0.110309, 0.114652, 0.092207, 0.037093, -0.002384, -0.052701, -0.040455, 0.024319, 0.044092, 0.024373, 0.028515, 0.024616, -0.026484, 0.012049, -0.024940, -0.019625, -0.063197, -0.068265, -0.060859, 0.012614, 0.015173, -0.020790, 0.035534, -0.002125, -0.001423, 0.028889, -0.030228, -0.013401, -0.040329, -0.110613, -0.115366, -0.077441, -0.117502, -0.142091, -0.138813, -0.066909, 0.013171, -0.011512, -0.010170, 0.031786, -0.014542, 0.007437, -0.016565, -0.018883, -0.066712, -0.038977, -0.016621, 0.015170, 0.022297, -0.036128, 0.007708, -0.024021, -0.035478, -0.130834, -0.173874, -0.213230, -0.319755, -0.299714, -0.343712, -0.280524, -0.246094, -0.261498, -0.156825, -0.043507, -0.004917, 0.000998, 0.003409, -0.027640, -0.027760, 0.013464, 0.003617, -0.010274, -0.030072, -0.045766, 0.025737, 0.021798, -0.004189, -0.024932, -0.008505, -0.057098, -0.096923, -0.182921, -0.190419, -0.230315, -0.301344, -0.308480, -0.283245, -0.278289, -0.241023, -0.209778, -0.129401, -0.064742, -0.023290, 0.002719, -0.014981, 0.015203, -0.033996, -0.005251, -0.044331, -0.006121, -0.031246, 0.000861, 0.020919, -0.006756, -0.019883, -0.001118, -0.011329, -0.016033, -0.007916, 0.014111, -0.024058, 0.003512, 0.024012, -0.072312, -0.113117, -0.127346, -0.166855, -0.116363, -0.068848, -0.091801, -0.027554, -0.019964, 0.000501, 0.010482, -0.014258, -0.018231, 0.003621, -0.049170, -0.023629, 0.031721, 0.011056, 0.043218, -0.051284, -0.023311, 0.006185, 0.003477, 0.036882, -0.007246, -0.009139, 0.039198, 0.108526, 0.094207, 0.025849, -0.046167, -0.061095, -0.041671, -0.015116, -0.036722, -0.035355, -0.049773, 0.001000, 0.022264, -0.013310, -0.033842, 0.007808, 0.015697, 0.019581, 0.035356, 0.013930, 0.003402, -0.041148, 0.016642, 0.022236, -0.021753, -0.013309, 0.007264, 0.023927, 0.015021, 0.038651, 0.083021, 0.061902, 0.057330, -0.006184, -0.012251, -0.030048, -0.029254, -0.057014, -0.053606, 0.002110, 0.020510, 0.012116, -0.031759, -0.016081, -0.001102, -0.003668, 0.028739, 0.042092, 0.061422, 0.036577, 0.034172, -0.016323, -0.041477, -0.044333, -0.046529, 0.015124, 0.043781, -0.014015, 0.055793, 0.025788, 0.005601, 0.041375, 0.033521, 0.031124, -0.008637, -0.024489, -0.029317, -0.007206, -0.026773, -0.028260, 0.013767, 0.015760, -0.009711, -0.081682, -0.035818, -0.004956, 0.062508, -0.005160, 0.046464, -0.013844, -0.023888, -0.043494, -0.002688, -0.015070, 0.025389, 0.033828, -0.007305, 0.020529, 0.047100, 0.038041, 0.014054, -0.003386, 0.016168, -0.027671, -0.038012, -0.026484, 0.020696, -0.010705, -0.022442, 0.019932, -0.039687, -0.058049, -0.060229, -0.029337, 0.021817, -0.044607, 0.034556, 0.066764, 0.007282, -0.028459, -0.020494, -0.034759, 0.024182, 0.002394, 0.030433, -0.003659, 0.050871, 0.010917, 0.014721, -0.013543, -0.022617, -0.046805, -0.000317, 0.017481, -0.009585, 0.005885, -0.024138, 0.009572, -0.027417, -0.075564, -0.053171, -0.036355, -0.019738, -0.027500, 0.017398, 0.061531, 0.037839, -0.018342, -0.054207, -0.017042, -0.000825, -0.003682, 0.033373, -0.002248, -0.017970, 0.046070, 0.031797, 0.021310, -0.007651, -0.066607, -0.038124, -0.028196, 0.035039, 0.028315, -0.007983, 0.004569, -0.000751, -0.019214, -0.022410, -0.020220, -0.024103, 0.020116, -0.009196, -0.010166, 0.024508, -0.062944, -0.005915, -0.005927, 0.028206, 0.034808, 0.060343, -0.002216, -0.039487, 0.009909, 0.025130, -0.003356, -0.009126, 0.010324, -0.000049, -0.023634, -0.034782, 0.016735, -0.009638, -0.010784, -0.004330, 0.017848, -0.045263, -0.005273, 0.005307, -0.009104, -0.013530, 0.027796, 0.008296, -0.004971, 0.017979, 0.027406, 0.043607, 0.013733, -0.001847, 0.020097, 0.011513, -0.028571, -0.023291, -0.020339, -0.015089, -0.042099, 0.013203, -0.027058, 0.034714, 0.033989, 0.002194, -0.012642, 0.003469, 0.018010, -0.001559, 0.006325, -0.009279, 0.006422, 0.003074, -0.019873, 0.020945, 0.012354, 0.036303, 0.075014, 0.015659, 0.004531, -0.014118, 0.025115, -0.042202, -0.013563, 0.020025, -0.000867, -0.022261, 0.001054, -0.015246, 0.012194, -0.010607, 0.013385, -0.023836, 0.021061, 0.016389, 0.019596, -0.011237, -0.035011, -0.001161, 0.008405, -0.004934, -0.011615, 0.025295, 0.034852, 0.025846, 0.036952, 0.032461, 0.004256, 0.011290, -0.026299, 0.028865, 0.015666, -0.007255, -0.018516, 0.020413, -0.006125, -0.031246, 0.025739, 0.024169, -0.016310, -0.015957, -0.026690, 0.005619, -0.036430, -0.066055, -0.030734, -0.044590, -0.016172, -0.009253, -0.016646, 0.024167, 0.037204, -0.000654, -0.046583, 0.022314, 0.004086, -0.028880, 0.022484, -0.006863, -0.042117, 0.008627, 0.009532, -0.007542, -0.006528, -0.014734, 0.002621, 0.001328, 0.001590, 0.030794, 0.004881, -0.009446, -0.005287, -0.036673, -0.054901, -0.053456, 0.001042, 0.020230, 0.000191, -0.047496, -0.039831, -0.005768, -0.021964, -0.015380, -0.055779, -0.021636, -0.003218, 0.008227, 0.031505, 0.026541, -0.003827, 0.030136, 0.023307, -0.001220, -0.020565, 0.014530, -0.027758, -0.008657, -0.007863, 0.017443, -0.003544, -0.011603, -0.001865, -0.041547, -0.002299, -0.015599, 0.029144, 0.001383, 0.024165, -0.002675, -0.044685, 0.016483, 0.039368, 0.039665, 0.051279, 0.048350, 0.007129, -0.001448, -0.003596, -0.011461, -0.013309, 0.022369, -0.015274, -0.015883, -0.033525, 0.014926, -0.033534, -0.014813, -0.008319, 0.030875, 0.019784, 0.047859, 0.017141, 0.020732, 0.021849, 0.060759, 0.059426, 0.040867, 0.016933, 0.047512, 0.053764, 0.097426, 0.116199, 0.056659, 0.050869, -0.013282, -0.019205, 0.016411, -0.010436, -0.008510, 0.008721, -0.010817, 0.001908, -0.012524, -0.031991, 0.026026, 0.017807, -0.009131, 0.021593, 0.020131, -0.002890, 0.034946, 0.044643, 0.005189, 0.013836, 0.030677, 0.015129, -0.012681, 0.010834, 0.029595, 0.004134, -0.006600, 0.015452, -0.018632, 0.023720, 0.031856, 0.004461, 0.010396, 0.004984, -0.034457, -0.011796, 0.022225, 0.034327, 0.002448, -0.011163, 0.030519, 0.029176, 0.003814, 0.008621, -0.005397, 0.023058, -0.029040, -0.033871, 0.021636, 0.023714, -0.025373, -0.014345, -0.010154, 0.001297, 0.029019, -0.017019, -0.016576, 0.008183, 0.028855, -0.002595, 0.005574, 0.004705},
{0.003193, 0.020944, 0.011249, 0.013677, -0.016950, 0.014014, -0.016457, 0.017328, 0.024050, -0.025739, -0.030372, 0.008567, 0.009154, 0.026233, -0.020591, 0.024843, 0.013614, -0.013685, -0.034574, 0.031362, -0.035427, 0.007898, 0.028706, -0.010138, 0.002211, -0.035693, 0.027254, 0.034003, -0.034645, -0.001208, 0.001909, -0.000043, 0.022637, 0.014661, 0.035428, -0.033949, -0.018491, -0.001387, 0.029177, -0.010694, -0.038872, 0.019254, -0.031805, -0.022830, -0.020722, -0.019076, 0.013581, 0.027594, -0.024121, 0.024069, 0.013023, -0.018941, -0.007055, 0.008521, 0.002843, -0.030161, -0.017141, -0.027988, -0.001293, 0.000367, 0.028771, 0.001473, -0.032595, -0.005696, 0.010255, -0.012834, -0.010042, -0.033227, -0.039684, -0.005513, 0.007437, -0.034567, -0.040420, -0.007584, -0.030873, 0.016228, -0.003978, -0.009246, -0.022944, 0.018336, -0.014973, -0.027646, -0.004014, -0.011622, -0.013529, -0.018873, 0.020753, 0.023413, 0.032164, -0.004775, 0.002390, 0.017264, -0.038406, -0.020963, -0.030777, -0.002233, -0.044094, -0.042289, -0.092639, -0.111167, -0.044712, -0.081426, -0.045461, -0.021542, -0.036390, -0.014351, 0.023651, -0.000275, 0.016441, -0.007983, 0.020691, 0.034596, -0.018574, 0.011194, -0.022029, 0.015899, -0.009728, 0.002919, 0.004413, -0.016978, -0.005642, -0.065978, -0.048577, -0.042019, -0.086522, -0.031619, -0.034537, -0.069265, -0.045078, -0.063236, -0.005706, -0.031644, -0.009491, 0.026823, 0.033768, -0.013632, -0.011009, 0.015127, -0.011390, -0.010586, -0.013773, 0.021510, 0.035533, 0.031742, -0.002989, 0.025375, 0.022411, -0.041290, -0.063305, -0.093795, -0.076593, -0.021975, 0.016425, -0.006431, 0.030613, 0.026260, 0.007319, 0.011943, -0.002190, 0.061484, 0.046844, -0.007314, 0.009854, 0.028439, -0.005954, -0.029572, 0.012593, 0.012696, -0.009894, -0.016889, 0.030926, 0.015916, 0.007840, 0.012681, -0.052490, -0.056990, -0.031293, -0.090891, -0.038253, -0.050785, -0.042714, -0.036355, -0.007219, -0.018376, -0.029488, 0.005386, -0.038672, 0.038439, 0.010305, 0.033133, 0.034518, 0.023024, 0.030838, 0.022412, -0.017805, -0.009312, 0.016220, 0.009987, -0.031776, -0.029494, 0.005798, -0.031016, -0.036162, -0.072038, -0.048926, -0.035370, -0.059292, -0.069457, -0.072795, -0.006830, -0.007981, -0.047868, -0.041618, -0.014314, -0.056883, 0.001950, -0.019634, -0.005154, 0.022026, 0.039180, 0.027865, -0.043875, -0.039794, 0.027721, 0.002359, 0.016859, -0.032855, 0.015318, 0.004418, -0.043269, -0.087828, -0.062321, -0.012250, 0.017473, -0.021792, -0.032815, -0.035554, 0.039873, -0.024827, -0.035872, -0.066832, -0.034963, -0.000483, -0.026457, -0.015791, -0.012088, 0.019258, 0.029961, 0.042008, 0.020351, 0.020998, 0.024688, -0.030355, 0.001152, 0.014423, -0.017976, -0.038132, -0.050924, -0.044276, -0.016161, 0.006844, 0.007258, -0.040922, -0.054924, -0.006795, 0.013209, -0.109865, -0.054245, -0.019185, 0.004672, 0.016539, -0.016608, -0.019162, -0.042479, 0.006543, -0.004329, 0.018426, -0.040720, 0.004251, 0.025484, -0.000266, -0.015766, -0.019963, -0.074492, -0.060418, -0.059225, -0.110313, -0.035743, 0.011959, 0.050251, 0.003919, -0.033280, 0.001544, -0.099136, -0.194869, -0.125106, -0.048486, -0.002887, 0.011498, 0.002528, -0.061585, -0.017176, 0.054268, 0.019735, 0.004596, -0.065445, -0.020965, -0.020935, -0.021327, 0.014425, -0.006105, -0.065587, -0.111964, -0.061532, -0.031110, 0.005921, 0.086721, 0.091344, 0.050414, -0.013937, -0.012324, -0.141716, -0.088919, -0.070342, -0.005910, 0.005078, -0.000219, -0.000434, -0.010380, 0.037010, 0.046425, -0.006703, 0.020538, -0.036312, 0.026598, -0.010737, -0.018841, -0.012606, 0.004274, -0.080768, -0.082162, -0.089545, 0.016451, 0.028582, 0.042867, 0.039071, 0.012810, 0.056307, 0.057462, 0.048381, 0.072653, 0.048531, 0.042959, -0.006773, 0.058137, 0.084585, 0.065081, 0.058087, 0.059401, 0.032101, 0.006810, 0.009804, -0.026786, -0.007594, 0.012029, -0.016459, 0.012697, -0.024628, -0.057288, -0.093348, 0.008538, 0.074647, 0.082284, 0.059553, 0.035360, 0.053814, 0.077753, 0.119547, 0.077286, 0.094468, 0.047226, 0.067836, 0.095141, 0.083415, 0.081010, 0.037252, 0.029319, -0.025951, -0.011175, -0.020962, -0.008408, 0.015249, 0.023828, 0.032153, 0.012791, -0.022171, -0.032330, -0.052328, -0.039442, 0.012633, 0.008491, 0.034624, 0.024033, 0.079657, 0.058396, 0.114240, 0.183505, 0.065516, 0.108360, 0.095132, -0.006383, 0.035443, -0.032065, -0.082433, -0.065264, -0.087942, -0.020370, -0.008067, -0.041679, 0.017848, -0.031633, 0.024297, -0.023603, -0.035057, 0.006460, -0.005197, -0.022595, -0.001278, -0.014240, 0.026647, 0.042887, 0.008474, 0.059145, 0.165634, 0.147107, 0.082665, 0.038870, -0.024229, -0.028038, -0.070267, -0.120778, -0.090469, -0.055428, -0.081452, -0.031642, -0.002785, -0.024105, -0.015043, -0.035103, -0.002504, -0.011664, 0.004027, -0.034953, -0.064328, -0.044871, 0.021258, 0.037402, -0.012089, 0.006162, -0.029613, 0.099615, 0.086083, 0.106324, 0.061673, 0.036161, -0.056001, -0.056132, -0.088923, -0.105266, -0.056916, -0.031544, -0.029486, -0.032010, -0.006703, -0.043127, 0.030819, 0.028005, -0.024273, -0.022834, -0.023167, -0.052730, -0.054192, -0.025295, -0.012136, 0.013798, -0.027977, 0.006492, 0.024612, 0.048445, 0.079560, 0.074135, -0.046034, 0.012365, -0.044936, -0.111367, -0.136563, -0.069326, -0.085754, -0.056710, -0.074447, -0.008430, -0.033699, -0.011547, 0.019831, -0.015370, -0.015901, -0.009380, -0.015621, -0.079418, -0.056061, -0.003050, -0.086500, -0.029956, -0.006728, -0.054328, -0.012403, -0.003137, -0.000867, -0.002875, -0.007007, -0.029804, -0.011618, -0.093310, -0.107960, -0.066335, -0.079163, -0.079323, -0.056391, -0.013714, -0.009973, -0.025025, 0.024059, 0.034498, -0.021128, -0.011092, -0.054471, -0.059007, -0.062229, 0.006995, -0.084545, -0.103201, -0.047431, -0.037994, -0.091177, -0.103224, -0.045301, -0.021731, 0.048318, 0.062889, 0.026453, -0.049459, -0.113964, -0.085029, -0.035672, -0.049728, -0.029330, -0.026941, -0.002592, 0.033787, -0.019329, -0.023222, -0.020214, 0.006242, -0.009926, -0.051164, -0.009299, 0.022938, -0.018546, -0.040050, -0.066946, -0.027823, -0.079692, -0.092023, -0.048879, -0.030515, 0.030145, 0.029404, 0.020745, -0.001246, -0.069270, -0.049390, -0.082716, -0.030175, -0.042087, -0.035022, -0.032294, 0.012226, -0.026030, 0.008508, -0.027245, -0.014684, -0.049221, -0.037742, 0.022660, 0.012408, -0.015759, 0.030945, 0.028895, 0.023355, -0.028257, -0.048875, -0.021862, -0.048179, -0.025277, -0.018117, -0.025548, 0.000868, -0.063769, -0.096786, -0.060134, -0.029686, -0.041987, -0.037495, -0.015148, -0.011257, -0.030406, -0.009588, 0.006503, 0.018880, -0.027034, -0.002353, -0.005372, 0.006538, 0.053858, 0.034474, -0.006564, 0.007306, 0.045367, 0.008929, 0.028327, 0.047276, -0.037360, 0.012349, -0.014732, -0.000790, -0.037162, -0.078628, -0.074566, -0.063221, -0.048801, -0.030801, -0.002479, -0.018852, -0.030955, 0.020155, -0.007958, 0.011258, 0.007831, -0.015441, -0.046999, -0.038633, -0.031476, 0.051193, 0.031612, 0.034041, 0.029028, 0.047918, 0.025674, 0.037156, 0.023398, 0.046785, 0.085505, 0.080005, -0.001621, -0.033387, -0.007157, -0.041502, -0.019266, -0.005287, 0.012731, 0.005956, 0.001923, 0.011562, 0.007110, -0.025610, 0.029137, -0.021717, -0.062272, -0.031708, -0.057570, -0.001905, -0.030096, -0.008999, -0.015873, -0.061094, -0.000598, -0.013210, -0.025749, 0.053358, 0.015092, 0.071910, 0.062810, -0.026397, 0.010298, -0.023451, -0.022149, -0.022423, -0.016849, 0.021504, -0.015375, 0.009933, 0.008724, 0.010257, -0.014449, 0.012466, -0.027705, -0.064928, -0.043151, -0.058425, -0.100738, -0.084906, -0.070048, -0.050457, -0.064145, -0.014987, -0.032036, -0.041166, -0.008741, 0.027775, -0.016583, 0.001845, 0.022240, 0.026814, -0.031860, 0.031345, 0.033376, 0.019697, -0.025574, 0.002601, -0.035484, 0.023818, -0.025757, -0.010732, 0.008360, 0.011098, -0.026323, -0.025897, -0.002201, -0.032349, -0.032151, -0.023711, -0.024720, -0.044262, -0.053834, -0.021133, 0.010687, -0.003944, -0.027562, -0.005786, -0.001260, 0.005515, -0.016110, -0.007388, 0.003914, 0.010482, 0.018569, -0.012523, 0.026711, 0.018628, 0.007129, 0.016171, 0.003522, -0.006859, -0.036370, 0.016593, -0.014329, 0.006663, -0.010746, -0.003543, 0.002107, 0.017411, -0.013449, -0.015206, -0.008877, -0.012553, 0.006652, 0.000510, 0.016051, -0.010814, -0.030268, 0.018082, -0.011800, -0.022809, -0.005873},
{0.033946, -0.006760, 0.032252, 0.007238, -0.017611, -0.019925, 0.010916, 0.031938, 0.032914, -0.000652, -0.010245, 0.019615, 0.025714, 0.019272, -0.017318, -0.031132, -0.020053, 0.019173, 0.002122, -0.008019, -0.034436, -0.002877, 0.017196, 0.020942, -0.005646, 0.029560, -0.023917, 0.026552, 0.016343, 0.035086, 0.013246, 0.020961, -0.003082, 0.033263, 0.006250, -0.024284, -0.031571, 0.008676, -0.010406, -0.014276, 0.008068, -0.014575, 0.027695, 0.003976, -0.024556, -0.011597, 0.004451, 0.023774, 0.030103, -0.003831, -0.035379, -0.020234, -0.024802, -0.016273, 0.030164, -0.024744, -0.028770, -0.035125, 0.033400, 0.021025, 0.032012, 0.007650, -0.012711, 0.021019, 0.013266, 0.028336, -0.031806, 0.018372, -0.028256, -0.006360, 0.018854, -0.016109, -0.018920, -0.026990, 0.010303, -0.002530, 0.005750, 0.026288, -0.003201, 0.002807, 0.010141, -0.003946, 0.027727, -0.030441, 0.003029, 0.029428, -0.007766, 0.003635, -0.026888, -0.005232, -0.033912, 0.011825, -0.026519, -0.043627, -0.039123, -0.022271, 0.016480, -0.042144, -0.000554, -0.049650, -0.029674, -0.014255, -0.038301, -0.000824, -0.041561, 0.030422, -0.002374, -0.021628, -0.006463, 0.008959, 0.013614, -0.030126, 0.003725, -0.017418, 0.027936, 0.021815, 0.014337, 0.028269, 0.029376, 0.016561, 0.023572, -0.021204, -0.023271, 0.014153, 0.022169, 0.014407, -0.007163, -0.016210, -0.024754, -0.051569, -0.021695, -0.029919, -0.016361, 0.001688, -0.002740, -0.007555, 0.013307, 0.033295, -0.016418, 0.014846, -0.010538, -0.000974, 0.034066, -0.025834, -0.000739, 0.032010, 0.042319, 0.036764, 0.051848, 0.032574, 0.042236, 0.029268, -0.018931, -0.003461, -0.036738, -0.035929, -0.058678, -0.019504, -0.010589, -0.006405, -0.031531, -0.003933, -0.013903, -0.009144, 0.015116, -0.010801, 0.025780, -0.027891, 0.013228, 0.013429, 0.000070, 0.021205, 0.016792, 0.020542, 0.053181, 0.002060, -0.008295, 0.035811, -0.016370, -0.029391, 0.012608, -0.032059, -0.007207, -0.007449, -0.004374, -0.013448, 0.017226, 0.024220, 0.018483, -0.003463, -0.011047, 0.026488, -0.045542, -0.027714, -0.030952, 0.034469, 0.024956, 0.018966, 0.028762, 0.011185, 0.022864, 0.031161, 0.017267, 0.029498, -0.058378, -0.031611, -0.036481, -0.040234, 0.010599, 0.004539, -0.063571, -0.078769, -0.001408, 0.042651, 0.027561, 0.008044, -0.005584, 0.015647, 0.021185, -0.012010, -0.011258, 0.008874, 0.010963, 0.030056, 0.003292, -0.018053, -0.024332, -0.023718, 0.043328, -0.005000, 0.016335, -0.046319, -0.010791, 0.012427, -0.026710, -0.000390, -0.048876, -0.044866, -0.086918, -0.037402, -0.054607, 0.027125, 0.043202, 0.053565, 0.012314, 0.018549, -0.011695, -0.013699, -0.019433, -0.030547, 0.020706, -0.023711, -0.028653, 0.024687, 0.017985, -0.003463, 0.042451, -0.016909, -0.018434, -0.037418, -0.023942, -0.006253, -0.019111, -0.030290, -0.013410, -0.037543, -0.091191, -0.065674, -0.012382, 0.075237, 0.100531, 0.055851, 0.072077, 0.032764, 0.005585, -0.045158, -0.084469, -0.052780, -0.001395, -0.012821, 0.035196, -0.010263, -0.009785, 0.005379, 0.022592, 0.042796, -0.020776, 0.008009, 0.024192, 0.002308, -0.004578, -0.016835, -0.025911, -0.065565, -0.094186, -0.113640, 0.000954, 0.075527, 0.110097, 0.073011, 0.017280, 0.008235, 0.041750, -0.060995, -0.099791, -0.079178, -0.047835, -0.006662, 0.013977, 0.010913, -0.019678, 0.034942, -0.026443, -0.020455, -0.049201, -0.010659, 0.016143, 0.005768, 0.048940, 0.037236, 0.032729, -0.086213, -0.102516, -0.114633, -0.006978, 0.077006, 0.107446, 0.101623, 0.078816, 0.048883, 0.047692, -0.047946, -0.052970, -0.024311, 0.004797, 0.019224, 0.029568, -0.013749, -0.015655, 0.005253, 0.044009, 0.003806, 0.018499, -0.028376, 0.006722, 0.029401, 0.079176, 0.074335, 0.015791, -0.087943, -0.098628, -0.115089, 0.039534, 0.133545, 0.093178, 0.093658, 0.034023, 0.050488, 0.013035, -0.012688, -0.011589, -0.010319, -0.005718, -0.028506, -0.020648, -0.021293, 0.031809, -0.032471, -0.003622, -0.020867, 0.007718, 0.025257, 0.062205, 0.013846, 0.051518, 0.019002, -0.075619, -0.122033, -0.112039, -0.033734, 0.013623, 0.075430, 0.067531, 0.052566, 0.017664, 0.065074, 0.051526, -0.010879, 0.021194, -0.005390, -0.005184, 0.007201, 0.034901, -0.009604, -0.011135, 0.026973, 0.022507, 0.029310, 0.036332, 0.060211, 0.048264, 0.061335, 0.010785, -0.056279, -0.091288, -0.081138, -0.043123, 0.018391, 0.063892, 0.118803, 0.060392, 0.118121, 0.094130, 0.064795, 0.072592, 0.008706, -0.002618, -0.029046, -0.004272, -0.006378, 0.002046, 0.003938, -0.019200, 0.014425, -0.011542, 0.013990, 0.041688, 0.051409, 0.036686, 0.037249, -0.013623, -0.044549, -0.053046, -0.051589, -0.026857, 0.045529, 0.118275, 0.148126, 0.063018, 0.123165, 0.054452, 0.049889, 0.067227, 0.014853, 0.015121, 0.027833, 0.033352, -0.009681, 0.000982, -0.000389, 0.024155, -0.014204, -0.010450, 0.015730, 0.031217, 0.074001, 0.078328, -0.001473, -0.036054, -0.021485, -0.097667, -0.038965, -0.007705, 0.064373, 0.072605, 0.090973, 0.045210, 0.064339, 0.100368, 0.071763, -0.008342, -0.044354, 0.014304, -0.003795, -0.023050, -0.005510, 0.016490, 0.018866, -0.021802, -0.020523, -0.019034, -0.000871, 0.013285, 0.041412, -0.015045, -0.027766, -0.058815, -0.054358, -0.048658, -0.034605, 0.048126, 0.055993, 0.090087, 0.042928, 0.050132, -0.000679, 0.060391, 0.023076, -0.008690, -0.064457, -0.024324, -0.000323, 0.019367, -0.005091, 0.032514, 0.004023, 0.001145, 0.014408, -0.021187, 0.024589, -0.020851, -0.007078, -0.040656, -0.060093, -0.099935, -0.051217, -0.076813, -0.062043, 0.041998, 0.018502, 0.062510, 0.042806, 0.029788, 0.047442, -0.018199, -0.031001, -0.024237, -0.031446, -0.037029, 0.013710, -0.023862, -0.026533, -0.006239, -0.026344, -0.018054, 0.023329, 0.013357, 0.012475, 0.001758, -0.024022, -0.001626, -0.079806, -0.107726, -0.064910, -0.089616, -0.044186, 0.002866, 0.012119, 0.010888, 0.030335, 0.031680, 0.004601, -0.045059, -0.031529, -0.074967, -0.083030, 0.005130, 0.012701, -0.009742, 0.015303, 0.032885, -0.009598, 0.004727, 0.028290, -0.004416, 0.012870, -0.070172, -0.012281, -0.043562, -0.055618, -0.060213, -0.098926, -0.092715, -0.045972, -0.056329, 0.015278, 0.015248, -0.016227, 0.010857, -0.030605, 0.002270, -0.048643, -0.078226, -0.029902, 0.009567, -0.003438, 0.012846, -0.001915, -0.002990, 0.032655, 0.018036, 0.006264, -0.009446, -0.012685, -0.059730, -0.067273, -0.023404, 0.005255, -0.045759, -0.034983, -0.045733, -0.085989, -0.053357, -0.018367, 0.026396, -0.041512, -0.044948, -0.005271, -0.043810, 0.003462, -0.061104, -0.033109, -0.030578, -0.012851, -0.005311, -0.012183, -0.006246, -0.030437, -0.013688, -0.033903, 0.012581, -0.031464, -0.014787, -0.018810, -0.009136, -0.017313, -0.000253, 0.010037, -0.052485, -0.058131, -0.060788, -0.041952, -0.020413, -0.039498, -0.022301, 0.010536, -0.009580, -0.038072, 0.010276, -0.025790, 0.007128, -0.002962, -0.011495, 0.007011, -0.015468, -0.025288, -0.025280, -0.016200, -0.013418, -0.032084, 0.027673, 0.040089, -0.006805, 0.005452, 0.026083, -0.004411, -0.002879, -0.079529, -0.028770, -0.020312, -0.026647, -0.021203, -0.039923, -0.041757, -0.024227, -0.019840, -0.007383, -0.031203, -0.021936, 0.011910, -0.034112, -0.020817, 0.008675, 0.035355, -0.016410, 0.030902, -0.017292, 0.005281, 0.041043, 0.025064, 0.001334, 0.020123, 0.019628, -0.005702, -0.006636, -0.054819, -0.027337, -0.055551, 0.027941, -0.021161, -0.013668, 0.029515, 0.033648, 0.019581, -0.007518, 0.002056, 0.021513, 0.018740, 0.021429, -0.010972, -0.025830, -0.010986, -0.000451, 0.014979, 0.016489, 0.044144, 0.046874, 0.045673, -0.013635, 0.023752, 0.015315, -0.008775, -0.032391, -0.033669, 0.028853, -0.039956, 0.021266, -0.020140, 0.007449, -0.013227, -0.020593, -0.015043, -0.040065, 0.015264, -0.029485, -0.010680, -0.016139, -0.006545, -0.012104, -0.029433, -0.023354, 0.025041, 0.008017, 0.039127, -0.012772, 0.018562, -0.007270, -0.007474, 0.016644, 0.023460, -0.010546, -0.025626, 0.021030, 0.004707, 0.029809, 0.035639, 0.034370, 0.011563, -0.000774, 0.001542, -0.010652, -0.000009, -0.013301, -0.020995, 0.019857, -0.021264, -0.033993, -0.010944, -0.006538, -0.008661, -0.021198, -0.023251, 0.014630, 0.004837, -0.024890, -0.005137, 0.004050, 0.022558, -0.008626, -0.014832, -0.007211, -0.029205, -0.021511, 0.022854, 0.023770, 0.012135, -0.023674, 0.032033, 0.033492, -0.000402, -0.003158, 0.021440, 0.000601, -0.035641},
{-0.009075, 0.008310, 0.021747, 0.017389, 0.000956, 0.030525, -0.008564, 0.009032, -0.015138, -0.011525, -0.030164, 0.018756, -0.034548, 0.030874, -0.009906, 0.030838, -0.003047, 0.023987, 0.017701, 0.005008, 0.032945, 0.013699, 0.020022, 0.027430, 0.024557, -0.021633, -0.003420, 0.028772, 0.034493, 0.023860, 0.022831, 0.004943, 0.000344, -0.010634, 0.018885, 0.023342, 0.023946, -0.002253, -0.019930, -0.003756, 0.019567, 0.005471, -0.026152, -0.028873, 0.026005, -0.023438, 0.000346, -0.029056, 0.003132, -0.028691, 0.036087, 0.002704, -0.033781, 0.015319, 0.014562, -0.006651, 0.015627, 0.029462, 0.020332, -0.022239, 0.034107, 0.009651, -0.008357, 0.000800, 0.039630, 0.038515, 0.009027, 0.010674, 0.037577, 0.015107, 0.017109, 0.044154, 0.032661, 0.006530, 0.046879, 0.022694, -0.017277, -0.023413, -0.001463, -0.008003, 0.009675, -0.021939, -0.024204, 0.029082, 0.008227, -0.032216, -0.014713, 0.034750, -0.008342, -0.014042, -0.013790, -0.011455, 0.044802, 0.046790, 0.042679, 0.052958, 0.043803, 0.033540, 0.037694, 0.042846, 0.025049, 0.064188, 0.035147, 0.051749, 0.021095, 0.025610, -0.020698, -0.016774, 0.020260, 0.025889, 0.015734, -0.018507, 0.002070, -0.014037, -0.019599, -0.005438, -0.032092, -0.035674, 0.014922, -0.028106, 0.003454, 0.020382, 0.080043, 0.065810, 0.019752, 0.032835, 0.033776, -0.006713, -0.018545, -0.024150, -0.008615, 0.007897, -0.036414, -0.015974, -0.004062, -0.042713, 0.011286, 0.011808, 0.024399, 0.002527, 0.017407, 0.003153, -0.016551, 0.001876, 0.014595, -0.006600, 0.001194, -0.035367, 0.009507, 0.043883, 0.077249, -0.031256, -0.001496, -0.032795, 0.004166, -0.053278, -0.017902, -0.015243, -0.044631, -0.004996, -0.055746, -0.027550, -0.067719, -0.078651, -0.031852, -0.010009, -0.008318, -0.021737, -0.001022, 0.006858, 0.028799, 0.001658, -0.012106, -0.030518, -0.016845, -0.029408, -0.020674, -0.028904, 0.016417, -0.022751, -0.031047, -0.022284, -0.023708, -0.054154, -0.024713, -0.049483, -0.033601, -0.052381, -0.097423, -0.083190, -0.075016, -0.050772, -0.008075, -0.002365, -0.023063, -0.000535, 0.021750, 0.035395, 0.002953, -0.031650, -0.048532, -0.042254, -0.023619, -0.036832, -0.006512, -0.021567, -0.001144, 0.016130, -0.028125, -0.019698, -0.046984, -0.050607, -0.063256, -0.033984, -0.111632, -0.116039, -0.103736, -0.077592, -0.106542, -0.113882, -0.036430, -0.001274, -0.010020, 0.009892, -0.001534, 0.004781, -0.019043, 0.024167, -0.035289, -0.047210, -0.034591, -0.052742, 0.004280, -0.031664, 0.033841, 0.010001, 0.009346, -0.064578, 0.005808, -0.043648, -0.096205, -0.047566, -0.122463, -0.068624, -0.045323, -0.056428, -0.082572, -0.107298, -0.043951, -0.039554, -0.030715, 0.019286, -0.011559, 0.003210, -0.019699, 0.017689, -0.041035, -0.008221, -0.059323, 0.009417, -0.011864, 0.016281, -0.000780, 0.017518, 0.013317, -0.020592, 0.008473, -0.038363, -0.081407, -0.073846, -0.090388, -0.060261, -0.018672, -0.042992, -0.067749, -0.099907, -0.082507, -0.039070, 0.002598, -0.008367, 0.004875, 0.006785, -0.027834, 0.000623, -0.043744, 0.015076, -0.008215, -0.023191, 0.034223, -0.033874, -0.003222, -0.009273, -0.074526, -0.077507, 0.011848, -0.038380, -0.051684, -0.048091, -0.066999, 0.004390, -0.024277, -0.011273, -0.056242, -0.040695, -0.049901, -0.037421, 0.020864, 0.029203, 0.028835, 0.014885, 0.026552, -0.022538, 0.015439, -0.053312, -0.008783, -0.033864, -0.020197, -0.047857, -0.073734, -0.081635, -0.114169, -0.036218, 0.012590, -0.079931, -0.051738, -0.057484, -0.025813, 0.011774, 0.020722, 0.006266, -0.039838, 0.007396, -0.006887, -0.036843, 0.011321, -0.024936, 0.029876, 0.011068, -0.025311, 0.031409, -0.040718, -0.030920, -0.071666, -0.062585, -0.038953, -0.077518, -0.072917, -0.042365, -0.086501, 0.005738, -0.005445, -0.080118, -0.004587, -0.015282, 0.010431, 0.052862, 0.048873, 0.017310, 0.028450, -0.010907, 0.023764, -0.026513, -0.029340, 0.023613, 0.018493, 0.028870, 0.023296, -0.013238, -0.009384, 0.000895, -0.074977, -0.072262, -0.060501, -0.093263, -0.042348, 0.010381, -0.009336, 0.119735, 0.054281, 0.003058, 0.007654, -0.060515, -0.023933, 0.011267, -0.014238, 0.003955, 0.005157, 0.071125, 0.103253, 0.007950, 0.001550, 0.004180, -0.029490, -0.012973, -0.003626, -0.030766, -0.046167, -0.020934, -0.044471, -0.030911, -0.031054, -0.023576, 0.052342, 0.093803, 0.084499, 0.156384, 0.060787, 0.010018, 0.024896, -0.059405, 0.004676, -0.000850, 0.014066, 0.044170, 0.060737, 0.123262, 0.062742, 0.010293, 0.023935, 0.033808, 0.000034, -0.032837, 0.004316, 0.016912, 0.010541, 0.014762, 0.015680, -0.016157, -0.048726, 0.015437, 0.081387, 0.096845, 0.054988, 0.103890, 0.087470, 0.006816, -0.002274, -0.014602, 0.004503, 0.024487, 0.004178, 0.032684, 0.035058, 0.034352, 0.054847, 0.085483, -0.010322, -0.005756, 0.013403, -0.009033, 0.024122, -0.017850, -0.033762, 0.010584, 0.024425, -0.049392, -0.011315, 0.007845, 0.126559, 0.078903, 0.078792, 0.085651, 0.097893, 0.043163, 0.011125, 0.028481, 0.036915, 0.036910, -0.011224, 0.049092, 0.040760, 0.045859, 0.099769, 0.055223, 0.026107, -0.007092, 0.002671, -0.007555, 0.006894, 0.007549, -0.021471, -0.023196, 0.015906, -0.016710, 0.036712, 0.049781, 0.115954, 0.058015, -0.009396, 0.012007, 0.003197, -0.006494, 0.047717, 0.069087, 0.061327, 0.068725, 0.073461, 0.062412, 0.042398, 0.096199, 0.099056, 0.033583, -0.007488, -0.001765, 0.019947, 0.020500, -0.013919, 0.029883, 0.001127, 0.021022, 0.024235, 0.000457, -0.015248, -0.009850, 0.025313, 0.023375, 0.067742, 0.004031, -0.013464, 0.022993, 0.086787, 0.098040, 0.070769, 0.061695, 0.076691, 0.095489, 0.051232, 0.105022, 0.081601, 0.044464, -0.002105, 0.030193, -0.031969, 0.031076, 0.009984, 0.000673, 0.024603, 0.039399, 0.033770, 0.021685, -0.011710, -0.026210, 0.027357, 0.068027, 0.023407, 0.057309, 0.071269, 0.043522, 0.091506, 0.065115, 0.037568, -0.008446, 0.005009, 0.000380, 0.038373, 0.018540, 0.049647, 0.025095, 0.003958, -0.001400, 0.010279, 0.029608, 0.021371, -0.016643, 0.016568, -0.001506, -0.005290, 0.061873, 0.001050, 0.008915, 0.025442, 0.065301, 0.046219, 0.019666, 0.057414, 0.011029, -0.033765, -0.051393, 0.029127, -0.062858, -0.052224, -0.034107, 0.004165, 0.008617, 0.032836, 0.001004, 0.025691, -0.013384, -0.005720, -0.008195, 0.019985, 0.033859, -0.000549, 0.012053, 0.005005, 0.023459, 0.033888, -0.011054, -0.046823, -0.034439, 0.024867, -0.003279, -0.036265, -0.063336, -0.042074, -0.063482, -0.047409, -0.065512, -0.126271, -0.094519, -0.029136, -0.012952, -0.010232, 0.012951, -0.033262, -0.003762, 0.031754, 0.012532, 0.005807, -0.028795, -0.018645, 0.017170, -0.024117, -0.009656, -0.003236, -0.003553, -0.041556, -0.067348, -0.068552, -0.048470, -0.060106, -0.115998, -0.150889, -0.163834, -0.096647, -0.099945, -0.043000, -0.042405, -0.052034, -0.042110, 0.013103, -0.009933, -0.017854, 0.033654, -0.019272, 0.029203, -0.010774, 0.022678, 0.015042, -0.026317, -0.032274, -0.019849, -0.079235, -0.069488, -0.078490, -0.050533, -0.080269, -0.098669, -0.113328, -0.079586, -0.082934, -0.143768, -0.077855, -0.104172, -0.068614, -0.023936, -0.038026, -0.057456, -0.004194, -0.020125, 0.001772, 0.035457, 0.029107, -0.028394, 0.028618, -0.013550, 0.023128, 0.026811, -0.047017, 0.004074, -0.040252, -0.028255, -0.038821, -0.085754, -0.019687, -0.047268, -0.038077, -0.017984, -0.075633, -0.030487, -0.075279, -0.032852, -0.023948, -0.017273, -0.028592, -0.049945, 0.018706, -0.000676, -0.007283, 0.020950, -0.013008, -0.021023, -0.005512, -0.015022, 0.025054, 0.006875, 0.023729, 0.027825, -0.030570, -0.004389, -0.016730, -0.021876, -0.034257, -0.052035, -0.058464, -0.004620, 0.000282, -0.026678, -0.017687, -0.063226, -0.035637, -0.029533, -0.034362, -0.037518, 0.025696, -0.031200, 0.028920, -0.025855, 0.022279, 0.027898, 0.025538, -0.011527, -0.025844, 0.032216, -0.007744, 0.001149, 0.001035, -0.022991, -0.021854, 0.033270, 0.017303, 0.016126, 0.019456, -0.012781, 0.005459, -0.000920, 0.019809, 0.014005, 0.027809, -0.006691, 0.010153, -0.025117, 0.001468, -0.013905, 0.016445, -0.014970, 0.018460, 0.004030, 0.006014, 0.023322, 0.029095, 0.035562, 0.027745, 0.009839, -0.006951, 0.015342, -0.027720, 0.028520, 0.000645, 0.006060, -0.032187, 0.028109, -0.008628, -0.004256, 0.000493, 0.004867, 0.020957, -0.022927, 0.034095, 0.016253, 0.015880, 0.028705, -0.002201, -0.033416},
{0.013966, 0.010914, -0.015727, -0.029546, 0.011020, -0.016663, 0.008104, 0.007023, -0.010261, -0.023598, 0.032110, 0.011276, -0.019527, -0.014462, -0.002383, 0.010476, -0.000348, -0.010357, -0.015034, -0.002236, -0.025350, -0.019992, -0.024968, 0.025698, -0.005847, -0.024025, -0.007890, 0.004848, 0.009691, -0.000733, 0.008866, -0.006644, -0.022879, 0.015417, 0.022470, 0.019436, -0.008897, 0.027387, 0.031928, 0.028481, -0.023139, 0.022302, 0.034308, 0.020213, 0.017529, 0.023564, -0.004221, 0.005472, 0.027853, 0.006555, -0.005580, 0.033884, 0.025113, 0.010777, -0.033773, -0.029817, 0.012835, -0.028095, 0.025985, -0.001161, -0.027040, -0.033433, 0.019490, -0.005682, -0.036704, 0.011707, -0.024093, -0.036596, -0.053079, -0.026053, -0.028165, -0.042918, -0.023851, 0.000465, -0.005200, -0.015219, -0.026992, 0.001961, -0.027056, -0.028003, -0.024813, -0.031920, 0.010180, 0.003220, -0.033214, 0.012717, 0.016629, 0.018401, -0.026498, -0.015179, 0.000025, 0.004449, -0.037639, -0.026172, -0.030580, -0.023653, -0.039832, -0.042888, -0.047669, -0.053270, -0.056602, -0.024217, -0.017635, -0.000421, -0.021596, -0.026862, 0.008434, 0.029500, 0.002439, -0.000932, 0.010908, 0.009996, -0.023093, 0.021811, 0.022876, -0.029037, 0.023874, 0.017737, -0.010269, -0.005970, 0.022951, -0.019353, -0.012036, 0.005567, -0.006674, 0.009214, 0.038196, 0.005566, 0.025291, 0.055992, 0.015602, 0.030094, -0.033901, 0.000190, 0.003579, 0.021421, -0.026173, 0.017915, -0.000514, -0.028554, 0.005607, -0.022487, -0.023798, 0.026346, 0.000043, -0.001714, 0.023948, 0.030873, -0.034606, -0.045623, 0.009975, 0.021225, 0.063833, 0.002486, 0.017266, -0.055530, -0.016665, 0.016531, -0.042701, -0.039766, -0.032017, -0.085593, -0.031451, -0.019712, 0.011844, 0.040193, -0.017908, -0.011184, -0.022094, -0.008186, -0.010305, -0.019937, 0.029334, 0.014208, -0.003721, -0.004573, -0.012419, -0.014168, 0.031392, 0.026369, 0.032359, 0.026511, -0.001983, 0.025855, 0.061143, 0.056132, -0.018852, 0.025823, 0.018658, -0.009234, -0.026777, -0.017765, 0.002952, -0.006731, -0.001803, 0.027236, -0.006510, -0.000596, 0.013793, -0.009982, 0.037538, 0.011673, 0.026839, -0.036115, 0.043261, 0.038814, 0.030630, 0.021472, -0.030519, -0.004253, -0.004696, 0.030625, 0.023484, 0.060653, 0.045984, -0.017199, -0.004532, 0.010779, -0.026092, -0.035839, 0.023560, 0.022565, 0.017614, -0.002274, -0.029915, -0.015778, 0.008953, 0.004434, 0.013917, 0.027194, 0.019245, 0.068482, 0.099153, 0.100384, 0.037958, -0.033370, 0.004913, 0.030881, 0.035915, 0.072484, 0.011205, -0.021727, 0.023771, 0.016152, 0.041559, 0.062527, 0.036549, -0.018943, 0.070955, 0.020866, 0.001832, -0.022655, 0.034179, 0.004636, -0.021919, 0.006654, 0.039157, 0.037376, 0.072384, 0.053557, 0.058205, 0.050839, 0.017333, 0.025515, -0.051978, -0.017070, 0.002753, -0.013313, -0.023687, 0.071684, 0.006280, 0.058365, 0.060345, 0.052712, 0.052269, 0.063051, 0.060537, 0.013546, -0.002138, 0.034372, -0.014237, -0.005372, -0.008939, 0.028187, 0.046290, 0.046242, 0.057234, 0.039940, 0.031407, 0.044900, 0.056181, -0.035102, -0.050695, -0.073741, -0.046905, -0.050612, -0.012863, -0.013360, 0.001779, 0.015203, 0.048980, 0.043957, 0.041063, 0.058893, 0.005351, -0.015387, 0.014588, 0.034620, 0.022262, -0.031639, -0.025878, 0.015865, 0.050892, 0.013161, 0.003851, 0.047357, 0.024528, 0.080248, 0.012487, -0.012421, -0.025890, -0.044967, -0.007730, -0.002572, -0.000062, 0.060764, 0.034172, 0.023631, 0.063506, 0.029697, 0.040319, 0.011838, -0.016634, 0.030059, 0.004212, -0.007522, 0.003543, -0.012678, 0.023660, 0.004276, -0.003951, 0.007056, 0.053961, -0.008199, 0.014806, -0.011296, 0.010048, 0.072892, 0.061560, 0.057708, 0.051048, 0.015176, 0.046010, 0.027920, 0.062181, -0.040968, 0.000970, 0.042216, -0.018120, -0.017780, -0.034835, 0.035362, -0.011501, 0.014228, -0.007935, -0.028237, -0.003675, -0.024064, 0.043276, 0.051091, 0.055196, 0.060131, -0.019003, 0.006480, 0.041252, 0.097112, 0.118310, 0.089797, 0.075335, 0.040340, 0.050226, 0.088992, 0.046852, -0.022075, -0.000472, 0.012335, -0.030353, -0.058593, -0.036207, -0.042052, 0.007344, 0.002187, -0.000074, 0.002005, -0.017823, -0.002440, -0.024337, -0.004432, -0.004655, -0.017784, 0.021206, 0.011597, 0.049957, 0.019989, 0.088841, 0.075796, 0.065171, 0.048763, 0.051554, 0.091629, 0.044350, 0.016956, -0.013898, 0.029891, -0.011415, -0.067508, -0.031316, -0.043002, -0.032338, 0.021801, -0.034658, 0.021853, 0.031248, 0.026683, -0.011339, -0.007417, -0.065045, -0.003620, -0.021797, 0.049473, 0.049773, 0.034445, 0.098820, 0.066201, 0.051761, 0.061272, 0.052882, 0.102413, 0.030678, 0.040026, 0.017502, 0.051186, 0.058664, -0.023232, -0.063614, -0.044819, 0.010321, 0.033750, 0.019291, -0.009555, 0.026644, -0.024332, -0.054850, -0.066446, -0.062445, -0.020292, -0.023994, -0.002358, 0.019317, 0.024470, 0.114252, 0.102615, 0.013637, 0.008655, 0.029309, 0.085552, 0.024469, 0.028075, -0.002040, -0.003141, 0.036557, 0.015657, -0.042869, -0.036962, -0.027351, 0.034038, 0.005018, -0.021237, -0.021585, 0.008758, -0.021527, -0.066858, -0.073101, -0.107649, -0.074817, -0.079521, -0.143636, -0.062104, -0.034764, 0.023487, -0.043296, -0.030707, 0.014919, 0.043177, 0.007529, -0.001287, -0.029245, 0.008524, -0.029510, -0.011708, -0.011412, -0.016988, 0.021095, 0.004534, -0.011961, -0.022585, -0.014887, 0.000017, -0.012207, -0.031509, -0.093766, -0.124573, -0.142716, -0.113146, -0.117710, -0.158027, -0.149577, -0.087493, -0.087630, -0.032128, -0.025960, -0.027278, -0.033940, -0.027607, 0.035171, -0.009597, -0.025999, -0.087755, -0.062869, -0.054723, -0.030282, 0.003175, -0.009952, -0.014888, 0.013115, 0.021462, -0.019633, -0.010441, -0.042278, -0.114908, -0.144562, -0.099476, -0.120721, -0.185782, -0.212374, -0.146221, -0.091331, -0.106833, -0.076658, -0.020949, 0.017131, 0.036677, 0.003699, 0.001792, -0.024797, -0.038401, -0.036395, -0.026927, 0.018675, 0.011629, -0.025698, -0.010521, -0.013288, -0.001198, 0.045562, 0.002190, -0.036009, -0.089322, -0.022359, -0.041106, -0.026263, -0.084582, -0.076106, -0.066353, -0.013432, -0.035195, -0.026557, -0.035101, -0.032651, -0.001556, 0.021975, -0.017514, 0.009245, -0.025683, -0.031675, -0.027483, -0.032966, 0.024702, 0.013737, 0.006058, -0.029682, -0.003343, 0.009829, 0.027951, -0.020653, -0.051027, -0.047307, -0.022435, -0.029832, -0.043160, -0.051612, -0.034449, -0.088561, -0.021631, -0.032395, -0.044072, -0.042566, 0.009245, 0.002425, -0.049736, -0.044902, -0.067968, -0.051188, -0.013663, 0.030669, 0.010846, 0.019292, -0.001962, 0.011713, 0.003459, -0.010595, 0.014309, -0.039544, -0.002119, -0.011626, 0.001005, -0.035025, 0.009376, -0.014308, 0.001437, -0.004680, 0.009072, -0.027392, -0.048287, -0.050398, -0.054177, -0.069977, -0.060907, -0.050584, -0.058147, -0.051452, 0.005253, 0.019412, -0.031578, 0.025576, -0.026867, 0.020579, 0.013696, 0.012181, -0.001845, -0.014122, -0.001695, 0.035575, 0.035973, 0.057943, 0.081323, 0.015024, 0.035849, 0.000821, 0.010054, -0.024479, -0.081811, -0.061058, -0.055346, -0.045212, -0.059585, -0.054392, -0.046236, -0.020942, 0.006981, -0.009648, 0.010075, -0.033085, -0.021617, -0.006793, -0.015625, 0.038678, 0.020252, 0.042863, 0.090715, 0.033674, 0.050694, 0.082331, 0.078574, 0.004103, 0.028857, -0.009452, -0.008799, 0.034095, -0.061998, -0.045217, 0.014408, 0.030861, -0.023844, -0.007290, 0.015824, 0.020212, -0.012152, -0.020332, 0.004164, -0.025833, 0.003709, -0.034559, 0.005196, -0.010523, 0.012044, 0.020744, 0.070251, 0.027888, 0.092884, 0.055191, 0.099545, 0.038443, 0.038509, 0.036473, 0.022243, -0.001340, 0.030294, 0.043244, 0.012863, 0.035266, 0.030933, 0.022664, 0.018729, -0.011801, -0.000533, -0.014391, -0.028571, -0.029628, 0.004235, 0.029715, 0.002596, -0.003569, 0.003481, 0.008179, 0.019989, 0.035237, 0.043760, -0.003354, 0.005222, 0.005033, 0.027644, 0.010645, 0.039812, 0.002046, -0.017488, 0.041124, 0.039692, -0.016434, 0.043842, -0.006560, -0.015973, -0.028385, 0.009731, -0.011374, 0.006548, -0.007307, 0.003651, -0.001903, 0.006451, 0.022834, -0.011284, 0.007590, -0.000413, -0.019072, 0.028391, 0.033423, -0.000474, 0.026233, 0.016928, -0.028214, -0.004683, -0.012274, 0.035319, 0.014517, 0.006856, 0.000936, 0.024083, -0.009335, 0.021112, 0.026775, 0.030536, 0.011324, -0.024251},
{-0.026752, 0.016134, -0.032000, 0.002930, 0.034070, 0.030746, -0.016095, -0.034258, 0.013547, 0.029796, -0.008273, -0.010545, 0.031088, 0.016773, -0.000156, -0.005776, -0.032167, -0.022895, 0.005634, 0.012545, -0.001450, -0.015190, -0.000482, -0.033057, -0.024617, -0.024714, 0.026645, -0.017550, -0.028364, -0.002757, -0.011452, -0.030669, 0.001234, -0.027468, 0.005674, -0.028968, -0.025416, 0.018959, 0.030949, -0.026702, 0.005572, 0.006742, -0.031412, -0.003209, 0.017625, 0.024452, -0.010429, 0.002402, 0.020171, -0.008164, -0.008238, 0.002470, 0.024959, 0.031578, -0.004171, 0.015796, 0.018805, 0.034944, 0.028965, 0.003140, 0.005413, 0.032965, 0.028345, -0.014839, -0.043150, -0.010398, -0.019145, 0.005445, -0.050167, -0.030962, -0.026620, 0.023999, -0.003407, 0.022002, 0.018870, -0.026590, 0.018963, -0.015462, -0.024746, -0.018466, 0.022496, -0.007405, 0.010691, 0.005123, 0.004190, -0.018565, -0.018674, -0.010224, -0.033126, 0.015540, -0.016509, 0.020473, -0.051961, -0.010981, -0.055339, -0.030462, -0.068376, -0.026714, -0.041797, -0.004594, 0.016016, -0.025909, -0.006404, -0.044391, 0.005056, 0.007569, -0.001232, 0.014807, -0.014469, -0.015422, 0.027696, 0.017254, -0.009798, 0.002355, -0.007052, 0.006384, 0.019574, 0.003004, -0.039701, 0.000579, -0.056195, -0.006112, -0.003765, -0.023278, -0.030160, -0.003242, -0.023744, 0.012783, 0.053587, 0.069623, 0.033146, 0.044761, 0.009569, -0.000648, 0.044475, -0.000017, 0.009615, -0.015394, -0.037176, 0.000775, -0.028971, 0.028751, -0.008837, -0.035689, -0.003254, -0.021962, -0.032844, 0.013453, 0.015313, -0.012456, -0.032454, -0.043753, -0.001127, -0.037797, -0.086297, -0.080023, 0.021745, 0.043745, 0.053763, 0.051728, 0.056596, 0.026739, 0.080367, 0.030899, -0.010948, 0.032413, 0.013744, 0.006039, -0.018620, 0.011749, 0.024139, 0.014943, -0.006114, -0.017632, 0.040452, -0.024065, 0.025182, -0.005644, -0.028229, -0.041855, -0.075618, -0.077576, -0.186494, -0.126222, -0.100821, -0.005505, 0.064382, 0.064824, 0.083356, 0.070740, 0.042625, 0.032728, 0.011398, -0.005103, -0.003983, 0.002012, 0.026186, -0.011826, -0.006183, -0.020067, -0.023931, -0.021291, 0.033421, -0.028254, 0.008472, -0.028100, 0.015877, -0.037033, -0.077155, -0.093637, -0.174501, -0.169746, -0.064889, -0.009038, 0.045895, 0.044011, 0.049655, 0.056720, 0.070424, 0.011279, -0.022891, -0.020907, -0.015596, -0.023918, 0.015656, -0.008678, 0.022997, -0.000952, 0.017173, -0.003553, -0.009581, -0.002032, -0.035862, -0.039775, -0.022536, -0.044512, -0.011455, -0.091572, -0.181831, -0.188204, -0.032493, 0.039154, 0.032438, 0.008884, -0.022927, -0.015822, -0.013089, -0.025354, -0.031607, 0.003674, 0.007726, 0.035338, -0.012349, -0.019930, -0.002777, -0.018364, 0.014028, 0.022382, -0.037450, -0.039233, 0.000941, 0.010933, -0.001303, -0.039963, -0.050610, -0.130389, -0.191599, -0.162780, 0.027833, 0.059963, 0.002077, 0.013122, 0.026760, -0.011107, 0.029728, -0.065616, -0.046015, -0.036097, -0.008032, -0.023608, -0.020994, -0.007757, 0.010613, 0.020553, 0.013164, -0.011233, -0.031699, -0.054808, -0.025474, 0.020382, -0.031168, -0.027383, -0.053546, -0.113633, -0.180954, -0.047265, 0.015088, 0.110264, 0.018473, 0.007380, -0.002606, -0.025454, -0.051631, -0.083786, -0.058013, -0.051225, -0.029466, -0.017752, 0.013120, -0.006409, -0.000323, 0.027214, -0.017916, -0.027457, -0.094241, -0.016032, -0.022234, -0.035929, 0.033464, 0.017057, 0.011573, -0.097130, -0.136951, -0.016736, 0.035537, 0.021700, -0.016020, 0.010521, -0.020861, -0.035132, -0.015366, -0.084668, -0.032459, -0.012780, -0.029664, -0.019256, -0.015385, -0.006181, -0.031323, 0.011331, -0.016399, -0.034095, -0.021740, -0.025517, -0.024097, 0.020436, 0.030652, 0.101641, 0.048309, -0.049821, -0.107684, -0.043186, 0.033289, -0.010575, 0.000366, -0.049118, -0.042073, -0.067055, -0.014227, -0.063156, -0.040690, -0.024286, 0.023659, 0.008667, 0.035541, -0.006543, 0.018653, 0.017954, -0.025068, -0.008301, 0.024237, -0.005155, 0.029076, -0.007995, 0.097918, 0.136209, 0.045486, -0.066884, -0.082425, -0.015924, -0.042587, 0.043190, 0.014684, -0.033290, -0.023999, 0.025338, -0.017281, -0.049949, 0.002699, -0.001617, 0.026495, -0.021175, -0.004664, -0.032119, 0.020286, -0.016242, 0.027683, 0.031071, 0.049575, 0.030150, 0.044470, 0.066148, 0.083035, 0.116147, 0.065190, -0.027924, -0.011490, -0.003271, -0.014621, 0.052378, 0.004956, 0.026202, 0.015663, -0.000502, 0.026621, -0.003317, -0.007910, 0.014449, 0.011566, -0.025350, 0.012116, 0.027204, -0.032132, -0.018539, 0.033105, 0.084673, 0.050072, 0.051057, 0.082421, 0.020948, 0.039709, 0.038292, 0.014312, 0.053020, 0.037490, 0.009627, 0.072156, 0.056654, 0.068458, 0.038049, 0.011515, 0.041302, 0.025552, -0.008752, 0.013497, 0.021747, -0.001350, -0.009340, 0.025991, 0.018408, 0.015226, 0.018315, 0.009342, 0.036578, 0.069327, 0.043055, 0.044917, 0.061187, -0.021124, -0.004776, 0.028281, 0.019487, 0.056892, 0.064313, 0.108600, 0.128398, 0.098398, 0.102599, 0.047720, 0.099033, 0.029350, 0.059931, 0.033876, 0.002905, 0.032973, -0.030720, 0.025215, 0.025481, -0.004648, -0.012169, 0.036057, 0.082636, 0.047663, 0.092649, 0.075947, 0.033381, -0.019127, -0.066750, -0.011525, 0.038208, 0.079143, 0.083712, 0.072038, 0.075150, 0.027007, -0.014690, 0.022866, 0.060835, 0.025121, 0.051098, 0.030419, 0.011058, 0.029310, -0.026283, 0.012587, -0.011486, 0.006566, 0.019922, 0.077833, 0.079144, 0.095787, 0.072498, 0.027177, -0.020473, -0.051899, -0.048849, -0.031201, 0.049463, 0.035019, 0.072673, 0.005312, 0.034593, 0.024917, -0.011905, -0.032524, -0.013946, -0.016259, 0.031807, 0.027178, -0.017002, 0.005662, -0.017723, 0.027175, -0.006637, -0.006828, 0.008309, 0.045343, 0.075304, 0.081836, 0.038111, -0.006064, -0.045787, -0.054637, -0.129097, -0.103129, -0.062031, 0.014372, -0.020876, -0.041501, -0.021579, -0.037662, -0.036437, -0.037998, -0.027996, -0.031867, -0.037360, -0.017122, 0.004194, -0.024782, -0.023156, 0.011332, 0.034531, 0.015038, 0.020383, 0.026812, 0.073093, 0.040051, -0.030558, -0.060629, -0.038993, -0.078775, -0.096575, -0.045904, -0.070907, -0.026101, -0.071623, -0.050595, -0.055994, -0.006469, 0.007423, -0.004822, 0.004297, -0.026600, -0.007215, -0.001599, -0.037624, -0.019431, 0.034984, -0.016267, 0.014988, 0.035701, 0.016600, 0.028339, 0.002450, -0.028230, -0.015891, -0.011749, -0.073145, -0.081629, -0.047755, -0.048548, -0.038665, -0.063884, -0.001967, -0.015323, -0.023091, -0.043682, -0.016491, 0.027028, -0.025474, -0.014653, 0.012548, 0.009286, -0.032076, 0.021879, 0.004976, -0.007651, -0.032096, -0.025835, 0.012906, 0.000692, 0.007335, -0.035165, -0.034084, -0.051737, -0.066991, -0.058444, -0.012601, -0.016724, -0.033549, -0.029209, -0.003817, -0.035995, -0.019680, -0.001605, 0.007774, 0.032165, 0.036341, -0.018820, 0.011346, 0.020421, -0.028603, 0.005782, -0.032409, -0.012714, 0.009938, 0.011468, 0.012214, -0.017089, 0.010053, -0.049381, -0.019277, -0.021050, -0.046561, 0.004824, -0.037535, 0.030294, 0.020082, 0.013869, 0.025268, -0.004889, 0.016208, 0.013289, 0.005635, -0.026226, 0.016701, -0.038982, -0.027875, -0.030209, -0.032627, 0.021366, -0.028131, -0.005021, -0.030156, 0.010986, -0.032279, -0.033633, -0.039171, -0.004754, -0.014547, -0.006289, -0.073279, -0.066298, -0.035937, -0.037872, -0.035296, 0.001931, -0.023961, -0.001392, -0.032575, -0.017802, -0.050399, -0.054643, -0.017191, 0.002172, -0.048564, -0.004566, 0.016983, 0.035083, -0.029901, 0.030639, 0.031746, 0.003441, 0.031246, 0.033206, 0.011528, -0.040146, -0.036839, 0.000866, -0.037328, -0.068906, -0.030409, -0.069477, -0.041775, -0.035982, -0.046681, -0.008355, -0.033610, -0.055347, -0.025969, -0.058016, -0.016289, -0.026046, 0.019397, -0.002804, 0.002181, 0.010536, 0.019210, 0.010725, -0.000268, 0.027305, -0.008850, 0.000900, -0.027522, -0.025786, -0.015586, -0.018190, 0.010988, -0.026040, -0.028261, -0.052523, -0.031351, -0.039817, -0.007408, -0.066106, -0.048151, -0.036257, -0.054146, -0.013744, -0.029808, -0.026641, -0.013083, -0.030141, -0.018790, -0.005574, -0.003405, -0.030164, -0.029552, 0.027139, -0.008913, 0.004064, -0.018393, -0.014124, -0.023131, 0.004526, -0.003043, 0.007700, 0.001510, -0.022049, -0.003127, -0.043261, -0.000903, 0.011008, 0.015239, -0.017644, 0.007549, 0.012031, 0.018917, 0.032588, 0.022721, 0.017976, -0.008088, -0.012028, 0.001649},
{-0.033872, -0.020301, 0.012459, -0.018100, 0.022325, -0.034792, 0.021986, -0.004896, 0.013415, -0.016672, -0.021316, -0.001940, -0.024531, 0.002147, 0.030216, 0.006387, -0.030680, -0.006954, -0.020587, 0.019201, 0.031283, 0.027522, 0.010529, 0.004119, 0.023812, 0.008458, 0.016807, -0.015179, 0.012673, 0.004195, -0.033451, -0.027159, 0.028432, -0.011851, 0.010572, -0.002729, -0.010337, 0.026209, 0.017845, -0.003148, -0.015634, -0.013010, -0.034332, 0.022375, -0.027937, -0.027198, 0.035291, 0.022356, -0.000784, 0.020889, -0.033966, 0.001620, 0.018441, -0.018419, -0.020597, -0.028869, -0.023000, -0.005761, 0.018849, -0.001535, 0.031637, 0.007889, 0.011034, -0.017413, -0.034117, 0.001501, 0.005757, -0.017901, 0.010104, -0.040519, 0.024415, 0.020678, -0.026930, 0.026499, 0.007642, 0.009885, -0.004530, 0.014103, -0.008410, -0.001562, 0.033387, -0.030919, 0.012699, -0.004338, -0.011945, 0.001363, 0.019609, 0.017197, 0.031681, -0.031108, -0.031979, -0.012293, 0.029715, 0.021116, -0.037941, -0.028660, -0.016852, -0.019902, -0.069162, -0.010526, -0.046258, -0.017340, -0.022794, 0.004626, -0.016537, -0.020983, -0.028813, -0.022173, -0.012689, 0.008355, -0.031566, -0.024331, -0.016807, -0.016424, -0.004317, 0.032356, 0.021550, -0.001759, -0.026243, 0.001751, -0.021327, -0.001389, -0.030096, -0.060664, -0.038298, -0.082133, -0.091099, -0.109176, -0.038025, -0.040468, -0.037890, -0.014066, -0.032224, 0.025385, 0.011182, 0.002834, 0.016547, -0.019140, -0.033567, -0.023099, -0.023509, -0.035232, -0.026147, -0.021291, -0.016479, 0.006519, -0.051428, -0.034183, -0.051224, -0.055348, -0.084188, -0.060290, -0.099618, -0.165270, -0.217872, -0.209560, -0.229105, -0.143092, -0.115404, -0.107118, -0.045528, -0.061717, -0.029557, -0.039018, -0.035325, 0.005346, 0.034927, -0.018277, 0.034206, 0.034231, 0.024151, 0.014792, 0.004228, -0.028552, -0.007097, -0.029453, -0.041058, -0.062615, -0.072965, -0.054477, -0.052379, -0.035015, -0.041326, -0.026101, 0.030644, -0.018882, 0.027067, -0.069110, -0.073514, -0.017644, -0.054733, -0.060877, -0.036119, -0.028078, -0.026495, 0.019936, 0.016685, 0.017679, 0.020300, -0.001885, -0.004259, -0.015469, 0.008668, -0.032076, -0.029841, 0.044845, 0.014409, 0.041415, 0.087404, 0.100905, 0.137455, 0.149451, 0.114147, 0.096269, 0.031213, 0.033207, 0.014204, -0.042264, -0.068940, -0.075985, -0.028260, -0.031792, 0.009965, 0.002447, 0.026440, 0.020835, 0.022954, 0.027494, -0.033458, -0.023015, -0.014261, 0.040946, 0.092160, 0.044384, 0.038818, 0.102357, 0.043399, 0.018520, 0.120958, 0.072772, 0.089517, 0.045263, 0.059708, -0.046115, -0.034885, -0.018795, -0.053190, -0.025593, -0.046064, -0.060519, -0.011868, -0.027551, 0.031368, 0.030662, 0.006946, 0.037814, -0.007848, 0.041325, 0.010075, 0.017326, 0.018352, 0.056270, 0.041921, 0.081747, 0.075095, 0.054966, 0.074990, 0.074677, 0.047885, 0.036446, 0.048119, 0.009055, 0.035172, -0.042761, -0.034179, -0.051387, -0.010959, -0.024362, -0.027752, -0.023544, -0.027599, 0.009566, -0.015921, 0.000584, 0.026549, 0.027248, 0.023837, -0.009888, 0.029064, 0.053721, 0.012305, 0.032872, 0.098714, 0.073827, 0.065949, 0.030435, 0.033140, 0.040859, 0.056147, 0.070224, 0.054149, 0.052955, -0.026106, -0.034092, -0.054978, -0.017047, -0.017995, -0.016839, 0.004357, -0.007643, -0.007235, 0.006106, 0.057818, 0.083436, 0.006049, 0.002681, 0.042513, -0.016643, 0.011862, 0.099946, 0.082539, 0.078129, 0.048673, 0.090653, 0.036618, 0.090835, 0.060006, 0.072709, 0.117219, 0.092142, 0.045506, -0.051291, -0.059565, -0.048124, -0.029742, -0.028647, -0.000291, -0.006509, 0.041232, 0.058187, 0.102290, 0.059068, 0.036708, 0.015404, 0.026867, -0.007037, 0.000745, -0.019606, -0.088007, -0.100364, 0.035377, 0.066730, 0.053034, 0.045457, 0.078705, 0.096266, 0.095250, 0.045775, 0.039202, -0.025824, -0.045924, 0.002340, -0.018190, -0.003521, 0.017012, -0.016170, -0.010044, 0.021091, 0.077628, 0.026676, 0.031402, 0.037546, -0.022749, -0.010120, -0.003845, -0.087066, -0.163085, -0.073294, 0.021630, 0.061033, 0.042595, 0.017564, 0.036278, 0.024162, 0.066224, 0.032786, -0.014986, -0.045118, -0.075852, 0.003578, -0.007477, 0.000504, -0.034208, -0.003127, 0.014405, 0.052005, 0.018366, 0.015393, 0.019444, -0.016200, -0.024128, -0.033149, -0.059237, -0.063902, -0.119960, -0.055203, 0.005729, 0.010135, 0.020639, -0.008307, 0.044109, 0.041261, 0.069206, 0.012525, -0.028450, -0.079145, -0.010700, -0.005888, 0.000715, 0.020203, -0.021639, -0.020732, -0.005738, 0.022923, -0.001211, -0.000167, 0.004577, 0.015746, -0.018548, -0.054787, -0.065474, -0.030101, -0.125975, -0.099046, -0.032686, 0.021814, -0.019077, 0.047780, -0.001256, 0.027214, 0.028202, -0.001215, -0.021082, -0.046540, -0.075534, 0.008721, -0.001272, -0.014069, -0.007629, 0.026068, -0.026432, -0.023958, 0.026834, -0.040994, -0.062321, -0.005310, 0.023060, -0.076433, -0.033731, -0.042438, -0.051959, -0.089086, -0.093921, -0.028626, 0.002350, 0.015358, -0.016063, -0.023098, -0.033657, -0.045169, -0.061090, -0.045531, -0.038315, -0.054922, -0.020305, -0.017717, 0.007916, -0.033400, -0.017716, 0.011367, -0.022022, -0.022903, -0.038408, 0.008731, 0.029111, 0.021223, 0.009877, -0.021278, 0.002125, -0.024550, -0.026840, 0.025293, -0.000060, 0.008886, -0.015081, -0.021246, -0.038991, -0.059318, -0.078732, -0.099061, -0.070270, -0.017738, -0.016661, -0.007188, -0.031207, 0.005913, -0.019790, -0.014658, -0.038321, -0.092955, -0.099572, -0.043823, -0.067185, -0.012543, 0.007933, -0.012287, -0.032850, 0.006707, 0.001118, -0.027002, -0.075343, -0.028241, -0.005671, -0.017922, -0.044858, -0.080780, -0.111650, -0.107201, -0.075053, -0.051402, -0.017423, -0.004952, -0.017152, -0.020019, 0.001066, -0.021380, -0.056781, -0.061043, -0.123166, -0.090012, -0.098098, -0.102629, -0.113121, -0.072413, -0.031097, -0.067472, 0.009748, -0.029993, -0.066042, -0.025895, -0.015004, -0.014900, -0.066670, -0.145349, -0.094393, -0.081907, -0.020590, 0.020143, 0.003143, 0.035286, -0.022083, 0.012979, -0.026075, 0.001769, -0.031397, -0.065220, -0.093620, -0.106006, -0.092495, -0.126079, -0.119508, -0.120212, -0.064956, -0.014199, -0.024084, -0.072024, -0.061757, -0.068483, -0.110157, -0.097199, -0.090800, -0.143693, -0.105600, -0.094883, 0.008380, 0.017640, 0.017498, -0.032064, -0.014058, -0.001558, -0.030415, -0.006214, -0.012734, -0.060291, -0.092278, -0.142045, -0.066908, -0.099432, -0.050471, -0.044484, -0.056035, -0.059610, -0.086823, -0.075325, -0.059323, -0.078816, -0.104735, -0.079894, -0.050429, -0.060381, -0.041451, -0.017591, 0.027532, 0.008575, -0.006762, 0.033000, -0.020528, 0.032746, -0.029562, -0.034016, -0.028744, -0.036950, -0.031995, -0.075380, -0.030068, -0.045968, -0.039664, -0.053547, -0.040478, -0.059764, -0.032616, -0.092273, -0.049909, -0.077899, -0.075136, -0.115876, -0.047110, 0.002342, 0.020540, 0.015388, -0.016593, 0.011064, 0.021746, 0.010103, 0.004633, 0.012650, -0.005080, 0.018830, 0.020869, 0.008090, -0.013674, -0.005905, -0.029013, -0.067921, -0.054594, -0.066509, -0.098650, -0.061969, -0.074270, -0.071651, -0.047848, -0.071249, -0.075948, -0.055169, -0.049927, -0.007115, 0.062571, 0.020942, -0.020764, -0.019074, -0.002708, 0.003032, -0.019130, 0.014140, -0.022841, -0.005284, -0.000145, 0.047013, 0.042791, 0.033354, 0.038030, -0.031570, -0.073330, -0.047757, -0.036032, -0.099822, -0.114678, -0.096608, -0.073881, -0.047635, -0.009166, -0.005612, 0.048870, 0.034919, 0.003701, 0.014319, 0.015408, 0.018064, 0.007707, -0.004701, 0.034537, -0.031512, -0.007781, 0.016494, -0.009755, 0.077513, 0.021894, 0.074247, 0.098025, 0.055336, 0.023637, 0.042187, 0.064702, 0.019271, 0.023560, 0.044863, 0.071690, 0.069215, 0.063471, 0.060002, 0.064383, 0.044372, 0.035877, -0.000888, 0.019705, -0.035384, 0.007598, -0.028739, 0.033866, 0.015088, 0.021968, 0.015041, -0.013340, -0.023948, -0.010265, 0.042025, 0.037179, 0.087052, 0.086520, 0.080567, 0.073061, 0.119405, 0.159992, 0.115178, 0.078691, 0.101693, 0.045181, 0.074957, 0.049942, 0.049191, 0.046194, -0.028534, -0.030585, 0.013695, 0.034438, 0.025498, 0.008462, 0.024069, -0.016319, 0.011870, -0.033995, 0.003279, 0.027549, -0.029132, -0.017118, 0.030411, 0.021396, -0.028434, -0.022422, 0.043622, 0.047123, 0.010647, -0.018649, 0.031234, 0.018003, -0.020030, -0.014527, 0.023740, 0.024550, 0.003481, 0.029490, 0.020031, 0.017444, -0.027816},
{0.013329, -0.002010, 0.014437, -0.016666, -0.004913, 0.000581, 0.028052, -0.013333, -0.018903, 0.013631, -0.011929, -0.013345, 0.002385, 0.024203, -0.000130, -0.016620, -0.014652, 0.030871, -0.015580, -0.016275, 0.021290, 0.001182, 0.028332, 0.019460, 0.003722, -0.031375, 0.018777, 0.027899, 0.030620, -0.029579, 0.029335, -0.033881, 0.012044, 0.017171, -0.020908, 0.034562, -0.010576, 0.005186, 0.010595, 0.031774, -0.020189, 0.041271, 0.004840, 0.036004, 0.033849, 0.031644, -0.018675, -0.010915, -0.023557, 0.024205, 0.012657, -0.003921, 0.022383, -0.030493, -0.008152, -0.009810, 0.025833, -0.027390, -0.019346, -0.029687, -0.013573, 0.017075, 0.025785, -0.012364, 0.052760, 0.023925, 0.027182, 0.071988, 0.059115, 0.075865, 0.031346, 0.049904, 0.076920, 0.042222, 0.027203, 0.056377, 0.058135, 0.019983, 0.034229, -0.011281, 0.032544, -0.014354, -0.012879, 0.023141, 0.029722, 0.022327, -0.034121, -0.017742, -0.031923, -0.013253, -0.024498, 0.046037, 0.011582, 0.042089, 0.014269, 0.057622, 0.036089, 0.028379, 0.021012, 0.036581, 0.044838, 0.067752, 0.071421, 0.035000, 0.073263, 0.052665, 0.054277, 0.063298, 0.026847, -0.020511, 0.003837, 0.026755, -0.020615, -0.001092, 0.026030, 0.021906, -0.036107, -0.020012, 0.008693, 0.000740, 0.009209, 0.028804, 0.001278, -0.012326, 0.005215, -0.008622, -0.041868, -0.061559, -0.008645, 0.041320, -0.004021, 0.057879, 0.043499, 0.055390, 0.055441, -0.010275, 0.023282, 0.019816, 0.006679, -0.016044, -0.033969, -0.009511, -0.035001, 0.010962, -0.010482, -0.049932, -0.010137, -0.020305, -0.027300, -0.034488, -0.023922, -0.031400, -0.061269, -0.068287, -0.036153, -0.114601, -0.000315, 0.028696, 0.002381, 0.047072, 0.060046, 0.018143, 0.013767, 0.006921, -0.013750, 0.024589, 0.041658, 0.001337, 0.025733, -0.029511, 0.010467, -0.024201, -0.004299, -0.045891, -0.072501, -0.049774, 0.005844, -0.017073, -0.063051, -0.045994, 0.003917, -0.060675, -0.075097, -0.063847, -0.088966, -0.060693, -0.042913, -0.023507, -0.042866, -0.060170, -0.051135, 0.028697, 0.056641, 0.061190, -0.014981, 0.030273, 0.031466, 0.018777, 0.009515, -0.007058, -0.058325, -0.047381, -0.079683, -0.000948, 0.037830, -0.004713, -0.004126, -0.007698, -0.043274, -0.083580, -0.103364, -0.065663, -0.041606, -0.065841, -0.099215, -0.066933, -0.112436, -0.117192, -0.049385, -0.019156, 0.071413, 0.054251, 0.014602, -0.002754, -0.027342, -0.006172, -0.032685, -0.017301, -0.015787, -0.024819, -0.082880, -0.036269, -0.003579, 0.026776, 0.014973, -0.004916, -0.028270, -0.027011, -0.093376, -0.092256, -0.063773, -0.095177, -0.080732, -0.071932, -0.077360, -0.052996, -0.070225, 0.001155, 0.076238, 0.098432, 0.032872, 0.026648, -0.028542, 0.010103, 0.006651, -0.049973, -0.022748, -0.070345, -0.038428, -0.002428, 0.063779, 0.041401, -0.005072, -0.021097, -0.025758, -0.108597, -0.114353, -0.144190, -0.109215, -0.058684, -0.071062, -0.022897, -0.061541, -0.009987, -0.005181, 0.048239, 0.142594, 0.093082, -0.005922, -0.033130, -0.000946, 0.031154, -0.022413, -0.026592, -0.040926, -0.096911, -0.007862, -0.010532, 0.027122, 0.014675, 0.076574, -0.009751, 0.029165, -0.030638, -0.050743, -0.119568, -0.062263, -0.086075, -0.070803, -0.086847, -0.037475, 0.014917, 0.002951, 0.069956, 0.119398, 0.079273, 0.015490, -0.033099, -0.034677, -0.009542, -0.005331, -0.000215, -0.023699, -0.060775, -0.043446, -0.007014, -0.024821, 0.008834, 0.017025, -0.012758, 0.049589, 0.052571, -0.036441, -0.092060, -0.062101, -0.029270, -0.036744, -0.025200, -0.038154, -0.030494, 0.021430, 0.094357, 0.064371, 0.022756, 0.030498, -0.028270, -0.033675, -0.026557, -0.027392, -0.050622, -0.049972, -0.040166, 0.022763, 0.006826, -0.008815, -0.028840, 0.015975, 0.043183, 0.104584, 0.109239, 0.021492, -0.047191, -0.044067, 0.008785, -0.030302, -0.045333, 0.020250, -0.012022, -0.008887, 0.068036, 0.065104, -0.002998, -0.023877, -0.007144, 0.004195, 0.028617, 0.001898, -0.004205, -0.071034, -0.049628, -0.057550, 0.005591, 0.002568, 0.051832, 0.027190, 0.022357, 0.080812, 0.044392, 0.036503, 0.035612, 0.035290, -0.034959, -0.007287, 0.009382, -0.020060, 0.001661, 0.049006, 0.045708, 0.013378, -0.040474, -0.024749, -0.003780, -0.030787, -0.023468, 0.017309, 0.016729, -0.038360, -0.062929, -0.065678, -0.059905, -0.015913, 0.004506, -0.024031, -0.020319, -0.059006, 0.072345, 0.091584, 0.034322, 0.030480, 0.008454, -0.063800, -0.036124, 0.016678, 0.006658, -0.025032, 0.026180, -0.009033, -0.010350, -0.038030, -0.033555, 0.003753, -0.012597, -0.014947, 0.010922, -0.019896, -0.092894, -0.047399, -0.036505, -0.065876, -0.051944, -0.062108, -0.020880, 0.023171, 0.087908, 0.069825, 0.036378, -0.012249, -0.031774, -0.016227, -0.064390, 0.013069, 0.028297, -0.006451, 0.014854, -0.025364, 0.010636, 0.012280, 0.012384, 0.018803, -0.004423, -0.024336, -0.006304, -0.049261, -0.070282, -0.074365, -0.047605, -0.081849, -0.064902, -0.040899, 0.025357, 0.061475, 0.089870, 0.039211, 0.016128, -0.027157, -0.009913, -0.021509, -0.006448, -0.023608, -0.004554, 0.020550, 0.004633, 0.011322, -0.044577, -0.037563, -0.018309, -0.023166, -0.004968, -0.002704, -0.035771, 0.002989, 0.003224, -0.012034, -0.004438, -0.031404, -0.053812, 0.020002, 0.021955, 0.049993, 0.017119, -0.008163, -0.030864, -0.029704, -0.035558, 0.044844, -0.007087, -0.000182, -0.001429, -0.046274, -0.029208, -0.030592, -0.057220, -0.003438, 0.008305, -0.016250, 0.017219, 0.025783, -0.006322, -0.014747, -0.040290, 0.066393, 0.026313, 0.015321, 0.062372, 0.081902, 0.048971, 0.033656, -0.030223, -0.038778, -0.013796, -0.003210, 0.057613, 0.018947, -0.052500, -0.028431, -0.030373, -0.009125, -0.023098, -0.013193, -0.051302, -0.040227, -0.030026, 0.005904, -0.035830, 0.026555, -0.031761, -0.036919, -0.017886, 0.023285, 0.031941, 0.090778, 0.093975, 0.146266, 0.135363, 0.100149, 0.010918, 0.023709, 0.104168, 0.062799, 0.048717, 0.024293, -0.000004, -0.035080, -0.005308, -0.029281, -0.041570, -0.046412, -0.022316, -0.034429, 0.033337, 0.004686, 0.005430, -0.020033, -0.017271, -0.023054, -0.025594, -0.018482, 0.067589, 0.065039, 0.098586, 0.123131, 0.140192, 0.097155, 0.093419, 0.053893, 0.119313, 0.047471, 0.078881, 0.069140, -0.016377, -0.022414, -0.003081, -0.013821, -0.018835, -0.040678, -0.026813, -0.009992, -0.007940, -0.028642, 0.020366, 0.018464, 0.028870, 0.015079, -0.039294, -0.030034, -0.019964, 0.023020, 0.030766, 0.072055, 0.100623, 0.102520, 0.086141, 0.099977, 0.094288, 0.047939, 0.076965, 0.063121, 0.013328, -0.039885, -0.057606, 0.007103, -0.045792, -0.014927, -0.010416, 0.022312, 0.020637, 0.028876, -0.025672, -0.026913, 0.034526, 0.024976, -0.001906, -0.066368, -0.020489, -0.005272, -0.024083, -0.000025, 0.000663, 0.049618, 0.009274, 0.024890, 0.030430, -0.018476, -0.003084, -0.067155, -0.074153, -0.082137, -0.064487, -0.038226, 0.004780, -0.019365, 0.025746, 0.013133, 0.013637, -0.008382, -0.011659, -0.032902, -0.010572, 0.010228, -0.014313, -0.031554, -0.052897, -0.035220, 0.000382, 0.006779, 0.004749, 0.032207, 0.077992, 0.013952, 0.038719, 0.027214, -0.031833, -0.028073, -0.077125, -0.072503, -0.044251, -0.031256, -0.008394, -0.009780, 0.029152, -0.000915, 0.022446, 0.026368, 0.014655, -0.028628, -0.031797, -0.026016, -0.034989, -0.054838, -0.056894, 0.003282, 0.063119, 0.032270, 0.027834, 0.134417, 0.093997, 0.042345, 0.038902, 0.037563, -0.036387, 0.017487, -0.052211, -0.012936, 0.021802, -0.032536, -0.038061, -0.015028, 0.017707, -0.011217, 0.027509, 0.017198, -0.025558, -0.001827, 0.030661, -0.022297, -0.041443, -0.030931, -0.076236, -0.049209, -0.031386, 0.035475, 0.034282, -0.004844, -0.028911, 0.007885, -0.025835, -0.022662, -0.042496, -0.022766, 0.009864, -0.000416, -0.031954, -0.033680, -0.011264, -0.008166, 0.010129, -0.021752, -0.034505, -0.013477, 0.016747, 0.010530, -0.004530, -0.012174, 0.012531, -0.011803, -0.032756, -0.008660, 0.012186, -0.040455, -0.038372, -0.011872, -0.035063, -0.059896, 0.004677, 0.018720, -0.006833, 0.018973, -0.031875, 0.024698, -0.034867, -0.013715, -0.031364, 0.021282, 0.007077, -0.021679, -0.030063, -0.013120, 0.000774, 0.006449, 0.010099, -0.024370, -0.002807, 0.030620, 0.015403, 0.019416, 0.031214, 0.024200, -0.017441, -0.029071, 0.002799, -0.025101, -0.000113, -0.028742, 0.019684, -0.009410, 0.030712, 0.033689, 0.021925, 0.007073, -0.007899, 0.014985, 0.005022, -0.012648, -0.019632},
